{"beta1":0.9,"beta2":0.999,"bp_method":0,"clip_value":10,"epsilon":0.00000001,"layer_structure":[144,30,30,1],"learning_rate":0.001,"m_biases":[],"m_weights":[],"network":[{"activation":"LEAKYRELU","bias":[[-0.00105450376918],[0.00179826654596992],[-0.00106973293418],[0.0011328231091111],[0.000911720073195579],[0.0000166265467986578],[0.000114965927602267],[-0.00109759309376],[-0.0017954741517],[0.000970913171825467],[0.00160390190400919],[-0.00040035926331],[0.000204092552356162],[0.000882659811091167],[0.000799214489563265],[0.00132178056526029],[-0.00055977939528],[0.00192938243443075],[0.00067589635534169],[0.000805504191808448],[-0.00159699700018],[-0.00176354212044],[-0.00023670840758],[0.000078254375703911],[0.0010911628607177],[0.0010691624381442],[0.00129042694444066],[-0.00134167541754],[0.0000847830370913863],[-0.00024273016735],[0.0000106575464946204],[-0.00076632425517],[-0.00012665760891],[0.000306797534099783],[-0.00255029480289],[-0.00004651021621],[-0.00119880032477],[-0.0010351389941],[-0.00036531444516],[0.0000879640845750272],[0.000526662081560167],[-0.00156585474778],[0.00152305427373704],[-0.00097401851875],[0.000233131063757591],[0.000743330927864181],[0.000922059407320407],[0.000688175745640868],[-0.00038563676066],[-0.00305798377209],[0.000177974241415511],[0.000496267330407315],[-0.0012159320172],[-0.00021146723277],[-0.00040106922357],[-0.00038638247344],[-0.00027294038127],[0.000508238788512054],[0.000797525801343176],[-0.00209764513553]],"weights":[[0.0193889096356951,-0.00822008758695,-0.12551502726849,-0.16019726664028,-0.00485342646627,0.157070083968355,-0.01964793572599,-0.04648546945326,0.147817665921935,-0.07680405874146,-0.12262666301017,0.110734617039641,0.196038320764516,0.0541616813299719,-0.14231843732798,-0.03002375667333,-0.17467499443158,0.12913604898185,-0.01628141099943,0.0385091885887339,-0.10332041649628,-0.1547120815723,0.0966774514201292,-0.01669269861674,0.072022149577346,-0.15998851383063,-0.19993838740265,-0.06435512581578,-0.02886662599862,0.194260415858793,-0.1943389724719,-0.05106111155899,-0.06344134315018,0.191050757303166,0.16191057891282,-0.05184754618103,0.187461732693168,-0.12170436927509,-0.01818223771804,-0.18874750009143,0.00773927977600754,0.0993133531221323,0.023134699179675,0.0739940793985294,0.0480625662743219,0.044004917928431,0.0137400727320587,0.095000584455377,0.197866921508631,-0.1472231423437,0.112047175304004,0.0993409915184248,0.117475165162322,0.177580556840092,0.0996448870670925,-0.10209007534126,-0.11819385364281,0.12066347013176,-0.04172539560054,-0.11598603007017,0.0744886711738607,-0.03084857035137,0.00980648304061939,-0.15002581614117,0.0119197448442854,-0.12943063465536,-0.06660108135052,-0.11997679348653,0.0119792956567076,-0.09657813725617,-0.07786795918656,0.192199999103665,-0.13693170788034,-0.10606111210959,0.147087624894518,-0.06145142482626,0.0382218416851547,0.00803188668488904,-0.09757294216061,0.0745483270263022,-0.17474424713761,0.109953011199738,0.0805471215632439,-0.02169753439453,-0.15007868368385,0.159836050898064,-0.10625341923266,0.0788106001613155,0.123919052705725,0.103414391960606,-0.19709720815477,-0.09665373193996,-0.1574571382459,0.0150464780331407,-0.13573914597423,-0.18503601504273,0.0738617310696539,0.0976717822263008,-0.13660693554501,-0.04763853162648,0.135770351130662,-0.15867812158135,0.108194189422173,-0.01091701756972,0.101741866073049,0.0019435205803122,0.159138120504301,0.102614134766173,0.0892538445284482,-0.07351345121978,-0.17201367792973,-0.05047259290004,-0.17537840785862,-0.01973783719448,0.135431864877309,-0.06857165067563,0.0756298455624367,0.111293755537183,-0.17966024518746,0.171682004742666,0.064175367399918,0.0198650330988578,-0.09432608257901,-0.05071047985222,0.159989197622852,-0.04706005283757,0.031471594322196,0.20188657441465,-0.04245339326233,0.0213982868127979,-0.15396508092541,-0.09001210813394,0.118129087859867,0.185111754205394,0.0630793435463717,0.175934157227833,-0.1118834105903,0.0373418779499473,-0.16592300353998,-0.03247598086971,0.180037408426751,0.172466144571303,-0.17990556263433,0.101370720240765],[-0.07207470803663,0.0710931247064988,0.161323795594356,0.152234777407394,0.102161094106149,-0.06346045020549,-0.19035219005941,0.0220807618046104,0.0169684801433997,0.140676613329779,0.15468432623808,-0.05964795093337,0.0966191485510821,-0.06320084299626,0.172369238159554,-0.1949419686049,-0.07499722012789,0.106382511491993,-0.19492645761974,0.0741980382311858,0.180403323366451,-0.14704988117413,-0.12634404520327,0.0697948663342786,0.121416367959944,0.0291775544352031,0.196186011580353,0.0377142926433711,-0.15013450040998,0.190579907225928,0.050382773827715,0.190341872834692,-0.13987436948023,-0.05408910244208,-0.08249406623511,-0.04183429284791,-0.10566287604174,-0.00416740208739,0.0713999360851202,0.12447108571191,0.103809598639856,0.0788284313850823,-0.19243932033892,0.109463009655222,0.0425089068954878,-0.02495080207177,-0.14615022749761,-0.16043545759976,0.138773652064543,-0.12466756913566,0.108339083001527,-0.12853599834163,-0.09833182769923,-0.05483623213284,-0.00955460328273,0.017940770309911,0.047387503723016,0.0467746406341154,-0.13434837305407,0.105979575304971,0.144032466124994,-0.130779823261,0.107687713221446,0.0463264827943713,0.0807728404927474,-0.05446733103622,-0.1000976790674,0.194705675659259,-0.08437371539029,-0.16675644313427,-0.19446007991496,0.121595427642414,-0.06718529358615,0.0426061281925668,-0.06282235910373,-0.16735955903476,0.186370416874054,0.0543339223934311,-0.11714551235723,0.0369726655277896,-0.03433972475566,0.158678232456179,-0.17214929257137,-0.11781829934303,0.0196706486602858,0.0135434392624807,-0.00477844742759,0.201385624868395,-0.16825061470565,-0.02046045249337,-0.06395373291366,-0.19934444657765,-0.1579134247303,0.143436374956007,0.167692488877926,-0.111537324088,-0.06132215138034,0.0132996263501627,-0.14045893174671,0.182555877766269,-0.07044701493882,-0.14956536632156,0.1974174109597,0.201928368319797,-0.19707464320527,0.0895774509630199,-0.04534959372477,-0.01547463811468,0.0396335174934713,-0.07307340092511,0.0170411776408746,-0.0231393680161,0.0867622283669211,0.0876744662588822,0.183350290359581,-0.19543998616542,0.0616017876518987,0.166402809937006,-0.01090357166909,0.0769852722378959,-0.19807718989,0.113146648972498,0.186471118447603,-0.18833505442925,0.151150739096161,0.143305921192055,-0.03807578439022,-0.10376315215804,-0.14549555277326,0.163466027007265,-0.11999146823363,0.175910685950525,-0.12600693194515,0.191655941715539,-0.15562559620934,-0.15825307407035,0.174412373670107,0.107560155611831,-0.01288345400089,-0.0016718664855,-0.05890037924485,-0.1400641357707,0.161845607242348,0.0630493590981224],[0.184950240987689,0.186147530007174,0.0344228531501444,-0.07240673669052,0.0849986222178862,0.203464575326136,-0.10808156099048,-0.17524360463682,0.202319406290254,0.070542780299293,0.157682863754051,0.0197382440972758,-0.01456700304177,-0.19502751786399,-0.15135153742267,-0.2022998846141,0.201426627234423,0.107782515288077,-0.12608695471805,-0.0218608775898,-0.08477797095257,-0.15448014170826,0.0481200642236357,-0.07228131682749,0.0635354496896878,-0.15310452834766,-0.02583229704732,0.184947837103868,0.0755575086715041,-0.04059298918209,-0.15048082461453,0.0155114436852285,0.0682160116671339,0.0955820047694102,0.141961654131893,-0.06402986627069,-0.11157961753237,0.150304748636901,0.106812045428237,-0.11588838260858,-0.05250190650211,0.0289967013115868,0.202285804057633,0.107243255704896,-0.05786642642163,-0.15308551412327,-0.177065651533,-0.15718360100974,-0.10756691624478,0.18379243942642,-0.04960402204307,-0.03144679143381,-0.02769464525406,0.193797132405169,-0.15381476672616,0.203921400414691,0.148367106580831,0.1386970104424,-0.00968721460795,0.0126166651766663,-0.14002190483685,0.114503107119307,-0.06308034293264,-0.08055695590626,0.179742758572087,0.0451333863765844,-0.13658718884801,-0.11578549137772,0.080728564800078,-0.14390188003834,-0.09544591093259,-0.0882434038416,-0.09050483125983,-0.10949438798052,-0.05384607622352,0.0424021819762471,-0.19658926378456,0.163155276145515,0.155894545440797,0.110963508143291,-0.00289250140408,-0.01429299091696,-0.08718034866822,-0.04547855141648,0.133571219840517,0.0311018820112308,0.0911209988375749,-0.00473906077151,0.146116333538346,-0.18104981743401,0.137877263739697,0.0242033009196983,-0.14019701131869,0.177016581141109,-0.19027953372625,0.147283551974267,0.139455387817006,-0.04837506272802,0.164112851064588,-0.04295244535156,-0.18537918159508,0.167961386153859,-0.16452538242584,0.148955807142139,0.0310111292907803,-0.06346619925859,-0.13830990280116,-0.17285139957508,0.0133420462202244,0.0615195830963899,0.179534226034547,-0.09677074925613,0.11501657480096,0.00491653645866614,0.0675285924941395,-0.04401038126739,-0.20373283845368,0.160069868869564,0.0162930994033245,-0.08264054159086,0.0862742395486319,0.0641134753367119,-0.04833866961836,-0.1089056607064,-0.0074766472046,-0.17006824306811,-0.10995267283231,0.155255744985405,0.123186073592544,-0.03379290572709,0.0852060675229323,0.134384653403921,0.0131666875327662,0.07768925067368,0.157147539078449,0.0796660920498088,0.104456304518706,0.187140274342941,0.0858817225804702,-0.11252431489606,0.0329709466828651,-0.11129350344564,0.0413439602840971,0.0195260845550779],[0.0153684888409343,-0.18898516222592,0.00196943781941638,0.201363261060629,0.0618952739303894,-0.14242550987376,0.0326119675182673,0.17394120588681,-0.1296827736434,0.0897011828834864,0.200329839170936,0.0577385298550184,-0.02156302992939,-0.16132080473559,-0.10934984466561,0.117589042034785,-0.20084373532129,-0.07421124173941,-0.02786866443741,-0.18571600473641,-0.00224903706885,0.0233032294067314,-0.07980025534323,0.0406647888956082,-0.18457286995465,0.202550471863005,0.183949414660884,0.0938716083105105,-0.0427112865235,0.00388578502878205,0.19826717381197,-0.0381285227092,0.0535182772477468,-0.19640999192136,-0.00298830170596,-0.0638219134074,0.0896222023758574,-0.14870598780961,-0.04874965697366,-0.09785418797617,-0.05768549692912,0.118881626463838,0.181406736850267,-0.06381676614122,-0.02256963861475,0.0583230314175794,-0.00040994270925,-0.08610499032908,-0.0114102748701,0.0364670476389235,0.0945025768356718,0.194590736144126,-0.16984799494235,-0.17036818571402,0.172052452346575,-0.06773427624117,-0.09151436058428,0.0271952074382203,-0.19519544007531,0.171419766654153,0.12113827169315,-0.1112308417226,0.181041835458814,0.168221004668542,0.0278947436908971,0.190360681470193,0.000972663079656591,-0.11580606910355,0.0383266158417493,0.199493114117167,-0.14484875595304,0.0515632462334913,-0.14809153842415,-0.04505313543882,0.148268374571949,-0.0038067136231,0.148539128037387,0.089506413386965,-0.13366775180423,-0.02580762425804,-0.00744208904068,-0.05226326298895,-0.19338703362713,0.124422008248172,0.177060682566019,-0.13511062156694,0.0350027853247071,0.184178430076181,-0.00884574990302,-0.14643191251728,0.0502994438664819,-0.04121539863188,-0.20167800182384,0.0491345204544349,0.0396406600818678,-0.13999629141524,0.169400921254469,0.114893530517736,-0.04602361351017,0.0649041086628465,-0.06629441628949,-0.1455915439956,0.203044376423905,-0.02397152362683,-0.14333163144212,0.14397947122034,-0.00491046226231,-0.20014135806513,-0.0073424281259,-0.1988358414973,0.17809037736463,0.00146336513248707,0.115605243232153,0.152153446027101,-0.06545937393824,0.0317794236752324,-0.16045427090871,-0.1536248480165,0.151364026461096,-0.1314258724229,0.145797091972731,-0.05493906212549,-0.1338337348283,0.160233273080909,0.0204551535139232,0.185831100209215,0.0517611865163282,-0.078946458569,0.153299474426366,0.145948324325954,-0.15265052300261,-0.05403731563046,-0.17499740943975,0.154827726759311,0.151615396446288,0.0439894326875588,-0.01789919488561,0.0412330674539006,0.0670067156815762,-0.12434982832733,0.196897497453696,0.112606193730912,-0.02689235180673,-0.00184743188898],[-0.15364667062398,0.130366457431455,0.193327401690967,-0.13744089857743,-0.17764156672769,0.016641552841,0.041469320359907,0.0853299395844847,-0.18915646827052,-0.15806531884723,-0.04610359667187,-0.05490290949221,-0.02199347084656,-0.01331747410711,0.14417391143298,0.0434406892827957,0.0398661772555164,0.105859309337472,-0.01598172938757,0.04614139530831,-0.03535042034353,-0.10083470924671,0.0772041880698824,0.198771260446171,-0.03420202691839,-0.1258295320246,-0.16874063859485,0.0544382738803537,-0.01343714861495,0.191696228814379,0.138345719162668,-0.09873099062658,-0.06731457934026,0.064548647646292,0.0437699661526504,0.187230871178713,-0.1060854845362,0.0871204345426942,0.197822877526483,0.0168266848833421,0.156704558872282,0.0720141964329804,-0.16392731598563,-0.0366683714584,-0.06718383502816,-0.14037297288184,-0.08568350890712,-0.03645318304142,0.112239117868754,0.137527068165974,-0.16442422223488,0.156600472094112,0.149540001359267,0.0735567405107356,0.00879683703248891,-0.16071973457358,-0.07431211576011,0.186012383703371,0.202243888731847,0.0827598629786593,0.0543385989458696,0.00340811382545993,0.0141148884145774,0.191766744617763,0.0524059529271831,0.0194246134359787,-0.03753266054407,-0.19886344682382,-0.01925138170103,-0.09665231167621,-0.07298851622005,-0.19334641683529,0.0810028392705516,0.0775912133928048,-0.00601937935178,0.193716962660476,-0.04033032925437,0.160368741661078,-0.0085840631054,-0.039126255531,-0.11602615833436,-0.02394985163889,0.167099574534376,-0.19120633009833,0.0222529446401378,-0.1782846233031,-0.18323654164541,-0.00817569125002,0.0440714034622797,0.0811922929818417,0.116645618908262,0.0573613906292834,0.145174156341428,0.110386432942404,-0.06988492540643,0.0984821115569838,0.0856709688818578,-0.10623559410417,-0.00550624815998,0.141128874207697,-0.04600310746053,0.0525913983410533,-0.10272489237262,0.0560680017205518,0.0134833214072764,0.122370044200455,-0.12945565739338,0.0162188702803278,-0.18253889346296,-0.17654003024666,-0.13484193260631,-0.11093659132731,0.0465076768820325,-0.04378466702256,-0.01753787586351,-0.02435164091796,-0.13025420562551,-0.19386512288424,0.0266383502908841,0.161867288028436,-0.15001309155189,-0.14245364285867,-0.10423270063925,-0.09785555677335,0.182974564372044,0.203850255237006,0.00700747318912233,0.155163906540041,0.0888203904505554,-0.16056595060265,-0.07900260105533,0.170265930210237,-0.10393809594655,-0.13475105982662,-0.09723759367124,-0.08062305979584,-0.10338404713506,-0.05342492280894,0.0394357805552939,-0.09809453108156,0.100853253816149,-0.09410325450871,0.0489820778198474,-0.18364987563661],[0.000311843601044527,-0.04052975045745,-0.16773572881215,-0.02684043437531,-0.15419428146394,0.0910833688167601,0.0910487097073924,0.110451659584254,-0.18466025124259,-0.00779794493982,-0.05517985541359,0.153741397525142,0.185826293427677,0.113594357889246,-0.07612268855201,-0.16346295146935,0.0240478761783639,0.169662642208225,0.0794043446858902,0.0801480957399743,0.19682643470568,0.148085170437851,-0.02678572505377,0.0565874268653127,-0.17131436145965,-0.10023338465645,-0.12448970620685,0.0229720729113344,0.0130299846487062,0.163754717431751,-0.10297742727109,-0.12906047030762,0.0869995532533936,-0.09103168793736,-0.19171345671547,0.00436163463166549,-0.01496248468612,0.0753275978644076,-0.02518153228988,0.0283067515666089,0.112486186466739,0.131067381503498,0.0866406926780619,0.143845196513815,0.143551548062478,0.0676621498896295,0.159168450175798,0.0227961920586239,-0.12152555184765,0.077898419395191,0.108946809133048,0.0355894632480403,0.0186856033678354,-0.13618487699931,-0.10974734617147,0.00470547310002031,-0.09847191244172,-0.11788479827864,0.144428326989199,0.167513693327616,0.0773646289113256,-0.01582247574481,-0.1124134252324,-0.09760987830793,-0.14729819407363,-0.19208653383718,0.0861701228451127,0.136594961600012,0.113861762645243,0.127479803790735,-0.15548014809634,-0.05388066466572,-0.01058020863076,0.201945421316794,-0.02066060541593,-0.03974504219457,0.115154291872498,-0.19074238717548,0.152055583199426,-0.05879361636919,0.132627292694997,0.0364924415680159,0.0642921636077852,0.175073803524257,0.112622573004193,0.00493421165075427,0.0682507432325107,-0.14215853459271,-0.14848895571881,-0.15110073109425,0.172626772634626,-0.12367450000087,0.0668888704041336,-0.18642202337948,-0.14730783541596,-0.14104561637912,-0.00680845514706,0.0433436685163052,-0.10228487041975,0.0333897187555267,-0.15720901045099,-0.08679940024863,0.00530895400095322,0.155551514574107,0.167461646497317,-0.07975651193052,-0.01737616169696,-0.10111077626091,0.0990430501808944,0.101634898896411,-0.13302368508004,-0.03007929840735,-0.06270988753778,-0.11508348444992,0.0636627022453043,-0.18551913114403,0.0121082583416193,0.0513037223783231,-0.19242851044507,-0.15989294350163,-0.13304443042503,0.169784368593943,-0.11615764068791,-0.00468661322072,-0.00646089479875,-0.0472922812134,-0.01270094001299,0.146398624855071,-0.12794841874522,0.184566125640764,-0.1496107413424,-0.04051527245508,-0.03910398336876,0.0650005296382109,-0.08536844694945,-0.08849672171442,-0.13842134666047,0.140702428207327,-0.0130371914003,-0.042221913526,0.121960238199817,-0.13710963349594,-0.02366972076007,0.0756268711431493],[-0.09303524471016,0.0837557329187294,0.0846185739101181,0.0239202210514737,-0.13114426919623,-0.03722675384792,-0.10904240689443,-0.05386470459142,-0.13540018440252,-0.07595549288362,0.0368929203958456,0.109454729620745,0.151486941507299,0.00812999561467982,0.127277348403302,0.15166443418579,-0.10105620764406,0.14100033538384,-0.07957767473676,-0.04214931058295,0.174503368634473,-0.13239287837709,0.141404189468786,-0.00692728463221,0.0215609681983234,-0.1392512492653,0.0598160702603845,0.145355286075553,0.052366194006529,-0.08445411306565,-0.05436985808738,0.145879883012858,0.113833047877705,0.120064219524865,0.037484797435924,-0.18612019535967,-0.17942548773465,-0.17996486108079,-0.04169361118949,0.0706890336400514,0.0735277624384507,0.162862863771481,-0.03167087513576,-0.19849584202909,0.00988378786151623,0.103118970898557,0.040996329717392,-0.01161125853858,-0.04215189659153,-0.06296049129196,-0.10050823331708,-0.06562864696567,-0.0570415640772,0.0915235368669866,-0.01251802447806,0.0222363024215305,-0.02016182950479,-0.03649440833183,0.166138833785313,0.0741859378116852,0.0591135371880413,-0.00316987866704,0.0102258964836667,-0.09231840325119,0.0995726674430964,0.138788238231583,0.036043406203154,-0.06720888144832,-0.05296565293396,0.00261297757212139,-0.08209801103196,-0.03053396840376,-0.01267822850524,-0.104019983535,0.076028931018869,-0.11420584669,0.0945306350388789,0.0130007469646912,0.115227749177949,-0.16948876537926,0.0330471160172576,0.072529381193907,0.00161527285983525,-0.18662435322716,-0.03781676904154,0.042848369644395,-0.13967789291621,-0.00545870554659,-0.06210500444451,0.128494773349141,-0.17892729214343,-0.16585952754742,0.17356029847868,-0.00579431204492,0.132898961946857,0.197966770154714,0.00774498569270226,0.17888276284753,0.145549516286975,0.140104136652549,-0.09233078309282,0.0859877130055982,-0.18134992824522,0.0661207898600844,0.165401876927258,-0.17955794545629,0.0283628999617493,0.156761965814693,0.000325803077856846,0.054194103418948,-0.04071959594767,-0.1975260162772,0.0839141571597968,-0.13140623444155,0.182880836225317,-0.01790978234022,0.0899584974000793,0.0698541372806357,0.169036412819761,0.130323053057961,0.150290002832255,-0.19333507542669,0.089352943764462,0.202237427969082,-0.01207643968581,0.161357023166857,-0.18803518392032,-0.20259576973653,0.0651258546932899,-0.08368200767675,0.16995885155396,0.0998790986776205,-0.16671378871858,-0.16190436952489,0.179966639402377,0.0852176321372017,0.187891587455398,-0.20160771081063,-0.05371064688005,0.0290801665810264,0.160065051942586,-0.02994379403875,0.178176304601917,0.0572784060918495],[-0.05891997098643,-0.17400061080117,0.0293190670946734,0.0961648782240074,0.0310137115166807,-0.16065175748351,0.0396464761657886,-0.16105453404968,-0.08619867218171,0.18245897472328,0.136834200421172,-0.15720772288456,0.0362752921304962,0.187266408284901,-0.07683332133479,-0.09027644811237,0.0782130099839044,-0.02256586130822,-0.04665467052261,0.0297688154348095,0.122933477507905,-0.19076807125154,0.0937355808878864,-0.06834089488405,-0.15037327932875,-0.18593188470412,0.0409695109280218,-0.007224111699,0.0700205422189499,-0.04513941218589,-0.15475812394643,-0.03430962294042,0.161213475282207,0.081019599657282,0.0563514687688779,0.0645045453503382,0.0913579256885784,-0.12177557971948,0.0170888251160153,-0.07242473639444,0.0453303972693732,-0.05286552099982,-0.02700480878417,0.0661602999633876,0.188237613538081,0.0627537570600906,0.0507313318193321,-0.04960035868165,-0.16718849478475,0.165985169671544,0.149756424894922,0.134615741234461,-0.08477353256739,0.0136084903794873,0.204248708423179,-0.00382869124695,0.00359475218152076,-0.04517898295814,-0.12452457081498,-0.00589881236245,0.168637209180407,-0.12476159140596,-0.20073235049321,0.0459260292736515,-0.15463941883101,-0.16779254537174,0.197360349368448,-0.03477471692375,0.0800921127987721,0.179963564840923,0.175651921945712,0.178281874641428,0.133581376617243,0.0875574527594103,-0.16463195660363,0.192300516884817,0.0873289161032414,0.102035931340943,-0.19198683820442,0.192376618928396,0.103093970490502,0.0492815086331899,0.0723138870195086,0.149450498136691,0.0165995859654111,0.0231985705071522,-0.02489314020952,0.187176300815102,0.0493375865423582,0.0143908058267762,0.203840992480692,-0.06139026758245,-0.05131258657114,0.199950183727725,-0.09860471051277,0.152001273922435,0.00894126734935631,-0.04492981295298,0.187590996821544,0.0655996080291864,-0.00711381897202,0.046694554644093,-0.01788178823891,-0.10387689449157,-0.06816704509,0.0297323905987391,0.201404577593822,-0.03157999920282,-0.03134617556112,-0.05132902787264,-0.02095059975309,-0.0151857663367,-0.0553979260025,-0.10324268662947,0.178537231532897,-0.09889079051452,0.0923357586577427,0.11150419390753,-0.08009210077034,-0.05274189868922,-0.20158631960983,0.0653028285861299,-0.19808414477011,-0.02378355480132,-0.01130609728011,-0.08288422898299,-0.16059191767022,-0.09662734388991,-0.08299184234395,0.0227229800186198,0.126064515365095,0.118335922394307,-0.15070438287564,-0.19264251985509,-0.12077667129664,-0.16851547000184,0.0784778937641363,0.0437023547640081,0.0627511787883059,-0.15795654919627,0.0938268814568131,-0.15813334432597,-0.0689866241705,0.123833586655585],[0.147227872247805,0.0844063471350468,0.162415052460624,0.174306268072545,-0.07258725867795,-0.04915562341696,-0.13712246083836,-0.16439650099546,0.195960021431175,0.160335482946262,-0.05210855202969,-0.16421793148306,-0.0116545284792,0.0041594620818198,-0.07782802608898,0.082272497301495,0.00225451601859982,0.15136281823487,-0.15166196467664,-0.13693460989681,0.188247778648624,-0.06577177384923,-0.03950170145941,0.0362820329288191,-0.08654169481953,-0.01714361507918,0.156752426714679,-0.19737440464951,0.0392431447388902,-0.04232740310349,0.124421350510334,0.07842853481335,-0.07228235693214,0.0686698006252741,-0.02385039241636,-0.03276178867471,-0.16467782078369,0.195543915161439,0.0659378306919077,-0.12074200360266,0.101521166523021,0.10409761303521,0.0653443373434545,-0.0733116651463,0.028540913345207,-0.03521334110864,-0.04345700549451,-0.04345659487466,-0.0229016774894,-0.14085639663433,-0.06098326775172,0.168406848980989,0.122586137774841,-0.14833534875786,-0.15316003634834,-0.00746149500373,-0.05200652041294,-0.04945480356068,-0.16166913287671,0.184300835332753,0.124979884987217,0.153167131348493,0.100581117887261,-0.10706625390347,-0.14408982047175,0.153033805951809,0.099247781808912,-0.02889698460982,-0.19743631056585,-0.08904658752306,-0.1693690296235,-0.02190636159818,0.141333834856263,0.161987689667319,-0.05908530838012,0.16814497670098,-0.12033667400723,-0.0649275582049,-0.108438790628,-0.12957276211875,0.0770210391901418,-0.17367718793123,0.0817602848655471,-0.10923759393754,-0.05986858136389,0.0819068347022322,0.114181072411784,0.0278129441799542,-0.18886512324838,0.0337673583687331,-0.1677568123613,0.0619633893082815,-0.09088648012065,-0.00516699972198,-0.07344691991088,-0.00208014441516,-0.1358992284589,0.0801343008039216,0.0788318594677226,0.173012767138494,0.0119270818758273,-0.0067964341446,0.02414829044965,0.0600039982904655,0.134429893635872,0.13861790005762,0.191131607556459,-0.09112352011847,-0.02538239109558,-0.00702217722431,-0.17871021776851,0.11772494512217,0.0547615654667773,0.137803117514082,-0.19503099721968,-0.15022044759289,0.0622802890356366,-0.14254551054157,0.161975398386766,0.149803250253214,0.0174516612999975,-0.01908536818745,-0.07686673631014,-0.18257087131045,-0.11747424072976,0.0813181497270877,0.0843159273044148,0.16658861642171,-0.09572425394636,-0.15018613272275,0.168807651859279,0.157232103480745,0.185721206037121,-0.08364551650327,-0.17962082087234,0.161227581252333,-0.16859064337467,0.0627976079013791,-0.00816639358894,-0.10456435043689,0.173061033617799,0.174140422709672,-0.20278102541312,-0.081925889702],[0.164882337750273,-0.08316996108053,0.172663597036902,-0.16261598170939,-0.20098032284656,0.131544325516577,-0.16052976647153,-0.07564104457806,0.0897544711375505,-0.1272073738641,0.20141986715466,0.0753171556569499,0.0065766388628795,-0.01046054219714,0.102517955622413,0.187592293625554,-0.17492408614697,0.122624563181631,-0.06246132242164,-0.1260858489227,0.162050709211142,0.17703837704144,-0.10443516256648,-0.03042058794993,0.0970354267878473,0.175133249163974,0.00179012888567032,-0.16956466134918,-0.17335636181422,-0.17774204426144,0.130814648039172,0.143874870650326,-0.16388870737684,-0.14719317312958,0.0066066685921082,-0.19156458369051,0.0178579928226497,0.0607113759878063,-0.03086103468953,-0.15411374022337,-0.16979431561103,0.132823741650133,0.119062851130299,-0.18058414875272,-0.09278315842649,0.0550281427270847,-0.18644503503133,-0.12487735913922,0.00474483180861979,0.186915926650002,-0.19194135116397,0.116043279687617,-0.12784758756358,-0.12514836712832,-0.07198136708971,0.0467577005982371,-0.01129814103631,-0.15842556790451,-0.02445642490847,-0.12332319214639,-0.02036837143343,-0.04881377454294,-0.1650238616952,-0.19888143258981,-0.1733694321451,0.0190697693015663,-0.19545455164891,0.181847993304298,-0.15837622132871,0.080122333595796,-0.04913109693393,0.102707629933233,-0.20352726462796,-0.18846069753487,0.193085576426804,0.095188236119738,0.0226364147768743,0.00720702016561797,0.168973498809629,-0.20194300629703,-0.01549398251032,0.0889339226342917,-0.04439785131674,-0.11039544234626,0.0971292280848099,-0.13289613325472,0.159159610700753,-0.14189327964971,0.0953899721025255,-0.09554533503998,0.160135339280963,0.114834982938255,-0.04683186117714,-0.13522074095353,0.0665732863365341,-0.18846959397312,0.0436374705343468,0.0375213254077061,0.140698391220155,0.0781848951199644,0.168833359692719,-0.07442324824658,0.126274090804488,-0.06651522377977,0.0334321954524057,-0.02377561473099,0.195281952890782,0.065673909840811,-0.10854140486055,-0.05685720867062,0.149723557660711,0.129294597650059,0.167183768054465,-0.06910052285816,-0.03540366377589,-0.03460316633335,-0.19009259051159,0.02243527284043,0.144298901837509,0.111403173220309,-0.15560969405056,0.106682873992139,0.0433911138523978,0.0576630214120829,0.116004828153999,-0.06889056703838,0.197984078532249,-0.02954829657997,-0.08306176620834,0.200777850689379,-0.05999170642764,0.0225750179654554,0.00337328206270087,-0.19600499178806,0.0953372342063279,-0.18029194006114,-0.10430070729611,0.188022664434114,-0.03337239584235,-0.13340318025628,0.118620400176282,-0.05295821856443,0.0206400859726684,0.00300039521884217],[-0.09587597194903,0.0653319889839422,-0.11794933870253,0.119699967170141,0.0822915705498203,0.0756691796934397,0.114599661091984,-0.09319566284749,0.103460518147768,0.0520627930612028,-0.04404664378602,-0.11772016328652,0.194845107971398,-0.12952640013359,-0.10843079486967,0.0709820207321286,0.200269967616237,-0.14912758564268,0.0909137088892986,-0.09539906503565,0.0714060783149606,0.179001133120902,-0.05244573957081,-0.13420394266517,0.148572577573545,0.023432372866792,-0.00272581469726,0.0503697124625393,0.0928591561104635,-0.09866125000061,-0.03911976721878,-0.0524446185442,-0.16751442520672,-0.03856498576532,0.0821156177981889,0.174516363546285,-0.14436327785675,0.0449255305936409,-0.03879621505138,0.175785546707034,0.0804887682383518,0.0401668283308554,0.179686691567068,0.021923361750995,-0.15207583125713,0.0389591248316735,0.125596751881307,0.134416996578887,-0.14385607090155,-0.02146023226066,-0.09329662775132,0.0957292078794827,0.0797328972884063,-0.09828166341251,-0.1264247144911,-0.06772254074561,0.170452796840961,-0.06317360604637,0.0918223497888684,-0.10031300891822,-0.05788473845956,-0.18210309064307,-0.15091205960475,0.181159550120492,-0.18778539354811,-0.11528013921519,-0.04036109828593,0.0737891094136235,0.121971546400124,-0.05713130883517,-0.07684266399784,0.0726602435844495,-0.10682330005183,-0.18806775230819,-0.19685165677423,0.0351980897654822,0.184784193612865,-0.04914924635862,0.143660643846803,0.0422459703079169,0.0240920731931271,0.187719453390077,-0.11026953288485,-0.12261563498044,0.127500908163884,0.0805686324764766,0.028759681830418,0.101564263713442,-0.05457760475704,-0.13636300059462,0.0295349343976649,-0.05300502768193,-0.16202813839824,-0.16350237402641,0.0837719362374449,-0.19651129516229,-0.14310652044574,0.156224529520196,0.144852670576569,-0.13197812313867,0.102235257320313,-0.07956949027047,0.179230137497124,0.012922477314889,0.176725329703136,-0.13455232882931,-0.13866309175655,-0.02822059711849,-0.14750448880093,0.121011278404253,0.0497187199731949,0.161707634149164,0.15170650321333,-0.04479116196497,0.122108704864027,0.0954626033329992,-0.19372083203063,0.112066771880389,0.00622542690617778,-0.12069707950188,0.173127859037233,-0.10839264414825,0.187421168412592,-0.1847644389331,-0.11047515756964,0.137549807569907,0.161809068522924,-0.01317063497927,0.122036921613111,0.0894340560724277,0.129916530210505,-0.04191187412648,-0.01565126890402,0.180198233585592,0.0519500204633876,-0.16554749136989,0.0848123945895578,0.0366878734759064,-0.07836730540777,0.194417752640825,-0.14423365469517,-0.15863945835238,0.0773292826242157,-0.07530147943277],[-0.1701384391766,-0.15489245323049,-0.10759527242756,-0.13401776159823,-0.14414252806976,-0.01932457662884,0.0862590645833588,-0.08861404708679,-0.17322147216356,-0.02143652454747,-0.17959559432145,-0.04336411060495,-0.09149708140115,0.196430597582334,0.0361785943885151,-0.10555304801159,0.127593622757057,-0.16783195918436,0.146407249311612,-0.10480457765962,0.164578054231198,-0.16495410667797,0.108133618435063,-0.19662354663572,0.142204183400184,-0.1765861804977,0.202258058428383,-0.05223587189232,0.0167475095607375,-0.03321942656552,0.165377784555109,0.0708479359440599,-0.06293716319579,0.100755993669813,0.0867011806149059,-0.2034616737351,0.11501873164531,-0.17870159492199,0.0533477998875392,-0.06553349645174,0.160982764363109,0.14267057239127,0.144289093397837,-0.08524686397326,0.0687986229811702,0.189172914458633,0.133027532561519,0.142036265004262,-0.18722643994185,0.131160126268407,0.114126983326499,-0.08430273901082,0.0595838849324969,-0.12871724287626,-0.12706099087115,0.0155642948544062,0.139683136910704,-0.08994542747417,-0.14012072877427,-0.07940701347394,-0.04137440749161,0.0849381633160346,0.183021082960915,-0.1808820318629,0.0620412785707104,-0.06811689309953,0.124585079680577,-0.13351645420175,-0.08792029708682,-0.0133431791044,0.154773642756968,-0.19446868689918,0.198208794027876,0.164590859039097,-0.15099666579839,-0.16484104215666,-0.07959293065914,-0.10830860999259,-0.00920912414316,0.166788299924073,-0.00752011777018,-0.05601340808031,-0.12650368905451,0.119853227773172,-0.14059247594858,0.136331829732567,-0.04027824808548,0.0694405219512347,-0.09120874756958,-0.05023662657125,-0.17626130869179,-0.04678553890247,0.0815188839148973,0.0270484534931794,-0.14400477874912,0.196902257519297,-0.08915777075592,0.0597615446587603,-0.15141074733773,0.190733181132912,-0.11783420514017,0.18434549302364,0.126623561807475,0.168826821487146,-0.11373136535334,0.0572903097320768,-0.12163812816323,-0.18171360124877,-0.1565114699477,0.0727045313204051,0.105064191963987,-0.11320349379863,-0.15540559409299,0.15098841111789,0.077114117431131,-0.12322342181598,0.151328555364133,0.0226081040560464,-0.05417778061684,-0.05302309980111,0.0756186052353615,0.100175493083949,-0.17809274723294,-0.18672566622979,-0.08950934913609,0.201159451703705,-0.16703478316312,0.126048688521597,-0.02456968970805,-0.18689381943625,-0.09252319008753,-0.06991087441174,-0.0285193288604,0.146202306542579,-0.07776175819597,-0.12377622036909,-0.14867456150498,0.145446197813008,0.0454557357646628,-0.14097425988361,0.0183714911147961,0.159555824321313,-0.14827208710701,0.188257837976838],[-0.19020286356992,-0.06709063137848,-0.04268454566908,-0.08272182697874,-0.19040704926603,-0.01708011028519,0.112396481068167,-0.07147997179836,0.0603700438897304,0.17666523700055,-0.12380813642598,0.0852835969691561,0.0750002293814256,0.0268241819538404,-0.09681654894958,-0.13510562413844,0.18445110990466,0.159192345480236,-0.09302386617781,0.0597381590573743,0.0302091284053661,0.193702109862431,0.128370614508554,0.0120855844148209,0.13633897606186,0.0819936082410567,0.192406149267875,0.00409816467070523,0.045019646519344,0.0627661448086277,0.114652342114183,0.0250695290995308,-0.03733864321675,0.125000233093671,-0.00556528943434,0.0174512639138702,-0.19859808697882,-0.15425706419564,0.201361296930385,0.182590486428128,0.185684645260562,-0.19571837352272,-0.12636743389846,-0.08854131237748,0.182728606102354,-0.18591053444707,0.184650357857924,-0.18583146700628,0.0312273938313301,-0.10456817414434,0.0857006583855252,-0.09740238972494,-0.094976762448,0.0415539263093361,-0.02491352341992,-0.00031340523418,-0.09133031867472,0.0641942930693637,-0.04774045504149,-0.07135109924233,-0.05817833652626,0.130315174097917,0.0785902422829902,-0.12803219476889,-0.12341185102434,0.141442203942934,0.049356499120371,0.202293347814487,0.115365445701827,-0.08840528976374,-0.11933776049761,0.185072725520598,0.0872092016390356,-0.12321632833544,0.0921055785413597,0.17426459505706,-0.09418861104427,0.199783156547431,0.162053550465653,0.165159157353518,0.104520737093042,0.00209764378234408,-0.03163747781727,0.130400533057007,-0.07853109533068,-0.03750421397213,0.0999182362901614,0.186452094436778,0.0283152031039769,-0.03039167824132,-0.04165379147777,-0.2025842460323,-0.00037689185306,-0.02000886925719,0.131527022874047,-0.00953530963684,0.113023617293751,-0.16713516542637,-0.0552786512511,0.193323033903805,-0.1840194225678,-0.06020711524334,0.0945857188514058,0.060917460738822,-0.20179340162272,-0.03452922149578,-0.18438989343861,-0.17718284557277,0.150148600802443,-0.01072763303553,-0.04383629798292,-0.15807349985419,0.118402269373925,-0.17712349580808,-0.08980267968126,0.156658265478662,-0.0603654413178,0.102483293227207,-0.15459542632471,0.192783750698273,-0.03177143615139,-0.08854555003561,0.113047959555345,0.0793807102150914,0.186327183594072,-0.10861652077522,-0.0692927268867,-0.13623244852465,0.142975286872765,0.0293988393192025,-0.11681743168165,-0.02853866337716,0.113382763937066,0.177255328145475,-0.06473619551943,-0.04580925708089,-0.12511768852685,-0.1640278487083,-0.18738171326496,-0.16882809031305,0.163093417108331,-0.04125477674726,0.107597509939397,0.0838226195575484],[0.0539136120095779,-0.11179623445754,-0.14466625712474,0.0418486861247646,-0.04412478334096,0.021822147713878,-0.10806303733031,-0.01648566586754,0.116176059976476,-0.01239931505409,0.175557827995737,0.0156773381112251,-0.02798529704592,-0.03422200682295,-0.05055813058269,0.0801554909203161,0.0692238029684082,0.178648045514617,0.0723049562001322,-0.08243259538749,-0.02509767971029,-0.19907143507665,0.138499259761321,0.0263190152994937,0.0535005766461507,-0.0799136284336,0.09423726603484,-0.07476987704522,0.0198636768131151,0.153459857422105,0.070305521326743,0.0760910398925073,-0.00575468328654,-0.19658170623834,-0.0441055789376,-0.095036969921,0.0466620473997279,0.137719634391207,-0.16011959746285,0.144070990019217,-0.0066625867155,0.192724641983794,0.0421112730910945,-0.19316640332658,0.0930259234498556,0.0635782542163776,0.193113960597156,-0.04014308934647,-0.17518936290298,-0.11135251807423,-0.19050053309082,-0.18014211367812,-0.0691247323956,0.0610094628313808,0.134693586543072,0.100075967193241,0.181400089639334,0.0577799188083886,-0.1064546472716,-0.02484767825187,-0.17232918118499,-0.10889313787295,-0.04515820022634,-0.12472970308239,-0.14752028131011,-0.00253473679063,0.0448347138105813,-0.09155561008571,-0.02858288229206,0.0536184312722564,0.0996030050065655,-0.15129803875003,0.102679898189924,0.0425503861202508,-0.13628738577042,-0.18595583043552,0.0369171423429466,0.0271766615924378,-0.04287387888651,0.0747064060963014,-0.00113298679405,0.0275531331161039,-0.09873845124887,-0.06840179670458,-0.10260060581831,0.180365913360496,-0.135166314267,-0.0203177550368,-0.09797396146194,-0.12984013079769,0.162834647554364,-0.00199870331417,-0.17050799017392,-0.01166499446547,0.203497586442458,-0.05714564893033,0.0128618501845801,0.0346629929812822,0.155464225644356,0.0649884314689939,0.114519441095695,0.124232507681037,0.180333287842301,0.0417054425605258,0.0834577553644511,-0.06002142630231,0.115809303150901,0.0630167059820916,0.196221333790471,0.0780177985141637,-0.0024224707025,-0.00720799060827,-0.17942205817081,-0.10272688436828,0.0363356965716176,0.103180347303619,0.126145764152699,-0.18650276202076,0.179946599840702,-0.0228810497622,-0.19845466517084,-0.11704278131617,-0.06981215795907,0.138342156342544,0.160102553954811,0.0544415678206692,-0.18958745461203,-0.07762688772967,-0.06193309150188,-0.07367916992437,-0.15485506652751,-0.0078953876504,0.184354128175368,-0.16100522374644,0.177353686747277,-0.03520409326455,0.138549815428992,-0.15380158349601,-0.19330082945398,-0.02745066340362,-0.02981547715094,0.0209306010309344,-0.10408719155735,-0.16144661072088],[-0.20044646573752,0.0732114766443937,0.193514720824049,-0.06350563311098,-0.08347220979562,0.190054521800315,-0.08876319857232,0.145114489528336,-0.18326950377909,-0.01327974843198,0.174924251912818,-0.15983000902217,-0.01288916049379,-0.15875703771538,-0.13408659925882,0.0995288481985409,0.132525278704304,0.102220210996119,0.198940951787628,0.084003049916141,-0.15845071560127,0.158918587644162,0.130975833138469,0.136051342626808,-0.15292077665005,-0.02708453922353,0.0777865673807025,0.0410579374027309,-0.1842837127159,0.158539873903477,0.110249543434998,0.0330952227350894,0.19571655194505,-0.07502555413261,-0.10764029879813,-0.11405607937559,-0.07813862950439,0.0725465261875083,-0.05412430190559,0.14077294422511,-0.151508863611,0.085502274660985,0.13125267407162,0.098211667215231,-0.16158727353407,-0.18249118783995,0.127789936784498,0.170644688418898,0.00392383585457217,-0.1684308184108,0.0114183145123867,0.0469109045212351,-0.05339268765724,-0.01022291492526,-0.0320289605419,0.0408688083696434,-0.11815478676015,-0.14404182267915,-0.08397552540169,0.119471447720985,0.0560186907309377,-0.10644462480875,0.125385694421528,0.0356548844515195,-0.14506900470468,0.172123728497907,0.149823930075705,0.100289651305704,-0.11529770456909,-0.14934909013917,0.203920931234541,0.120489675947448,0.183789129563546,-0.1436342252178,0.100510447568548,0.119724821670416,0.147163943523353,0.0125361618759345,-0.11579960369599,0.173219882691556,-0.05224187697279,0.0303848876994595,0.169930104470537,-0.20312790020584,-0.03399749227189,-0.18163844257485,0.0616886417781527,0.122482355327736,-0.06404583315032,0.115893085954069,-0.08757729872033,-0.05143032339286,-0.15142466503586,-0.19810665145726,0.0734804155801743,0.0521433121835854,-0.14996783288277,-0.19568984907432,0.194163574928524,-0.06184554858647,0.155408267498805,-0.12565797023892,0.0345149135557025,0.0960801701748138,-0.12268829186461,0.0969605286306428,-0.00795935811688,-0.00006956189549,0.0330543410373754,0.127396659820835,-0.19499763830918,0.195068374751429,-0.02814690306885,-0.17307030268914,-0.08969327353274,-0.14157749932613,-0.13672230048285,0.138531470744148,0.194407075415179,-0.06265157472612,-0.09054177100375,0.00575709623648329,0.0818044354647391,-0.12200022623226,0.131149597290086,0.0618688060766041,0.0287184753953862,0.0711994839899689,0.17334733949122,-0.1159843652745,-0.20373629079322,-0.13672984488065,-0.00868025107216,-0.17953229704379,-0.14198335727619,0.179224090946694,0.097668143026755,0.00312555723387188,0.157857971243221,-0.15101415888516,-0.18801883891845,-0.15961956152584,0.107398994914903,-0.12102555266481],[-0.19325750246975,0.155228977812915,0.0516445842592816,0.16773285164465,-0.09077703189282,0.182073492866129,-0.13623620467602,-0.13139390244725,0.180612747964332,-0.10134598339068,-0.18375201568874,0.132552622881288,0.0237678251210668,-0.03965172024661,0.188827330920915,-0.20106395548066,0.0645140526375712,-0.15878917819518,0.154764716847933,-0.01831970906674,0.184946817489021,-0.11290461538475,0.033346007805819,0.11885135196948,-0.06609207937606,-0.1934234386587,-0.14970771290465,-0.11220807562848,-0.16356859500348,-0.17863862478183,0.128579336816259,0.129949064236635,0.139614758551115,0.0658158869465095,-0.04354808590231,0.0204112001731489,0.179373970769196,-0.07618735177307,-0.02415700431986,0.159810287686252,-0.10775341768105,0.0186192610508816,0.119509146174273,0.0621093291012727,-0.15095469719128,-0.0175431036857,0.200252833338111,-0.17159695858672,0.0232535663776891,0.203391281184096,0.00257562930404363,-0.09585727856735,-0.01958569923562,0.138931741509939,0.0698764224422139,-0.14927907779364,0.0115030462202287,-0.01111836980545,0.0815713954875739,-0.13536052240526,0.0740936668597141,0.129765009512981,-0.02719680535518,-0.10218134183778,-0.20115193952638,0.0415651072716134,-0.05118845766574,0.050103838390174,-0.1861492302767,0.126525513954994,0.118434451694315,0.0525244605631229,-0.02691699473553,0.177288547952907,0.0549026798749398,-0.02205052658975,-0.1917814563816,0.0307523065065815,-0.07690735167746,-0.02740796631119,-0.06722485638175,0.197175733520338,-0.03414841129485,0.0309305217495934,0.0566751905859138,-0.11137180254797,0.12300223193099,0.07868166722625,0.166836543759468,-0.02737665964479,0.192303768168802,0.093473255112339,-0.12463263746989,-0.06209946629424,0.0000770040724979517,-0.06838530644041,-0.16228275056084,0.134495601526054,0.0697397697898744,0.108145647436386,-0.1701756589411,0.0656961343888689,0.202017226417962,0.0784521063423442,0.0361773369947176,0.17880234756028,0.00608218550913834,0.167293927623006,0.0973260549158847,0.125292947429243,-0.14165654056144,0.0417791755737506,-0.18559686422236,-0.11936961045256,-0.14569249062363,0.0433201428640191,-0.13590043002533,0.00105264039672364,0.120371049020193,-0.02497731123858,-0.09788190295699,-0.18236800278646,-0.02498762886564,0.116336548301984,-0.10644076702539,0.0245911514233171,0.0432215896094675,0.0798210952771525,0.0328544754652775,0.0258971208441035,-0.06106387042033,-0.02209912019634,0.175556489768241,-0.06419916956919,0.0541789601673361,-0.12031541885851,0.166707419564278,0.0187914867353824,0.0402431220494882,-0.12525636546757,0.0924604113447295,-0.10296098428659,-0.01348273771094,-0.02980801926989],[-0.00694457048488,0.0200049499805024,-0.17498293023595,0.159458874366502,0.121307178163898,0.101700229084459,0.149537235424343,0.175783592146963,0.173801005941901,0.0510370305973953,-0.16956084997238,0.182064885160033,0.00387887211100801,-0.14830235051775,0.0768061548492872,0.196600635198484,-0.17877022746565,-0.09782541821358,-0.1603520474272,0.121554452231522,-0.19826126545316,-0.16701394708521,0.0191685146154913,0.0675620827410032,0.189251930307869,0.0825429909692639,0.144919519422755,0.190234904955554,0.142313055201738,-0.15665348341712,-0.142859356563,-0.10812817217348,-0.18638509955886,-0.14939071375,-0.02093201729997,0.0116160485692587,-0.0812318887241,0.0363034645841343,-0.06489673752747,0.151949924206867,0.173421031568052,0.186882558853402,0.0242893629753861,-0.06543367986351,-0.18089904931486,0.0718533542437528,0.0251924490783922,0.117034768055016,0.0966666085459826,-0.00675484652703,-0.01775347391104,-0.18954235635165,-0.02675160987365,-0.18822923462934,-0.17877042370961,0.19230462642661,0.0809018953653335,-0.00815919734223,-0.08766131764632,0.00436032531115646,0.0135880035788319,0.103633553700107,0.0191816048725529,-0.1652825230674,0.152503638904215,-0.01562624351097,-0.14300464072917,0.153986894441407,0.196984283046214,0.150438739004365,-0.14921206510628,0.0412696680387667,0.0860388789210379,0.140826250251707,-0.19515042181585,0.0832458947738246,0.0945534161739714,0.157201182946596,-0.01051750639929,-0.19319537316599,0.0682204982709514,-0.13527138154627,-0.11895133037222,0.00561694010807144,-0.10884389606196,-0.06452203824011,-0.09403874038014,-0.11777057946986,0.172475671176761,0.0235244828236801,-0.19718615461485,0.186961961492632,0.118147042090052,-0.16025606483797,0.0231339522183681,-0.01453021645303,0.0918757640219719,-0.17808841684451,0.0523003791174853,-0.17545290915707,-0.11615763516035,0.203634849653556,0.0299539109307284,0.1794223558015,0.145296484240504,-0.10176512178809,0.180625372342457,0.0291637417937574,-0.02108531737671,0.0897171579205922,0.15316877781456,-0.20293121412137,-0.15431252025935,0.0888256847589733,-0.00068188490618,0.0748472274743335,-0.16500156744572,0.122396590405678,-0.00395507298779,0.119526984182905,0.159012497910407,0.114650928884452,0.0246329875917936,-0.14966613826304,0.0806275871851169,-0.1230530663765,0.107785429664695,-0.05882653934501,-0.13795408478308,0.104900121973976,-0.14448259895615,0.127481743064887,-0.01956990080836,-0.00113705795233,0.127215528535977,-0.1283684885839,-0.00053972688366,-0.10487030433576,0.130052211010212,0.148868634175892,0.152631248518363,0.0447159210469471,-0.20083765022436,-0.18564821818991],[-0.16852584800205,0.138321957367786,-0.06067537061264,0.0573292676336144,0.0305120084792638,-0.09505740875572,-0.11602421323666,0.148026701927523,0.150673720786466,0.0915663075369897,0.0249516261038653,-0.17204762684952,-0.12908640875772,0.13266004205867,-0.07929404902245,0.033510572204929,0.0312417468557329,-0.17297953666589,0.107366435298015,0.0522281746438157,-0.14100935168121,-0.11925859890443,-0.19429308244624,-0.09861013038231,0.197174764653845,0.0530173139501668,-0.2014629357385,-0.13600867198359,0.167981580570601,0.0351701363992808,-0.10301345552282,-0.15603601385897,0.0200715986620995,0.0793205834921194,0.0741486524552561,0.137068650945465,0.164779550676214,-0.05196700247785,0.0197909960071918,0.0253584406022668,-0.18983567316033,-0.18267890601957,0.0737993430710328,0.161461789283352,-0.08129897650874,-0.16066325768629,0.201405187665052,-0.13794704476254,-0.08217059964453,0.068412015776162,0.132540901425909,-0.00556046706078,-0.02033701736272,0.201459020936929,0.120617054671554,0.101168900600544,0.196302148035768,-0.04010478239594,0.143433504361616,0.116066569627411,-0.07900283299094,0.132757251038823,0.139829309630447,-0.18974239783486,0.154009205676531,0.127818247880192,-0.06278017796738,0.0593260940646912,0.0188521978159185,-0.07939671654701,-0.01764699735252,0.135646633993911,0.0816835134389291,-0.17178642512652,-0.14833770647545,-0.10922939774573,-0.12381797907864,-0.01564619030307,-0.18621310584207,-0.1837610055744,0.15206956973947,-0.17427041157198,-0.08090677084614,0.00835368450808016,0.00852864497532615,-0.1612065432073,0.164795867265368,-0.03701532260684,0.163104054754177,0.0151431944795007,0.0600424074059754,0.0817326235621013,0.197920191225519,-0.12262264970011,-0.02585333305624,-0.02801474322675,-0.1003477462417,0.203270522716148,0.0175639618556024,-0.03349375739813,0.12412820960626,0.124141630856008,-0.00772522314647,-0.18569856883501,-0.08990418592766,0.0147787033304132,0.141301279951813,-0.04541166264269,0.164079745868995,-0.13164285321468,-0.20421051393267,0.0787697112371631,0.105177519977842,0.174614449969566,-0.1488476775779,0.154786042055897,-0.15979166938,-0.02901057959025,0.199651887353276,0.184137526917804,-0.04792657557143,0.195049522051837,0.0492376963496989,-0.11602031733478,0.188402571980052,0.179839328482616,-0.03614855985564,0.161646503917292,0.194562147752333,-0.07104022911721,0.187576938200424,-0.19102565762383,0.16823339823132,-0.17190620538827,0.0127703487549361,0.0125145703196077,-0.10722759504087,-0.16596326494985,0.200045785504978,0.0434405301944788,-0.01720307305782,0.0450442568488297,0.0935238460237861,-0.1399684130319],[0.136478085785782,-0.13696417597978,-0.13234816689069,-0.04552965909963,0.0740478889540736,0.171597938210964,0.199156470770746,0.0577897348787202,-0.13389556929645,-0.17852350921708,0.0791495062837388,0.00662564904369359,0.0766620604947959,0.0562861499292286,-0.05374309477752,0.0754598166645375,-0.10579993512314,-0.18037086132384,0.193325230462481,0.133956902597721,-0.16697174446085,0.0404820544597654,0.10644544295497,-0.15746039698338,-0.14699219922185,-0.01293219900659,-0.08483912952169,-0.0066359626434,-0.13860369917652,-0.05316552662353,-0.11804626494169,0.0327902100800919,-0.11184048745208,-0.1498188219307,0.0668349664476397,-0.16839029775353,0.176119125265247,0.178689326537816,-0.12002338550923,-0.08074187924564,0.0649634747095988,0.041516338823145,-0.05308577766093,0.141634544577293,-0.18648811289804,-0.12996621479333,0.120856883773218,0.0161588619820612,-0.12229951546569,0.0102353077574473,-0.05930336687515,-0.02649502849425,-0.1131435228003,0.200014159309133,0.0866697038453106,0.0768408416423503,-0.11830540521743,-0.13317217312484,-0.19356172498781,-0.15259098369383,0.131388313701792,-0.03354968547963,0.111009503018299,-0.05610664507569,-0.1992426526891,0.18361129345761,0.142618688510691,-0.11518280977448,0.111110906452986,-0.01748155363347,0.0552340316596384,0.0414979474901417,0.0551091935737583,-0.16760147201915,0.0255896916158612,-0.16368528998341,-0.10231337297351,0.184817103496008,0.192441606864157,-0.19736053905469,-0.14619067321306,0.0384438442136752,0.0056933832841307,0.0645576377088693,0.0350023186014907,-0.14527429042969,-0.10798999476475,-0.16454434829015,0.0976645253947331,-0.16049529506435,-0.16439903274932,-0.18048473196531,-0.17082479424363,-0.16440526335316,0.0791617355829242,-0.04207433729528,0.0223824506132682,-0.11420241516149,-0.20016963879418,0.0388739883382638,0.19578361735121,0.128320569645654,0.0462298965885763,0.000686823387404098,0.109134962658498,0.00759362736488572,0.195586278611256,-0.00287379710976,-0.19865513868902,-0.08021071027566,0.196149117819859,0.0427741558652349,0.091955346615515,-0.1107886137462,0.0946489598019017,0.157869098648176,0.0116956157368783,-0.06506152310597,-0.12038578467981,-0.18559853520547,-0.01847882419542,-0.0503570324794,-0.13716227143493,-0.02255492015462,-0.04553571268855,-0.09428116295868,-0.15146930128923,0.200960115659575,-0.11466917592347,0.018041974315335,-0.13469398494371,-0.02665617386649,0.050612032272583,0.0855992513207993,0.00252119936956936,-0.11296034007641,0.157913841308011,0.0763896176696785,0.0714170770936287,0.0971101736269557,0.00296636277983367,-0.05530949864569,0.123296840108593,0.110264167456908],[0.0351136853016291,0.0931184278162637,-0.0946196070814,0.145141838797801,0.00503285989087158,0.132751256532336,-0.10407311178538,-0.11791484084634,0.0678690130610289,0.0466608780954143,-0.16254384641555,-0.12480581506742,0.020079132712487,-0.02395157524168,0.116566913436619,0.173535494386829,-0.03740300897993,-0.17929797672864,0.0791082357079033,0.123575370907643,-0.01659587184361,0.139051089332324,0.108504120137665,0.194135862182081,-0.00408003226501,-0.08702677209928,0.196027266284794,-0.0723695188352,0.0563727241294362,0.013305706504368,0.168420765510828,-0.18662708961128,-0.00007887966294,0.139730036737443,0.0195239823088189,-0.11603150168413,0.0999051701101047,0.107073545239841,0.12887835598356,0.0574555257731664,-0.02436413471675,0.0744091558614693,-0.19016929312296,0.103056782208688,-0.0174899476131,-0.00637803286956,-0.11539617519639,0.196403538179723,0.196010597505033,-0.1291961869908,0.0420162687524329,-0.06213503224824,-0.11288386018987,-0.12561485904013,0.200899102059859,-0.15598119204018,-0.11611611010226,0.0266531592010966,0.00482651097772999,-0.03538927221253,-0.1065116210344,0.0756733435634108,0.0318288414366964,-0.10671062956562,0.126506598768033,0.174935345363979,-0.00084151994879,-0.15459024752942,0.0192171985675715,-0.02688293573004,-0.05866063947089,-0.09936882631636,-0.10595001482069,-0.18693340856374,-0.10276259183055,-0.07649182817703,-0.15899339709384,0.128468601533598,0.151707811782335,-0.18005846253862,0.0423105557400055,-0.11589215563059,-0.14402844865683,0.00816829565071664,-0.15465112094895,0.0744715040765314,0.0712937216187694,-0.0737703251969,-0.13867824161,0.0867623413341209,-0.12048477612926,-0.19873202949346,0.0105237840367412,-0.09971424345516,0.187986390584141,-0.12359996324157,-0.09447050109114,-0.16634663355953,0.0550552293235201,0.0918177766419544,-0.05574076567065,-0.10620655112564,0.168457115114615,0.0150547354911284,0.116560830547208,0.0652293573067456,-0.20134529072779,-0.20331202203732,-0.04016614437563,-0.12454535750596,0.177782879351068,0.203931010570738,-0.039956488606,-0.1002922137708,0.0182600337259338,-0.07914843496534,0.176499410540619,-0.0974818019647,0.0732497472136776,-0.07351565490602,-0.06138497929463,-0.04550312512884,0.194339381003825,0.105146077403,0.116171209500766,-0.10865508767214,0.065340090297084,-0.08360261294083,-0.02212496439931,-0.16639488873071,0.0696161546927287,0.0561079615541682,0.0854829780739672,0.123898712466033,0.130457297570933,0.0866271045600649,-0.02348597567824,-0.12464530587498,0.0547086457632176,-0.15171058864753,0.0480930404870694,-0.12728626557843,-0.132733261398,-0.03144662056435],[-0.06797024553673,-0.02838772112845,-0.17412505730597,0.123495741472199,-0.1564936957057,0.0537295265425122,-0.01049625565184,-0.09273868360195,0.079662701561018,0.17169866719598,-0.00089464770306,0.197150557905292,0.0835463485400309,0.153763998383353,-0.18913574839163,0.126825921773369,0.0356447223717459,0.106221858498967,0.00981250443490202,-0.17370531719413,0.144227084696146,-0.20258942862294,-0.1836478277318,0.146384139855207,0.0148140052853084,0.0644820127959795,-0.02816437590059,0.19235328734367,-0.10170682566608,-0.12675582097807,0.00623907733614158,0.0533519788458758,0.147868820874491,-0.05944597627058,-0.05794733346969,-0.02422230151192,0.127435018670674,0.131859984869157,-0.09862268978059,-0.03996261219834,-0.08096647190996,-0.04938516291861,0.07774344359065,-0.09346700702128,0.177323685437494,0.0687678164103401,-0.00356263512023,0.200350090121842,0.0382854631704699,-0.0148851550845,-0.0074476523982,0.178290087222268,0.0653323410016338,-0.00999238776915,-0.12995998241693,0.0182926597148478,0.0656936920279991,0.166570733471357,0.0839550185190839,0.0670658446491713,0.0937936734179793,0.00906883381038188,-0.07042441824316,0.0660416744648951,0.0301835852159795,0.180592021201823,-0.20230395243546,0.196942042227465,-0.20165484874898,-0.17467378464771,-0.10190375918182,0.137943748006777,0.157441466421895,-0.1115861812164,-0.04963264098561,0.146987077582265,0.00471274502220436,0.167345827437311,0.0228702799544633,0.0711939488289109,-0.19886410182455,0.047005037910182,0.114404515549057,-0.14474257050703,-0.12071867197432,0.0457576054177306,-0.10221005586171,-0.12319245937472,0.194751665430099,0.0370757417270235,-0.20114380304594,-0.00644061119745,0.175024444141006,0.183506412549856,0.103609518325787,-0.06497860094904,0.0755423404322934,-0.14554885896159,0.0424960326303704,0.134108461780441,0.158511988128965,-0.15391144445538,0.0310562457982462,-0.08508152056894,0.0607808942198129,0.113041498268915,0.0847396236117604,-0.01426095669547,-0.05966462102962,-0.18911923313197,-0.07367915463866,-0.00264289275212,0.0110255684340029,0.179995473288158,0.155485201694793,0.106035864215217,0.0200116960149434,0.0360176668370286,0.0105065399785713,0.126177777903672,0.10038210342376,-0.17437608708005,0.00823506943974618,-0.03255273876586,0.0715153858946213,-0.17763882948162,-0.18975629498624,0.145422525323698,0.0128801349432423,-0.11655254127199,-0.1612309312288,-0.04096993258663,0.170736386033856,0.111755630979579,0.0478544815728081,0.0364288169308875,-0.06928148667051,0.0568269284550572,0.0825590136610809,0.136355538682131,0.153658024803367,-0.09152917113862,0.0297587498360852,-0.16458134807926],[-0.0897930719906,-0.05054623988069,0.142724916739391,-0.03445501455956,0.08110009374359,-0.00687114601318,-0.19573969867311,-0.19973561034083,-0.04379509443661,0.144433935238731,0.0194359220172323,-0.03604776157996,-0.09172538777441,0.108304316751657,0.0336470566913709,0.129036259646672,-0.13680677018035,0.196126741675134,0.187646369187206,-0.05920268366369,0.0449628272120061,0.0445605601045976,-0.07992388471401,-0.08882821828004,0.0868165145927184,-0.10588785321583,-0.14535072552571,0.0569167506079791,-0.07975583644749,0.063277613900219,0.0819889425097499,0.0234944379348696,-0.16228640979807,-0.07942455605951,0.0864289978882931,0.174508022267729,0.0336315030376872,-0.17576866333316,0.143123077351413,0.0467663597466391,0.167633670879149,0.183682301290972,0.189268849989761,0.170039878016473,0.0380924279609427,0.174179433117086,-0.04270745695795,0.0344897656547137,-0.01520019556469,0.060511055556195,0.182237219019733,-0.11178098799976,0.147065806638868,-0.03599708833483,-0.11087437888258,-0.10459223765454,-0.04219395905384,-0.0448952537777,0.0707826379300445,-0.07931664228223,-0.1162650017995,0.0984745589993823,0.0825740615841718,-0.09479605596557,0.1811098674542,0.147484319261703,0.160791605347415,-0.12932957281201,0.0829370573789344,0.149543934786158,0.169867565413975,-0.01485885848325,-0.12037837272352,-0.10688191697999,-0.14391657104221,0.151544938209464,0.00885703830800154,0.157571856364383,0.17060197647644,-0.17545207385365,0.142599503612811,0.109032888479342,-0.18001247579803,0.0688072655784982,0.0689276440137724,0.132818894309986,-0.05665894709392,0.0770006468039363,-0.13942313368078,0.023320886421668,0.100781178801954,-0.19806952052658,-0.11250725930937,0.118788651974135,0.11332905593763,0.0753607622093058,0.0115343490052038,-0.09070097305756,-0.20332981045558,0.0508927357889652,-0.04188600864563,-0.00288860850175,-0.01017863091018,-0.12843315148044,-0.00581112552141,-0.05369839833068,0.0442113887383113,0.180609283631542,-0.11661093370586,-0.10030982770209,-0.0196858546917,-0.00519582039439,-0.03896867560867,-0.03317619604523,0.118841489793114,-0.19783128761309,-0.05243649093555,-0.055190402257,-0.01279887928362,-0.04632479411225,0.133087114531696,-0.02021075288009,-0.07686744962792,-0.15584806580464,0.00646846454120678,0.0499454122066774,-0.18222550246465,0.0237963346299431,0.106984660406632,-0.16912278417165,-0.17243493835226,-0.18217841748227,-0.03990820395973,0.159645971731666,0.0812867108342181,0.0660414889748368,0.0799022667615955,-0.19984796562424,-0.05551202054078,-0.0754836087447,-0.12137546897609,-0.06662365597221,-0.12999038579544,-0.01347887654363],[0.0479633758053688,0.0629859763003088,0.112542709103219,0.164177873811265,0.0143065423260842,-0.0814782785398,0.116574133391649,0.00775002868412048,-0.13764552263295,-0.15735839661426,0.0546529888206524,0.0732070181712235,-0.03805383059021,0.0768251828201939,0.0508535967678781,0.182236178109521,0.00965932811941007,-0.08593673571377,0.0574583999795691,-0.19961749550991,-0.12247705456536,-0.18045232263897,-0.18642236320333,0.0549000984630403,0.139515746275865,-0.17599436839239,-0.04786326769733,-0.03790469866289,-0.15603334536352,-0.00651639886472,0.0289201524518877,-0.08888321809201,-0.07418504598067,-0.05496450791438,-0.02001129891313,0.123995083764869,0.0073537191764901,0.0783652006551207,-0.18807039835501,-0.1785919481543,-0.13807823127243,-0.03760931938398,-0.01387547323977,0.0636424370614274,-0.03282280858805,0.0535136950222289,-0.03035099981414,0.0153263389454859,-0.05702397127813,-0.00350464499633,-0.07315224217926,-0.17657485859602,-0.00544873338892,0.00929405250272961,-0.13906059264632,0.0321741503610016,-0.04876789400216,0.0360948395070991,-0.17009915884315,-0.07130831187778,-0.03863882387843,-0.05959023627366,0.188756762347656,0.136463740748078,0.00593866651675052,0.0530530739989571,0.115475994707914,-0.05172098128759,-0.08052215392421,-0.1404875788351,-0.02912544207534,0.0416782827850246,0.145966019337813,0.0210967266458914,0.152857776572846,0.158731754693482,0.0581844435598165,-0.03543586098069,0.0322854174151714,-0.07643508310886,-0.02067978966139,-0.11407777269642,0.172284369766597,-0.03335821883083,0.178509647718276,-0.19719369269093,-0.03715007547255,-0.13851956134592,0.0211610243140072,0.040585969128344,-0.02544698868789,-0.02918836260922,-0.1210567367689,-0.12645087024407,0.0799655954457206,-0.01749064524959,-0.08568222184439,-0.01677723805672,-0.13358713903975,0.187961876082857,0.161637635832058,0.0753346660483747,0.163395584951376,0.0314393731784667,0.174602634650161,-0.1480167187305,0.150413290430805,0.130431094245078,0.118272284105686,0.151330639749083,0.124710903093296,-0.06801189116044,-0.08608941314692,-0.11206900317791,0.0220171322637392,0.11383089703394,-0.09468926648383,0.119919691031724,0.0709742299921049,0.142672522195194,-0.04341008024031,-0.07526096563903,-0.06294998984584,0.0575860317952432,0.13022752219746,-0.14969526015301,0.0164665536917179,-0.17446013803557,0.0972506185513091,-0.03457620802864,-0.16232780743544,-0.0925662672224,0.0323453634661585,-0.03023763532441,0.0522292593271545,0.164019092454795,-0.16094390665336,-0.07696040895261,-0.07469069285221,0.0131085176296962,-0.00826045381244,-0.04887680374724,-0.05156663018656,-0.00827900835494],[0.0396941902448813,0.114867767047453,0.164580443570486,-0.15899676946956,-0.16630440447878,-0.1240459450673,-0.15833528436491,0.188627205347115,-0.12040678265313,-0.16743786501399,0.196978890179093,0.0769318188116997,-0.01341656211198,0.00394932534839635,0.200475295456634,-0.04980786042321,0.0324630148046573,0.105340276234815,0.109996342647501,-0.17430040143535,0.151124982559971,-0.10382028522262,0.136923253467482,0.152022018812349,0.101362888043475,-0.15529665027355,-0.0731617783498,-0.16256557772358,-0.15831294168353,-0.0381361963026,-0.0222340645835,0.0383833910004991,0.147050842180379,-0.13550058293215,0.197993940337544,-0.1406777404238,0.165904717359071,-0.09072776825171,0.00386864391375669,0.161271578877721,-0.03767699613537,0.138858658251505,0.0230258243714143,0.108746587050585,-0.10772010635642,-0.04305973213468,-0.18285339164614,-0.17491865909518,0.155453571601247,0.118577031629278,0.112167806815546,0.0511641206301474,0.150869982670242,-0.0214070423858,-0.02199848483621,-0.15589540802164,0.130999281065372,-0.09965088303223,-0.07935122246234,-0.09927575101388,-0.07194126984141,-0.08659766112899,-0.11695085779392,-0.19163708327908,0.0148342296180067,-0.09639639779308,0.079918571514768,0.179283484912077,0.155833091345966,0.156387010314707,0.00475484283159072,0.184432258013573,0.10802743003813,0.0309515513653629,0.148108622481272,0.192374502817863,-0.0488350729725,-0.04648478875942,0.198047434497034,0.111101011866672,-0.08743595789224,-0.07749831774125,-0.14820690555273,-0.12370588325088,-0.04379605031327,-0.15162754340382,-0.09338318363698,-0.19968543378891,0.0707427580134284,0.0809786732229072,-0.16707651937612,-0.06862473654428,0.174454026808715,0.148269420444876,-0.0764705402816,0.145389974726285,0.0910080892102128,0.202268815005838,-0.03935311740046,0.0467980043224203,-0.04311839392039,0.13415750197911,-0.150878077124,0.110332431007713,-0.15214315502295,-0.1664531031551,-0.0684257442217,-0.11704238675407,-0.02989597603521,0.0543061569139086,-0.18119156759141,0.115125484710673,-0.18802215038823,-0.12326949763837,0.194298988668547,0.0245058744133357,-0.180002005585,0.202124419208227,0.0404194033836813,-0.0221658347175,-0.08760775932795,0.11329131814539,0.0463041596121601,-0.12917925606191,0.0944537013654035,-0.11405386921446,-0.01334955702053,-0.03169542715448,-0.16019962379294,0.128497766205666,-0.12948904814834,0.0365746904515735,0.00318715293993885,0.051588484223131,-0.1397985161051,-0.10060251007033,-0.09921346390491,0.17781469249978,-0.09331091860621,0.18393328092237,-0.11266389486826,0.18547192825217,-0.1804283615444,-0.14933422089071],[0.176268525240038,0.141494601421147,0.0872889375107336,0.166950707324053,0.0126523069647132,-0.13722923449481,-0.14150057873618,0.0466480820020745,-0.19860767547683,0.00615331487423996,0.144381713705555,0.0884132201742318,0.167316879573281,0.157195924107794,0.00319402274546943,0.0952433091514767,0.0639847613344846,0.0404008229453192,-0.10272953771728,0.00820216019106943,-0.1158909010595,0.078026120649856,-0.0170464423167,0.0166053846277361,0.117974694153289,0.0875598934865643,0.025486836947597,0.151290280775301,0.0384353941559365,0.0021148933602828,0.0149541621941543,0.129404356803129,-0.06706562103805,-0.04251301509093,-0.18143553143935,0.186155660519885,0.0572856696926293,0.02600290284165,-0.0237571206169,-0.04125492719878,-0.16199435892221,-0.17807372622713,-0.12203480226947,0.134858482504587,0.179090260769561,-0.17778270290271,-0.16584667823626,-0.04316180276074,0.0895110807298906,0.0282857592848966,-0.02513712890091,-0.11265034025439,-0.13746894259751,0.15175627980354,-0.11646995416214,0.0983424760488506,0.0550147304762221,-0.13845678477453,-0.15169261398378,0.153622089406617,-0.07089050995787,-0.0201597480091,0.179517219688397,-0.07552794075248,-0.06124542252195,-0.17651126279337,-0.01305693953137,0.0190524317965287,-0.03882037494571,0.0796708406808763,0.0702528064510192,0.187334333391253,0.146783917564815,-0.16300692029549,-0.09702638267741,-0.02711035689066,-0.10860699575318,-0.09495842406502,0.177174350933073,0.038374292169792,-0.08191229496144,-0.04211799450395,0.11708808099849,-0.13089786938969,0.140086771675021,0.104362828138241,-0.08440442646865,0.179598623936721,0.103358219145454,-0.03232060523739,0.0634927259130913,-0.04411050371807,0.032303487213058,0.137930100549119,0.18476339250378,0.115269119807939,0.0368089017361219,-0.03037986487733,-0.12641636118204,-0.08624810080481,-0.01359690107335,-0.14623681103101,-0.11796234721021,0.0479635943096732,-0.17610747407727,-0.18567727633506,-0.1801458843189,0.0821994805860408,-0.1495469530602,-0.11446562226842,0.0925148292580788,-0.05693467144489,0.151607438012857,0.202502230598443,-0.06774462700239,-0.17084390569505,0.184084432430704,0.158174643080806,0.182234140983227,-0.12906643388408,0.0331637883111759,0.0969561390142169,0.0261121400748828,-0.09090290268687,-0.02102339612352,0.10225699309508,-0.17668791871979,0.126020512340286,0.0229748438832529,0.173333470004717,0.089759685937945,0.0509728248798207,-0.09432772860391,-0.03380381633451,-0.00695690562958,0.0385803417555694,0.135814623549902,0.175868997013442,-0.00070882881461,-0.11124616822446,-0.06766126615158,0.198974230677456,-0.11243711563444,0.00464601776911355],[-0.034551688186,-0.14036317986215,-0.14894955909176,0.124333986061879,-0.05129445071301,-0.0722723674443,-0.01262471186697,-0.05347602587012,0.119627338179275,-0.12641265453371,0.111622699307779,0.0356363089302735,-0.1261261298557,-0.00728925993702,0.0432050504971957,-0.01207442279655,-0.1130921865065,0.134821831856136,0.169788158806975,-0.06269906257634,0.0340149077257466,-0.08068355668927,-0.1946666104551,-0.16282904825422,-0.18478180923524,-0.10577547534755,-0.08951423916533,0.00241170635135,-0.02388434472606,0.154655695328157,-0.04088046479001,0.104448381286106,-0.1120465936885,-0.09314654537965,-0.12923445952996,0.0199641535435848,-0.04323339587314,-0.07515241807887,0.144281428930189,-0.0857617157559,0.0259227090033013,0.105446268016189,0.1863513800002,-0.1714517727783,-0.07052868913638,-0.00793062846394,-0.19491394613166,-0.02519431772846,-0.19170612475268,-0.10497227169741,0.155490251147289,-0.08706440577196,-0.07395787681566,0.156878094212126,-0.13475500802515,0.137368790892176,0.129248183585325,-0.18187788229375,-0.11016934640635,-0.05692670577434,-0.13729044587316,-0.17549767989209,0.00447541283512503,0.0232536345230268,0.155672274271635,0.0447646921807314,-0.19913733241621,-0.1107087655507,-0.11455667582638,0.0142886557762235,-0.06511356767899,-0.17190152085337,0.0251742025531287,0.120541694374631,0.147934384661892,-0.05755699974368,0.0485331295146873,-0.03585258310688,-0.13849251384683,0.00642113279484236,0.0308102702376462,-0.04258405725413,-0.04430929565211,-0.20202818333823,-0.05026402106017,0.174848655859131,-0.13045277024217,0.154104005080422,-0.20375259613985,-0.09424354807457,-0.08684510792766,0.104243393405118,-0.07693893408242,-0.16913711327437,-0.12099411071408,-0.15744067270023,-0.07906512332279,0.043591691262288,0.117084276168795,-0.02328512005063,-0.02609749858843,0.20223686798149,-0.19367174957397,-0.19335841835718,-0.11405137160266,0.125813051621646,-0.20169301320242,0.0424099448935204,0.063165601442444,-0.16470953726165,0.0494921365303194,-0.08207135559308,-0.06262641299865,-0.09381184288022,-0.20371747862818,0.113972293004402,-0.00685511649404,0.105628239319392,-0.1347494183967,0.063622321620112,-0.12397098499425,0.0504961074864516,-0.09122814806853,-0.11524693494185,-0.19647916592145,0.158420197123026,0.0411611205245674,0.0410477100334109,0.0637136080815361,-0.12362042795125,0.079727413441554,0.194958607544964,0.108605020892797,0.026099554697263,-0.12741257604747,0.16844225912095,-0.0815857731324,0.185597350512486,0.0243701892519348,-0.06476829243435,-0.13555289316026,0.00204081216389035,0.0587885262465424,0.0765789759249047],[-0.19533061545486,0.0144772053326801,-0.05466245585852,-0.10683569922244,0.105423908888207,0.128930899820802,0.182962285260716,-0.02202667208918,0.183887337138743,-0.0527942817363,0.0968442505143154,0.180537344351456,-0.01238548025859,0.0429092518717279,-0.11526578156371,-0.10944683382585,-0.10141029999264,-0.17890220693482,-0.01795354007437,0.154335118706162,0.00928669787052509,0.0568141124391363,0.0175295626571164,-0.08897444825158,-0.02237283415767,-0.04301149506517,0.131692859316155,-0.13079125869643,-0.04959789220183,-0.00600435445381,-0.08731087768671,-0.06435214557876,-0.07132602149959,0.0671981123586214,0.169282778922488,-0.19132823873363,-0.05055980520507,-0.20407907843595,0.0748649288705868,-0.1354003522261,-0.19846904379806,-0.0149453778946,-0.07472382324034,0.165349329928625,0.193300738314129,-0.06364460278363,0.1169249616396,-0.12484744892085,0.134918283799897,-0.12263790585777,-0.11242541092028,0.16358303027164,0.0157282460159881,-0.01494013297647,-0.04133706626687,-0.09601545169794,-0.19984836938878,-0.1585267986618,-0.02612030433913,-0.14668670841989,-0.03388355361698,0.0395678161343641,-0.02313513158642,-0.03858133453409,0.0218361727278919,-0.14076983373756,0.182846925969957,0.173492827626269,-0.127002532005,-0.15254906731363,-0.19346979157745,0.0153761272450314,-0.0304494483532,0.192031191413957,-0.15141334085666,-0.18152079863823,-0.04528982031868,-0.04851645209826,-0.02567646709083,-0.17628783878432,-0.1698385483267,-0.06910032237178,0.169313398745183,-0.07495840550275,0.160717324919015,0.179896353681157,0.152281792330882,-0.00173664266658,0.0390285413804406,0.167083719818881,0.0261828115395083,-0.19294143749813,0.139058558887264,-0.07910045995523,0.081020379429798,0.0802131036630134,0.065767536434,-0.04778756057785,-0.17752358812017,-0.19389116523791,-0.19617581548011,0.0339072110795599,-0.08796950170665,0.130509435529984,-0.17968373962043,0.163524539587534,-0.08141696864312,0.0312755968036439,0.157038328491148,-0.05719782916359,0.0379018767046642,0.0148500741146866,0.130864276243857,-0.02784551633746,-0.09653850899867,-0.05780293913652,-0.19690891431253,-0.18825773695534,-0.04778897391432,-0.14087153474962,-0.20090590213469,0.0198653976169166,-0.04565385991739,-0.12084828845809,0.160556774330591,0.168336123953239,0.0725370853669252,-0.14126020576957,0.0309239602428804,0.118613217735459,-0.12819645120337,0.0836646215573123,-0.08657579158007,0.169565600539953,-0.06639201183503,-0.06799078365211,-0.16796343053883,0.115497363537738,-0.1593146242647,-0.13945865429241,-0.03082163953658,-0.10405195297334,0.11665903760437,-0.1133928704867],[0.0922171160490784,-0.05294852484963,0.18981989000868,-0.05943329806814,-0.0673658680677,0.140853917139049,0.138333253472368,0.0142177938346491,0.0582686875058365,0.190598392694908,-0.16128368232806,-0.0508873402505,-0.00785000583377,-0.07647831176185,0.0577529519282314,-0.14529180552494,-0.11559598766492,-0.07065614780496,-0.18703677327482,0.156449766559295,-0.13859360615533,0.0956388929572817,0.142810712317446,0.0224811090607628,0.190977869200402,-0.18992591948918,0.000352197632487226,0.000792742480681747,-0.15407209893738,0.092986823456964,-0.02149257857666,-0.09216227829961,-0.15723313419507,0.136210103707099,-0.02664581546386,-0.14464824540266,0.00378739776629791,0.189861663901046,0.0847228608723403,0.151086565767285,-0.06696014214037,0.0673881098777528,-0.13911175880081,0.135638951151472,-0.12025256148604,-0.10365782392087,0.159087424512124,-0.15737303172905,-0.17169859632889,0.0330874127828862,-0.11379676296496,-0.0563967102897,-0.16958821861868,0.144728935201482,0.00316987674875974,-0.02527080231647,-0.11766667727763,-0.13401826760601,0.172596017240439,0.116802209654678,-0.06984436941817,0.0068321119166813,0.120925129341879,-0.06429882401421,-0.18326596242612,-0.04862596176995,0.0426079190363113,0.0284003826443774,-0.04175988749208,-0.01318925922248,0.0537144745592458,0.169824329880732,-0.11245205435758,0.131785807652473,-0.08210692188619,0.0687427393012342,0.0539300007306545,0.118923979834432,0.0369715189344074,0.20104982857216,-0.14676765023084,0.186305966706052,-0.02522997262354,0.102223633801687,-0.16027879361053,-0.01969233511732,0.143487643592416,-0.18522063668531,-0.1126836688268,-0.16890601643134,0.199581398390633,-0.1920636784429,0.173175430323393,-0.19664072700502,0.171263608645661,-0.12598832745607,0.136174634829149,-0.11756900573511,0.184217683588732,0.0158242031287911,0.0537822917641118,0.0830055506938681,0.0283310480567025,-0.17186862964129,-0.07057585742841,0.10475779644503,-0.06919072529383,0.0172047356889439,0.134699947684988,-0.16578571896103,0.114949976238949,0.127510740003913,0.164926556034569,-0.06579868999864,0.00116597118695547,-0.01445853991056,0.0531980538372486,0.193095951923107,-0.01678612020396,0.000663319610945386,0.10262021783094,-0.02850870598371,0.0599876309203254,0.116834851707486,-0.0561199043586,0.0255629766916156,0.0189923180288386,-0.05838596013947,0.0793131046257486,-0.14742558368258,0.188978828087929,0.100832321654165,0.0864977657977224,-0.10928020062748,-0.10501323501241,0.0415262182079857,-0.10204763139193,-0.17663329850768,0.136063471444204,-0.12887975758143,-0.12534094683593,0.0965483094419526,0.00159041896864519,-0.18072808602191],[-0.1853423386098,0.0299986639848013,0.157592389407697,0.0103546295552475,0.0836098756049057,-0.0984160990675,0.105712459674851,-0.18849442518448,-0.09219604828549,0.114600673241613,0.193603018741357,-0.18423200711931,-0.15591157658673,-0.03093347185279,0.11397872159048,-0.13435649830929,0.089143169967609,-0.19754097830337,0.168201821612122,-0.06154348141514,0.202160843251347,0.125491250224866,0.0633104221654863,-0.17437248414903,0.115862225243155,-0.07295275702391,-0.20303089800565,0.0958471710631044,-0.12341762369608,0.187665985451562,0.0374807825949821,-0.07664527341447,-0.00526912499648,0.108948616121995,0.178371475926587,0.147227176680577,-0.09195101884868,-0.17480760952196,0.158804253330605,0.134857661236462,-0.12581123070016,-0.06071447329124,-0.03202672615346,0.193733358464264,0.194340747073711,-0.02384897440959,-0.05453501119475,0.146625123341348,0.0460990293990714,-0.09236498845169,-0.06617635998655,-0.17411601053215,0.0220215252634105,0.167939948808649,0.145921364894564,0.187644310448695,-0.10617564856463,0.141694553114035,0.1892577787002,-0.13143325292845,-0.12421422703666,0.0483415492494113,-0.05053445576409,-0.09604253223654,-0.12897160759681,0.166920588860059,0.150941503147261,0.125451133718852,-0.14164496601489,-0.20166018499742,-0.05571621052507,-0.17679686330311,0.0933099959270222,-0.08480163711548,-0.20196788008592,0.107713852308656,-0.1922982071024,0.175281978036956,-0.04873416900726,0.0659075431773233,0.0599345013732448,0.160452823945321,0.0560868442156883,-0.14412628745936,-0.10882005323305,0.0638475465315869,-0.01043447003751,-0.05474518661533,0.099468260790653,-0.10611948019874,0.186669658005355,0.0841338279877899,0.137259696665099,0.0470651154113488,-0.0844950563425,-0.08769853017787,0.20165563297363,0.0490875503835297,-0.11584787273519,0.118240717109611,-0.18559395940279,0.0268828228659318,-0.13246199392881,0.0835695878134001,-0.15788074000109,-0.13846405960172,0.0559218200583869,-0.09990276548234,0.121455968903313,-0.11803343552598,0.160626128036571,-0.15371526988313,-0.09565285832807,0.0958258423988676,0.0831621999484063,-0.03779157941362,-0.09268097359472,-0.14610063508192,-0.04428719466524,0.0711683184566128,0.0487510366343172,0.196509326879199,-0.13048374054223,0.171508388460446,-0.05140432624311,-0.1026244002764,0.0502987916816946,-0.08357603627676,-0.00934375638922,-0.06466058708653,0.066635257587273,-0.05902483637472,-0.03577011541058,0.0962780197761484,-0.19771085099545,0.13481045396717,-0.0033635695727,0.0769549974141675,0.115601445922532,-0.16350278719163,0.122321615005843,-0.09719801956461,0.138327064746569,-0.02156547153259],[-0.03264646352753,0.200847583730609,-0.19873748316151,0.00620801219793726,0.156589505548772,0.12211699270275,0.167249474508854,0.130425138563274,0.0125589705139565,-0.16578128557748,0.129792897087076,-0.17293336684373,0.0820018847126914,-0.08093548253031,0.121180683881758,0.147678581486315,-0.19235338759603,0.00944599325315776,0.148599299564645,-0.00930366555461,-0.12117369545642,0.0820085125196289,-0.18149136666916,-0.19150612681704,0.152122992357102,0.155382617744222,-0.17559460258192,0.149167420462906,-0.12641012674027,0.0840068942201319,-0.10291792748754,-0.10422161285332,0.137176635998247,0.102387293583554,-0.04800413248589,0.0839443470181707,0.144790369052815,-0.19607404217184,0.040958230325155,-0.13116136134573,-0.06781811708305,0.0214303844561169,0.01416622702543,0.0918659416324033,-0.09442343828441,0.167517083780346,-0.11319387326323,0.0309915938044838,-0.17279931473331,0.115273900699427,0.0167965131586438,-0.06261436818216,-0.11263272123543,-0.16288106813661,0.17207476754564,0.192352909897732,-0.05097003762383,-0.13868699510494,-0.09955036365152,-0.17180644512257,0.16043960339544,0.000970213474591899,-0.06150479251321,-0.07431544592014,0.180660542491884,-0.09304147977179,-0.1885292449641,0.0840172360284077,-0.19479119673268,-0.0205818311358,0.121240364407199,-0.18261090627328,-0.19260690390316,-0.09861310710165,-0.02204593330719,0.079882677971764,-0.13291275972371,-0.15093933146517,0.10338102933296,0.157661202518214,-0.09681305941186,0.114663680280596,0.164525348223148,0.185512235193116,0.0672197032384709,-0.11596936624941,-0.19077169976735,0.0437835506700844,0.188411598770732,-0.03116264217088,0.183607541731113,0.113746999610494,0.181572002315958,-0.11024392805477,0.166257359338503,-0.0123902791547,-0.027415710939,0.129987696408772,-0.08179518266754,0.198196854193745,0.077560025069763,0.0137228449570497,0.151746590060997,0.0919118897195232,0.196915959001119,0.0672486148533804,-0.15124984574056,-0.05649968200042,-0.17418308412603,0.0478307699947892,0.0949698127581548,0.0918456769155343,-0.17043100251441,-0.10833214928695,0.156388375435621,-0.05854438962726,-0.11741283247143,-0.03176537811103,0.100519186703478,0.149476075966941,0.195357883867369,-0.02659778090123,-0.15970939910025,-0.17204562797598,-0.18581252669959,-0.18454757217359,-0.03365164429513,0.0865964818372381,-0.0861357887825,-0.10332142784991,0.168004164954929,0.086333082579853,0.0757133478389338,-0.08594903607402,-0.03971515189203,0.0777087068556981,-0.14264009399061,-0.07615016294328,0.0662487865253052,0.129432727814559,-0.09175603254343,0.0301588752669751,-0.05626399371782,-0.08685562481555],[-0.05196928722378,-0.1250311814142,0.177526167488435,-0.04428318676256,0.203456423606488,0.0871806499076887,0.149224399164535,0.0192859897440828,-0.03305954512764,-0.08091734625462,-0.15849145535932,-0.03296707698252,-0.06008664289215,-0.15587652286967,0.133527875104488,0.177001680186894,-0.12384447137673,0.114676199758998,-0.00799811010317,-0.11329599858003,0.147855096113519,0.201304116954608,-0.12504209405492,0.0315692429243948,-0.01344169271918,-0.06112007854912,0.0281613159761678,0.170496198585002,-0.0749215310405,0.186796865978816,0.15217053565145,0.0906160879371111,-0.08081401215703,0.000879776642624394,-0.20206832373698,-0.00645285150913,-0.08417845951482,0.0193000182198025,0.0702770860102293,-0.11166363256129,0.115002726652013,-0.08071438079243,0.0961965410241698,-0.12112949229054,-0.20356656471529,-0.15553634625698,0.0360276185765234,-0.11028723617439,-0.1881205257167,-0.19456718402328,-0.15693567297618,-0.19365138671026,-0.06145696000949,0.184602361170411,0.104090442774074,0.0472218266608574,-0.0744304190742,0.160926744975722,0.136773081156086,-0.01713916665057,0.103309092043008,-0.07240083529825,-0.12837359625072,-0.14212519267474,-0.06826541801992,-0.09116050238086,0.177236935360538,-0.04815981560739,0.198352029981935,-0.1741468567605,0.162396047885358,-0.20048696382423,-0.14926521552327,0.203205214861575,-0.05155238257297,-0.11133720099625,0.00154089488198104,-0.04185019179821,0.0661048410687202,-0.1950332916412,0.123795195384349,0.135745151686519,0.0222350965464766,0.131767425292697,0.112446889640329,0.175866228785694,-0.07277718752005,-0.08791091791045,-0.16991605628745,0.065521897788305,-0.10859810932436,-0.17781928475132,0.156464894888409,0.0156131960613937,0.0492051061486885,-0.17550925580147,0.0537516330704699,-0.06209708500514,-0.0858360831855,0.0855451455827353,0.186003929897753,0.0616874554555575,-0.13945188800121,0.0238775649129472,0.0035883663899531,0.0576822460338174,-0.1928791553313,-0.05392008184595,-0.0358096350314,0.14200583310664,-0.15243068058084,-0.18930918345465,0.197232667624279,-0.00522569811785,0.0482682578866266,0.203269565304215,0.015893007333823,0.110963111250445,-0.13534763069666,-0.1415044300748,-0.0369739579791,-0.17941256969612,0.0850031203449669,0.153694859551466,-0.12074661890097,0.0709080119068362,0.16458654767596,0.166538200629011,0.115563040556406,-0.06894613743167,0.0622323432975729,0.136454754101688,-0.04275439649203,-0.16487426082545,0.155126815636537,-0.17696641628093,-0.12877198085482,0.0620250650389298,-0.19735017453255,-0.13465838408379,0.0162200859899462,0.192767585554938,0.0431417430111396,-0.03655027591964],[0.0960902427803766,-0.00401285523465,0.184793150800518,-0.08620306748448,-0.01641156234112,0.0665505400227016,0.101950133491646,-0.11143103047326,0.190970374563045,0.0614619263869898,-0.04976407077197,0.00536532229408035,0.0740531584884325,0.0929269231017606,-0.14018356886214,-0.0407420809393,-0.0937515272069,0.125864693930919,-0.19340937926462,0.183539248041139,-0.14778934305832,-0.10911484638748,-0.00304876052976,-0.09505362792504,-0.05310392879206,0.131199461706955,0.125594684833672,-0.07713918381389,-0.09135159401036,-0.15746522723705,-0.07719492594444,0.0284981381771638,0.0514622954043839,-0.03061814823924,0.0444793129758711,0.132421744194444,0.0314458841472949,-0.07411374406014,-0.13000461956663,-0.03949682254721,-0.13129346468928,-0.08168309815018,0.118509879878072,0.160829832502584,0.0891287133970171,0.0167019887406197,-0.15753402926917,0.193921701792307,-0.02433305445952,-0.15314732380245,0.0242609902344913,-0.15370797624182,-0.00113505882755,0.0343265116190318,0.0914125635752049,-0.01842366217168,-0.02117403369174,-0.09829370083425,0.0609572144363394,0.076129528393194,-0.10648757260679,-0.03906592351449,0.181371374040237,-0.18244468556571,0.113513195780862,-0.11841480414965,-0.03166433055213,0.121810603558794,-0.07727019476047,0.0429594204798509,-0.10274965560105,0.0341178389186752,-0.18286862079577,0.0476781765758798,-0.06648952565712,-0.02195671463063,0.163960992271978,-0.17622247010254,-0.0086868846078,0.0428767416866449,0.174842126426502,-0.13969235204085,0.131564782833321,-0.01340741869125,0.196881720297358,-0.16226011378244,0.0609963261477203,0.132439063537824,-0.1667520268245,0.175895627028155,0.0812566640327865,-0.13096252671477,0.123594586312922,0.116208617788617,-0.15312658013151,-0.1327850982017,-0.15476976731711,-0.16488492833108,0.000295277534688697,0.0271037196426252,-0.07712262031713,-0.09005018357398,0.100399314588259,-0.16029316806194,0.00330881490464149,0.120848772296296,-0.11169907115406,0.0349587407927933,-0.02301466073016,-0.1981299205968,0.0572346546384819,-0.04837241104758,0.129002235007261,0.0367674243862109,0.12094103268409,0.127373143803468,-0.1422087843433,0.0739945064663952,0.00144043153621306,0.0146060024160393,-0.00346598080266,0.0241629052693008,-0.04923555709872,0.0932771328401056,0.0567560041172576,-0.1718196594973,-0.07554637356833,0.0696088704820996,0.0125514039772023,-0.02751686744492,-0.04318683846524,-0.04458251611785,0.187956249400565,-0.08959429878321,-0.08857143853397,-0.03198521503808,-0.13667624154264,-0.16148172244905,-0.15451929444182,0.11615335165518,-0.17205052199992,0.164822369804938,0.16786888248786,0.163117593322947],[0.124642282184047,-0.11066567266084,0.0720439424200737,0.10405633655102,-0.09950508189906,-0.088435784116,-0.04704063239058,0.0547367682033816,0.175127568419491,0.176842220422633,-0.184822793275,0.189694088057381,0.168608350624891,0.152594064901508,-0.01269074625015,0.0974824496860978,-0.03702859477785,-0.04696467032865,-0.19111731569707,0.0139605634566745,0.0366281028043193,-0.02439352449034,-0.16336931622759,-0.12468522111693,0.127722163679294,0.0551268757288014,-0.058173429208,0.118371072691468,-0.06635622036069,-0.09295564464133,0.0758706326769582,-0.04121613089381,-0.16296094485957,-0.07441763674751,0.12073937902247,-0.19098524276953,-0.04113387877858,-0.02253504213985,0.146619144340202,-0.01498959927772,-0.18127122465952,0.174475382506261,-0.08071291556043,0.14559397519582,-0.03215515653108,-0.01008747200888,-0.17683362228512,0.126351032113052,0.140112957388114,-0.02495101428387,0.16790286949114,-0.10221160646289,-0.03353095932587,-0.14155398247588,0.0306984625420241,-0.20059476492542,0.112219713787879,-0.00395176724491,-0.06487419233589,0.178558498158018,-0.17215360886209,0.066006016828785,-0.1099015519629,0.18334600329173,0.20176825716609,-0.02940851325269,0.0306631533886086,0.00900684268324991,0.16787970344735,0.0824264739504527,0.0233365524637674,0.156568563585588,0.147995384133362,-0.20275801013165,0.0380942668424058,-0.10717857174395,-0.1919990272813,0.172846459994669,-0.1524241440265,0.154468286225646,0.140043270741864,0.18100075692644,-0.03394389849104,0.198181557853177,0.135557443022668,-0.03648270537408,0.0837941672191743,0.0870023318957181,-0.14203252974186,0.0952786267534978,-0.11920326151489,0.0884814736053308,0.00741602348023113,0.0309044042307305,-0.1584637007353,-0.15465550239347,-0.11305356450255,-0.00237605871772,0.0254428657242682,-0.15238399402927,-0.16507243655094,0.169757822181261,0.0833425048387697,-0.06102784116146,-0.17428096776147,0.183199377117147,0.0418364595785253,0.104902302492739,-0.16604703143382,-0.03373818243916,-0.00554005488865,0.0464918984110638,-0.1297311948185,-0.17109403741319,-0.14765061320692,-0.16091117088563,0.000733248799145024,-0.0779792980939,0.0506807113315043,-0.19400814425647,0.173352569667554,-0.14586091183418,0.0761770459472209,0.0375373134843937,0.12097965546559,0.0255509268897707,0.122424143068961,-0.07554330790756,-0.04085026653984,-0.10923152884229,-0.01130949339148,-0.11816138596457,0.0680541495591754,0.0228015610777496,-0.09994215207564,-0.12193916507681,-0.08388032036117,-0.03802985967543,-0.11273690023007,-0.09551157016141,0.202481874571791,-0.14212914357834,0.0643598489493994,0.0500387510750919],[-0.04405492492275,-0.11999337853268,-0.16803784010991,-0.05140814088948,0.0327094669461745,0.166469662366208,0.122793326718092,-0.17325966719059,-0.00981101964226,0.0941400193928963,0.0473167643395226,-0.17920214936414,-0.17921645018668,0.0960628994494754,-0.18365287592722,0.0710105053384191,0.119119159437459,0.0826746200537788,-0.16581618439789,0.0116182436553998,-0.11377034177958,0.143176089427744,0.0837356423241873,0.0659732672065737,-0.13796116828903,-0.17171479034878,-0.08432426452754,-0.17590148809183,-0.0331461088796,0.168544568563826,-0.14576284554861,0.00920149365816872,-0.15398513642952,-0.04502372409081,-0.00029621947511,-0.17794937701152,-0.03048282688777,0.149710614112193,0.135005489221067,0.145024456450177,0.165214209169559,0.0325361533900265,-0.16490567887156,-0.0139906782476,-0.02187882369287,-0.1408020608671,-0.11570351704138,0.152342698491535,-0.0748064563803,-0.10527257835389,0.170376849580468,0.0280010654773769,0.069138387214377,0.199234601344118,-0.15425375036463,0.00848707265461512,0.126687201134326,-0.13051902060166,0.136333425368541,-0.04644967604627,0.0842120442016103,-0.09191218085604,-0.20093441929555,0.170923448970586,-0.01084483776732,0.17422701047428,-0.14434737068714,0.157140494958098,0.184482260781323,-0.17054155248517,-0.14565509052192,-0.03785496298975,-0.00626118563651,0.0226988367772834,-0.05556551276277,-0.17730348754567,-0.01577610077614,0.0645870000974871,0.136324812192757,0.124549798202535,0.0131141734739077,-0.20289310340433,-0.11931730314657,0.196899684961076,0.156029010005133,0.0195445858547534,-0.16426675684504,-0.15598421527583,-0.11390990740787,-0.10812304553175,0.0410263105781875,-0.14482331319583,-0.1010451416123,-0.18175915323675,-0.02466909751744,0.0836982452193521,0.16338145539995,-0.11811048144472,0.150435059450072,0.162522475429396,0.181157385487059,0.0272085018638331,-0.02700872876856,0.143050567486632,0.0339677751015464,0.00739553394393878,0.119826165493852,-0.13634331060572,0.0562751206019827,0.0493349422245416,0.0486376776428808,-0.11226270033421,-0.02696266422359,-0.00023847354713,-0.04738671317321,0.179551733044181,-0.03002692382155,-0.0892970818749,0.0784154003557111,-0.07016085280556,0.0469512967715226,-0.16403736050538,0.0273490393008339,-0.10141248901394,0.194934956937459,0.166661214483742,-0.12595627758603,0.0501765968122553,-0.12091545175608,-0.01139313669726,0.163329191902105,-0.15796647183662,-0.19447272413592,-0.09993736468484,0.0345877547793391,0.0361473262198361,-0.11250511465718,-0.01277905827695,0.150150217606823,0.0106327195374289,0.00777957771838433,0.135291740566672,-0.03176542438173,-0.04195272682824],[0.18193137631956,-0.08639406941743,0.117794534994735,-0.04831747794472,-0.01456711823883,-0.03147313783958,0.0988170980036861,-0.03311155816945,0.148190325002422,0.0642224089881859,0.0835922289671676,-0.0402274960439,0.159730754757237,0.119872505330998,0.123796561517856,-0.09415641863324,-0.07420415642068,0.0381825106073237,-0.04480900240552,-0.13144169738528,0.189886830532114,0.0196733895945592,-0.03246396141241,-0.18034642293382,-0.14276605182048,0.127009745743394,0.0740865276232497,-0.19099675062612,0.139198137225557,0.060097675560653,-0.17940247575816,0.0603530417698381,-0.15269142203551,-0.19379862426292,-0.10027832662367,-0.08417681966533,-0.14337443322772,-0.00314289556204,0.10695753487512,0.114762532713101,-0.01340808089646,-0.1589679164233,-0.09225999728562,0.0492296435163791,0.00438073215530958,0.148979758898213,-0.0793600554195,0.130443771322832,0.0607478010871662,0.0916531370461863,-0.18913798643382,-0.1247305483893,0.0775690715583629,0.126712126838797,-0.20038470549375,-0.18752711392387,-0.01492831441249,0.127739353431603,-0.0620393938653,0.00434066780415913,-0.14621244445403,0.146613934795807,0.17981106062555,0.0817937711917115,-0.17400175116549,0.110813973173788,0.197188654019035,0.134562517110699,0.0417370639836232,-0.19036677113103,0.149166564819841,0.00885263005037299,-0.0400635944172,0.126341148173607,-0.15595951745516,-0.106419230303,0.187164773112924,0.136682214285178,-0.20219510705269,-0.12035472791033,0.0486546512621859,0.0359220075393624,0.0156654258917208,0.187200071868338,0.0108014117700677,0.0609318062867145,0.18685005547214,0.0189439841204052,0.0494041053393537,0.0900105103861603,0.173967429906167,-0.0686364154943,0.0887857847340198,-0.07804572276217,0.0634067450764098,-0.08325345392604,0.0697274403683475,-0.0406989555031,0.0543684890964008,0.173173852247097,-0.11952119744453,-0.00742701170697,-0.16323374741373,-0.06953097172646,0.123291176056025,0.148229046659042,-0.05491336349055,0.198348225982544,0.00409262214049358,0.105347093551222,-0.00124153600577,0.19251325098494,-0.1428997269371,0.0896545783879906,0.113188539507013,-0.15978314312832,0.0754977239157314,0.113417332589793,0.182264071800913,0.120163107954929,0.120497454643437,-0.08830980292626,0.0664546563324389,-0.08538194666472,-0.01083032487868,-0.00924226163958,0.116523452731624,-0.1052183817334,0.0250338211357731,0.0613304738157084,-0.07772292248259,0.0647150467806975,-0.1422722974777,0.0963198598396297,0.190832370319362,0.192140579184004,-0.09355516447703,0.0251060277186495,0.071838115749329,-0.16317462486703,0.00470236572030967,-0.10700195281075,0.0705283861771443,0.0727204700405826],[-0.18880456290113,-0.07902684912716,-0.07826734929187,0.116270486972019,0.0290440603611002,-0.0757351095493,0.156104457285744,-0.02689049566856,-0.09872515843189,-0.06076400927861,0.113245919610865,0.134515015151468,0.180932315792308,-0.06832564829798,-0.00855490268753,0.120724293504468,0.153204069081549,0.0558543081484722,-0.15087303122488,-0.1355100500057,-0.10127011388789,0.117428992598254,0.102495297841239,0.0368790678741172,0.0650689664598807,0.0884266196500807,0.139502050779774,-0.19884181690407,0.0378258962227082,-0.17365815970325,0.0124133434046414,-0.08480622626801,-0.07144556856117,-0.02502284265103,0.202516398144461,-0.15507700215017,-0.09462207186061,-0.00784532343378,0.00121988055097053,-0.14131928324396,0.0852353756761113,0.173070721606552,-0.03447166454404,0.178164275893883,-0.10489325053923,0.159621479032838,-0.1531392870101,0.11831359439527,-0.12490833453043,-0.02046333480678,0.116765228131748,-0.08661026520886,0.109387626904305,0.130635213386799,0.0326008212422246,-0.05041098272476,-0.10685017685183,-0.20023722677149,0.193132614370557,-0.07885033789813,0.179319570111773,0.149803471095497,0.0266332694639779,-0.12713877190792,-0.10141003251508,-0.17597484188092,-0.06617106328605,-0.06793435908035,0.100753076261616,-0.04551185074609,-0.05396505158675,0.0045031356480037,-0.08485494886091,0.0943929236894873,0.163438079555088,-0.01256963591244,-0.02136579390731,-0.15222277878191,0.0698339870359087,0.127442911550356,-0.1034606861712,0.0206121818571017,0.135222984401476,-0.16115506399241,0.0715209407509976,0.0716969254533269,-0.14864259606822,-0.19081616080466,-0.1876500335206,-0.12046699047674,-0.17016365368942,0.117943669745886,0.00271364062258801,-0.07344126256177,-0.12441977417791,-0.07571321805565,-0.00827058090716,-0.14393248380113,-0.16968151026193,0.17116923445286,0.096438344569169,0.00177763002127507,0.19793366884946,0.00232002344156478,0.167632139513272,0.0373286032010753,0.117936574378081,0.152333618594875,-0.09715653393613,-0.0404788342148,0.0107617708499173,0.120148162377278,0.114176026356084,0.156745648907318,-0.09848930457613,-0.05136146963573,-0.03654800534708,0.141424643058009,-0.09076220700893,0.0557359394387764,-0.05241031058465,0.0536482036054265,-0.16183481871998,0.0664104529677252,0.18897768018378,0.00665969015593583,0.0348294411935004,0.203097424286831,-0.19078965261731,0.13715983806834,0.0903407828483819,-0.15685146653823,-0.0634209928612,0.0359315861359781,0.167160165160003,0.188246303676234,-0.11612676694171,-0.15208841243324,-0.20122122581491,0.188545561565277,-0.04786166300239,-0.07041994315334,0.0854467458238588,-0.10111176117975],[-0.0490031714233,-0.13099776395404,-0.02791329806262,-0.0167449019249,0.023273717451348,-0.04279326373253,-0.13338431245471,-0.12141611471832,0.16642859925012,-0.0169458559081,0.173394007167418,-0.08856142530294,-0.08299755136642,0.0559715878489278,0.194138371226563,-0.06250951492322,0.101676309401363,-0.09159629188093,0.195568143741557,0.158443192700458,-0.04016988755675,-0.07467672992146,0.0304845738050733,-0.08366944879672,0.0926677260990476,0.0754309734072091,-0.02390527211169,-0.06878712220561,0.0887172431674519,-0.18388292435358,-0.11224577661603,0.138713530212106,-0.06307959047108,0.0344784220087607,-0.16571046366259,0.0460455583006487,0.173974839569212,-0.08834562274106,-0.06012116661746,-0.04425178603448,0.0482051707961656,0.0447005457733596,0.147100813725413,0.116928152582755,0.058746690569233,0.0300976676690394,-0.19361718989464,0.0337835370405505,-0.01240310786671,-0.17063830296446,0.0935070798388159,-0.1850990291791,0.00383820997229996,-0.05968658628499,0.161517768543943,-0.15739905092966,0.164568588955202,0.00916843976638239,-0.16922427380994,-0.00842040811525,-0.15860490412898,0.118892643527655,0.195607388744798,0.117669610597491,0.17618121103135,0.0160885456657289,0.180935192714872,-0.18787802905826,-0.184556170513,0.174360785171354,-0.14267695074103,0.131172248586131,0.0727589992242808,0.112144832830308,0.029787683398817,0.0364107710595079,-0.10079777727387,0.157550714832359,-0.11126720673737,-0.03841154869469,0.0926240444227901,-0.20361539258083,0.003680844222424,0.14375652708521,0.00248232472812528,-0.19322978751933,-0.1924753347476,0.10284623055296,-0.01243153315648,-0.20020693824768,-0.16265271006262,-0.07561391808399,0.151239904110877,0.024451603979213,-0.12487438551631,-0.18747571187224,-0.18227920022073,-0.16649409758459,0.0396472705328901,-0.01152297918029,-0.12010812741755,-0.12513278613779,-0.02918308936492,0.11465658819639,0.144674543076526,-0.06725351652255,-0.16647709594623,0.181746520067478,-0.19413824161762,-0.11708988798213,0.20355473264448,0.118966421242675,0.0812142676442408,-0.19235206145575,-0.1193754096761,-0.00589682524869,-0.08596941370332,-0.03269364694966,0.00722836590542832,-0.08453692428939,-0.08554681013523,-0.04039169541011,-0.08949029100545,0.0291446393845681,-0.11961443435636,0.0522676399114336,-0.08693777742829,0.00506956737409153,0.0827898819731231,-0.00571863456812,-0.19492421239289,0.123846654679716,-0.05005311443298,-0.17437908919238,0.192404797739092,0.178489462961903,0.0816004647746199,-0.07489561612806,0.141549851532021,-0.09824718610345,-0.18882186556992,-0.20268957892088,0.00862073235131175,0.100547025998419],[-0.12717837169857,-0.01312867139086,-0.16092196835144,0.186611814266131,-0.18516257642191,-0.19854737275533,0.163183488779082,-0.0505076427444,0.19243220724718,0.146785959430051,-0.18785482544342,-0.03453334296282,-0.17857181122361,-0.17553172129248,-0.00554175515746,-0.13227942468906,-0.11036992307655,-0.15295985270443,-0.11647570369063,-0.19633698421907,-0.13702582448482,0.202641615443979,-0.04528240096493,0.14125552581258,0.114202323861092,0.0202591491541403,-0.08846323380393,0.00260744409530583,0.174833741456444,0.178415032118542,-0.16375416079745,0.0833098137507875,0.0518744989990446,-0.00709897038835,-0.11190178818948,0.203291158099544,0.121329078667681,-0.02896240413255,-0.07398658247165,0.167319974849162,-0.0336788072965,-0.0508577842875,-0.15650517971825,-0.16559360624731,0.0896682145058576,0.165181176176036,-0.08290525507817,-0.09989094794022,-0.11244818791706,0.00840647975387585,0.146402615253062,0.147067218561856,-0.04770662555042,0.0126656919520088,0.0128208069218893,0.120609435209281,-0.08785495286216,-0.01170409771514,-0.05193630461466,0.130206038842287,0.168313959476475,-0.05110636013427,-0.1948061221364,0.135045496781919,-0.05349693552766,-0.19453824961757,-0.18185398395449,-0.08581271593332,-0.02809189553765,0.0804311438783576,-0.01319204278291,0.173779870415717,-0.04312346512462,-0.01467482304315,0.0378842261421181,-0.08099822210823,-0.15477371328051,-0.00719786582664,-0.12592049649462,0.0590230203885143,0.0701439108377315,0.0860347596580294,-0.1361964143212,0.00813269849918198,0.20277846983935,0.121974234705278,-0.17538531106797,-0.0765170418729,-0.14745654067456,0.130226602078116,-0.06208314342543,0.129994125991599,0.143618943146759,