{"beta1":0.9,"beta2":0.999,"bp_method":0,"clip_value":10,"epsilon":0.00000001,"layer_structure":[144,30,30,1],"learning_rate":0.001,"m_biases":[],"m_weights":[],"network":[{"activation":"LEAKYRELU","bias":[[0],[0],[0],[0],[0],[0],[0],[0],[0],[0],[0],[0],[0],[0],[0],[0],[0],[0],[0],[0],[0],[0],[0],[0],[0],[0],[0],[0],[0],[0]],"weights":[[0.0611092228877929,-0.01409865768225,0.177266262493441,-0.02832813286219,-0.15927543539317,-0.10466412614333,-0.02287888699832,0.186615582775971,0.0772174671301328,-0.15486350081511,0.0139028302733685,0.175230173411807,-0.19005606589199,-0.16414413954071,0.148704100419129,-0.06214369652645,-0.07371809815746,0.157776979971256,0.198766657034007,-0.01774180095785,0.147808065447016,0.201953014811964,0.107980687415073,0.0424447693667279,0.150068612026375,0.0131635501544268,-0.18718303389232,-0.03525892627364,-0.12066797978952,0.179140068514575,0.164723496064743,-0.12110151900236,-0.194513825656,-0.01034060422702,0.153286331927253,-0.10633675871496,0.0502440724464618,-0.10700319244749,-0.05647460031602,0.0880818505800884,0.195164863111043,-0.08381191366844,0.151322432321249,0.00189365387890963,-0.11443478680564,0.11347954623493,-0.1528497222211,0.104865841932371,-0.10129899310548,-0.16328466736366,-0.03651700939869,-0.1274576340921,0.131102959542808,-0.14271418669893,0.0367973068697146,0.0693074076630379,-0.10333929657003,0.0204238463852368,0.201502542098885,-0.17686154927798,-0.19805554695429,-0.03022978327887,0.155268268325702,0.0359063671530798,-0.0710856539248,-0.09848246026316,0.155981215759438,-0.17894280986343,-0.09612487696063,0.176026735382973,-0.16239399474465,0.0605997945693982,0.181033414336445,0.127407761715103,0.108943404248044,0.142209373325561,-0.02518857791865,-0.13794975471689,0.193821288244131,0.130261662588454,-0.17310087994526,-0.00002598433346,0.0543547767054631,0.0810998821362928,0.11740226681638,0.106886627758139,0.0832940431838018,-0.01378363198505,-0.03237390006428,-0.14249375270418,-0.03025776914933,0.0264829511793923,0.127680676226128,-0.10541851300768,0.0623205422450382,-0.05409122009095,0.0514845787373705,0.0156586057853336,0.107626645555018,-0.18701137166036,-0.09558979078786,-0.06977875805065,0.174592887407963,0.192556933692831,0.128822255087672,-0.15497726656355,-0.0294678784588,0.163544844104456,-0.05778261906746,0.0600802305673207,-0.06279349159949,0.0125185854120523,0.0140857155517213,-0.11625768364145,-0.0899473175369,0.125670059392459,0.189418138393011,-0.08990766700238,0.155303908402789,0.18355200608625,-0.14642512318198,0.124925499802479,-0.04112781516205,0.164895196941948,0.124658906635165,0.178340679739098,0.113508260361962,0.183465086983098,-0.07545121576468,0.200084359182569,0.124753405784646,-0.1127129395343,0.157982368431913,0.0620997990584728,0.117578711022807,0.187326596502377,0.182523461367003,-0.1249417464854,0.14899266554183,-0.10885336997811,-0.05351377459572,-0.05197116748835,-0.09687612333842,0.108372476545506],[0.121380015252508,-0.19178609987185,-0.0921131665818,-0.17015415237906,-0.10160632813198,0.027769198052327,0.122291140349925,-0.04833481241845,-0.04567446892146,0.00889795498454479,-0.00903221356559,-0.17319055740791,-0.0632265066004,-0.04322876725704,0.151272267240259,0.151609885092447,0.195420032346389,-0.06103547547964,0.194477346044386,-0.06698054278217,-0.04143737686838,-0.06097507279602,-0.17552395137345,0.0429934050484634,-0.09910436849392,0.190838015309528,0.188564823204908,0.148753195805976,-0.01583651133634,0.0674337170950957,0.180267277120748,-0.13476062958158,-0.07799035845456,-0.07987495172505,-0.00079428424489,-0.0868956210536,0.133054705417185,-0.1383603527603,0.0408327650225515,-0.12487323476968,-0.18708891702139,-0.17967727465269,0.157506370620498,0.105842649653098,-0.17355188104599,-0.01550707407258,0.169761991381382,-0.10463939356268,-0.13564027859051,0.103694396862486,-0.14040135224921,0.100050581839612,-0.11280430724558,-0.13944424624649,0.106304279544283,0.113635361230497,-0.18684875665266,-0.05034114049857,0.00320451144830702,-0.20299550803013,0.173959795112872,-0.12820426962358,0.170408876829975,-0.12606345129383,-0.17390371752309,-0.05306824401042,-0.2006772855164,0.0553946390444084,-0.14052829755418,-0.10306710351969,0.181669783829008,-0.08607561413739,0.0866501188038977,-0.10994937548253,0.203871322249464,-0.02696222061705,-0.19310720716992,0.120515914748396,-0.10354530819017,-0.15231117159351,-0.09159535537153,0.102502076791744,0.068724017468342,0.0316017273691641,-0.17281771154829,-0.00598889677088,-0.08903161844802,0.0151096386963804,-0.2014335908435,-0.18889634322669,-0.05993587106651,0.0985086445951502,-0.02363798473869,0.193128843458655,-0.12185820349546,-0.08557643069032,-0.1286626153255,0.0992597681686132,0.0870666631897516,-0.16012776248249,-0.18008175808684,0.168548130013585,-0.16343298300993,0.0739941219075849,0.123862024609822,0.0514013596245663,-0.07874842721916,0.0722686887709192,-0.15292178966164,0.109487087522775,0.189565248182306,-0.02750217686288,-0.07355269345589,0.0593318454208495,0.0686774632671209,0.195539699617588,0.131258599070097,-0.00377867140182,-0.03907823513979,-0.15514009671954,0.0444579824051485,-0.00155180015825,0.0155778112646416,0.177504425273143,-0.05803457350449,-0.00359489481632,-0.03980298682871,0.0394731167050959,-0.15062310910701,-0.02584257572486,0.0351797719828779,0.0655767473218759,-0.13036668127679,0.100311928979456,0.0139175293822302,0.0515910155605034,0.00919099939629184,-0.10816724435467,-0.10601153870126,0.0610427640409384,-0.14236526995253,-0.04391643495395,-0.17232266430395,0.176379244598624],[0.0417010689136231,0.026257883818613,0.0297990201854967,-0.14066664542273,-0.18304748662295,0.171156218788425,-0.00688933222885,0.0778980578081744,-0.18354291671564,0.145276515289751,-0.00635322361339,-0.11203490459846,0.116947071415691,0.105998519697501,-0.19477560260541,0.0409665852165724,0.138219671529616,-0.11838364517144,0.0629574845350131,-0.1508110834431,-0.12321978116184,0.171524975423397,0.143421552867212,-0.02941785799495,0.185897062838201,0.0135351833644339,0.0627797184019512,0.0326500420678364,0.18941083517333,0.167755798979329,0.0825589152046396,-0.11191591815125,0.0359765005072787,0.0332576470019936,0.111268409432276,-0.01042710768063,-0.00305048036092,0.168867792776241,0.134952892803517,-0.14104742357629,0.142920800998826,0.0933861682839178,-0.0043433472406,0.107957212215776,0.0401268778851073,-0.02941900707864,0.0082707942408024,0.0760087768940949,0.0833483144338467,0.0296920708894091,0.0830497738452139,-0.18387928038972,-0.03011523473667,0.180536781291357,0.200417613853252,0.134938331662454,-0.13199785718388,0.106659673086498,-0.09633155350939,-0.14940633946136,0.197769541705752,-0.18356435619515,-0.11550774331431,0.00104941657483579,-0.15239862095312,-0.11245687470478,0.0612404591148569,-0.17731741001883,-0.20376204298107,0.0350230013523094,-0.01755454796729,-0.0571939513094,-0.17222566322534,0.101685264245411,0.0739100364876008,0.149306706190723,-0.14555906715642,0.0370957790342593,-0.06107287899913,0.152390525976305,-0.10144656105819,0.0503338576270663,-0.13099493990017,0.0878057630338077,-0.11494967489128,0.108074068475519,0.024497592098615,0.0861897421932999,-0.07728023691916,-0.14224913803466,-0.15565503886179,-0.18165222575765,-0.19807046396155,0.0916445525114732,-0.17642321815053,0.0257289677901503,0.0653880519296521,-0.08716154131669,0.201509818682623,0.00965056148028298,-0.00809293535414,-0.1578846361755,-0.0732429055192,-0.16390846693796,-0.09097498214881,0.0196471409512042,-0.08799859774952,0.177624664150209,0.103829069762757,-0.01555115703285,0.172141256195402,-0.169884597908,-0.01040301722882,-0.15154812071444,0.0424812609147869,0.0053197989583442,0.0577423355819391,0.106312671504101,0.00805692889845955,0.0419109750013115,0.0110204957860538,0.203623694702241,-0.09109874695906,0.143380561912659,0.0808458056159058,0.111810488703898,0.0838314934221853,0.135361699495791,0.13873775659177,0.105567553206579,0.191356418926965,0.143206763633524,0.1303674122733,0.056121688973262,0.0830965194023015,0.163476030493595,0.189653579204637,0.0463962318030238,0.160934669465801,0.0904961113299052,-0.18638863702917,0.018460497909323,0.121830520334058,0.0568144258786076],[0.0333925906958198,0.0314766599666989,0.0597471552213801,-0.0011609993057,-0.06429281889896,-0.17073036654878,-0.15773228810898,-0.19858661343522,0.167692087937104,0.111250313070441,0.135250014961835,-0.14028432593878,-0.19793246853318,-0.19693632247959,0.139848394279703,0.163798943140401,-0.07610137754905,-0.04218842992771,0.123215544684606,-0.07101484544439,-0.07525712979633,0.0466133954838957,0.12131237274803,-0.18861608383574,0.0525724816073643,-0.19896816967577,-0.05412029496304,0.153115603628811,-0.06944527071594,0.0602587821856695,0.0875882112480468,-0.07251622384257,0.0468601830283913,0.180566826190316,-0.03816919050837,-0.15905345942392,0.0084288081094113,-0.11388230395084,0.00609820457978433,0.198468783781334,0.00255373566501754,-0.1057993090774,-0.09043261369296,0.138366636869904,0.178415571610733,-0.04821324469406,0.0799778364027322,0.197802955191338,-0.04019844024521,-0.20305434105494,0.145118516925532,0.043844341832543,0.101810745397342,-0.14941459481964,0.11316853398712,0.0641597349239126,-0.12408751828258,0.0903337138203025,-0.19701131780604,0.0777548049550586,0.0630987548420384,-0.01258595638835,-0.03376424434481,0.10810549076687,-0.13979123820366,-0.1999401492408,-0.1829482612934,0.199895567406131,-0.05910615603147,-0.03925148578373,-0.0387906773079,0.194774183428207,-0.03402278056052,-0.1961317897015,0.102386231500455,-0.16961599846884,-0.08851475687947,-0.01063302125638,-0.16994354252959,-0.10273478593264,0.164693068555941,0.196209377502697,-0.1224235635779,-0.03919986820243,-0.0953943109617,-0.0930645906269,0.124457014292432,-0.02670474336838,0.15139869664914,0.010927944580749,-0.08347757802503,0.195178665059227,0.0305489143288197,-0.06234458355005,-0.1670929511406,-0.120689539052,0.129355722184741,0.0740889305226938,-0.02400024549757,-0.06421063593359,-0.14227385704985,-0.12981738373919,0.0210719073759174,-0.0719205073137,0.139069527469994,-0.18257029149356,0.0311338076517914,-0.06979377531343,-0.08634814374076,0.0974063336766533,0.139944418098722,0.122894006993469,-0.05215619659575,0.176830666367769,-0.15123348028381,-0.11346840243649,-0.18631317603886,-0.11029282009714,0.0655583582969742,-0.06163135131562,0.071095820233399,-0.11231301487746,-0.05600288539198,0.196952837081,0.179968804213829,-0.15598060914061,0.012246702105096,0.13141767748318,-0.1517977677782,0.0435534209555927,0.14046818721928,0.0608373419418018,-0.0652710679033,0.101055806376166,-0.08777380080341,0.0560161084474627,-0.13205066048319,-0.18291744217291,-0.01993547241021,0.0806144644422626,0.0141252040513754,-0.10717412799331,-0.07790500190775,-0.1022677766789],[-0.04050412193614,-0.03742930059224,0.0661072087599999,-0.20189938966691,-0.02456495796965,0.00303733624026745,-0.02325017105459,0.151733301705053,0.0019355603468845,0.0890280110274402,-0.08763435909244,-0.02689576107527,-0.04833941674496,0.0722786568795728,-0.01872381662285,-0.02892182456074,0.0654752355214375,0.0726306336985583,-0.03542549937418,0.019399654851995,-0.13792007133963,0.167907496752473,-0.06798746672763,0.200381711313938,0.00633734915344317,0.0953836976718268,-0.13348834156617,0.05630387435019,0.0753172304040719,-0.10105632102046,0.0256956307339665,-0.07798373002365,-0.14214765888145,-0.12390197965322,-0.01675561551373,-0.03340267431938,-0.11738548531999,0.115305862816956,-0.15005734879233,0.11915466151739,-0.18532011107399,-0.10249049169744,-0.00743368403043,0.129212926239177,0.175093960195962,0.10832938175678,-0.09324772638448,-0.10712694714908,0.0484114230691929,0.184377633714747,0.0203131151954586,0.00248542218678285,-0.15574844496245,-0.10506959773383,0.131816583166083,-0.02963425271267,-0.15062826409485,-0.10282216323563,0.140425738363917,-0.12826300857315,0.0138881531624629,0.123097517474086,0.00192562076847463,0.137421380348679,0.131084844162105,-0.1846454435593,-0.02680069957875,-0.09746585067707,0.0931705015023903,-0.101938950601,0.0919040894962334,-0.00920610731721,0.191517800251519,-0.0389071722204,-0.00446247727942,0.187067308828963,0.139664357158219,-0.19386248741361,0.135892784797168,0.179185609300127,-0.0538103731045,-0.15300724693861,-0.04584028525647,0.0263737253003805,-0.16471162017181,0.170067061924377,0.0152700046765762,-0.04676231903613,-0.05183697871004,0.0202035943889271,-0.13734886979625,0.00209013809694486,-0.03964402515814,0.106193919229481,-0.01136986810429,-0.17845536893567,-0.16771813729508,-0.11901141381329,0.159492771256655,0.129827766575387,-0.19783107329807,-0.12646358113267,0.171079416855564,-0.08799120023153,0.168970675963746,-0.16444546382775,0.166124603938872,-0.18157162123496,-0.18370316554744,0.125504832012527,-0.0320056382337,-0.13810499812893,0.134601050375747,0.0968352943598381,0.0552527182735185,0.0687072995590707,0.188008433941509,-0.13382174496042,0.0920128891421174,0.0552152074300142,-0.00681788656168,0.147922884958948,-0.16489306687974,-0.1347477846438,-0.06253836410652,-0.11716486201788,-0.15722348469732,0.0282504022136728,0.103678974534649,0.142228274824149,0.112257146107119,0.183007781518338,-0.0658407884851,-0.15568583074054,-0.05698517632943,0.0584266583538757,0.0780989199847195,0.179070559943437,0.122186255611352,0.182065152374063,-0.04996759415313,-0.05561108905061,0.00575662474756478,0.0995501684296825],[-0.19072501129086,-0.18438409639824,0.11831495623511,0.059861375491026,0.104648069321831,-0.16224877085573,0.0973662920872539,-0.01460718133623,0.17668943585431,-0.14758346267982,0.0756113213128673,0.0471996014013359,0.0416445725364555,0.0382918451604149,0.180874817077118,0.0954530008273842,0.15976486000061,-0.18662573037144,-0.03814347977492,-0.08471220440475,0.0751913217845889,-0.02838907618933,0.142499823695747,-0.11309255083696,0.0208687978532844,0.0634253608734308,0.113594479698801,-0.00350245521772,0.198179989973088,-0.15937590855847,-0.15050987018611,0.105684800357169,-0.14406081018709,0.187911497787311,0.0444242708559106,0.0748687712749075,0.145317432429565,-0.09676756481771,0.0603236304683981,-0.12129337143427,0.0977979512403125,-0.14473551827825,0.0624659667469579,0.0165473318387959,-0.13727905529922,-0.02093231898258,-0.18890657884317,0.0568321587474817,0.0889577609683749,0.129546060837653,0.117057890650565,0.0838330269971163,0.138433590793403,0.167952486409988,0.160580400524472,-0.12805726740541,-0.02929129767527,-0.19891132668489,0.0737219214340367,0.146006998879558,-0.19564321193444,-0.13946719068286,0.125527694901976,-0.10880582231956,-0.10569396726993,0.0182624379320168,-0.04973600099137,0.022861939262053,0.0534100974229931,-0.13091287032321,-0.13319332121834,-0.19246846002495,-0.04406514110285,-0.11617292577169,-0.17012062674157,0.127454225722245,0.138612934118989,0.118452686376421,0.0418885621421255,0.149765920071853,0.0962535410774413,0.0135061983576322,0.17247710438437,0.0836350127463131,0.0803206479573728,0.0678153134402634,-0.13723675269588,0.152867709834343,0.0547938663102845,0.0358142859699901,-0.09801958386358,-0.08215199461537,0.0874696474946668,0.160710970008336,0.0574486477558074,-0.1789712256433,-0.16396345718489,0.15911424331396,0.0850764689907144,-0.00160602043197,0.0651374383062262,0.157147627392233,-0.12777035865265,0.028925205127404,0.148208686040797,0.0348523778525432,0.164429584581596,0.171042093195838,-0.195562224164,-0.00625282226418,0.110835641759202,0.152329034858947,0.169075978984642,0.00872067571167018,-0.11398043525314,-0.11164505904679,-0.16160970468067,-0.06171111763453,-0.08841743736648,-0.19108516125057,-0.17126357066209,-0.01869802579865,-0.02377923659216,-0.08107319188464,0.189016023894682,0.0158386635363002,0.0901810455498178,-0.12307468749157,0.131731498792011,0.0565881786205792,0.0242228080423411,-0.07501051017276,-0.03493109221508,0.0818430608320102,-0.04723984951906,0.0361678850235348,-0.15522447916731,-0.11004307326855,-0.04881762345344,-0.10792301476116,0.0260488752831929,-0.13802718639243,-0.1479808905532,-0.12851433436037],[0.171779777505154,0.150038264893399,0.0305360672103906,0.132056767560128,-0.09050489091751,0.0872164217695013,0.0731764846089708,0.129741136304301,0.165251499073575,0.0473428654392096,0.0149126854245494,0.0800145688232083,-0.12051790068232,0.0663052162119818,0.0362726256008811,-0.19914243132779,0.118389187699956,0.0249287386719945,-0.00950795097743,0.197690193321866,-0.1016618044695,0.045406646972435,0.191273949016557,-0.12721091213637,0.110052003866552,-0.00494673566024,0.150926922734387,0.0516274594387513,-0.10207688923842,-0.04093887619165,0.186787926262861,0.132014972203281,0.0769339880018423,-0.09497155498876,-0.08283876376594,0.013211322983972,-0.1362472559811,0.151649511023347,0.141661815072614,-0.04487770710701,-0.16818581966882,0.0311769041087999,0.0705327782104636,0.0706814004070991,-0.12902592615407,-0.02141622087412,0.067811665674992,-0.02707754208289,0.0609729625049747,-0.15717853068865,0.0055319848357023,-0.03882279566679,-0.1641330319737,0.112048104430256,-0.20286622537831,-0.13052336114419,-0.00634892908932,-0.0790955918851,0.157261926912967,0.154334589050574,0.146912975282621,-0.13410505118962,0.112187979297498,-0.20363496674749,0.0700728773797206,0.145274711551538,0.0718268222747088,-0.0607672404889,0.1638906143051,0.0121055485414615,0.0130054154858482,0.0678850929759355,-0.15350441002563,-0.09566725877668,-0.18825744811744,-0.16644124651843,0.0994032195561406,-0.10940404739796,0.0787149908627054,0.0566103064432683,-0.01043475835203,-0.00173480853677,0.00755659319888138,-0.08030882356839,0.115349161834982,-0.19154858484595,0.0654688898200394,-0.19973889990401,-0.02636454489009,-0.1442235322559,-0.10003035288716,0.0374253157675384,-0.02708842060044,-0.18647054125424,0.0449136315396961,0.0741369930928023,0.132671531466983,-0.08161137480939,-0.06870761311633,0.0900638653244989,-0.09026513646606,-0.10496514540463,0.135829932565626,0.0263612151818938,0.0126656084516792,0.00607641236497336,-0.15247774146029,-0.0111470884649,0.0759271686450557,0.0866398366694157,-0.00168151690032,-0.021927131377,-0.0119921994282,0.0599923027222728,0.0788700721825355,0.109501738211562,0.0129806415109067,0.105503984287283,0.026421197517263,0.18161596396831,0.029815933529581,-0.10730196469066,-0.0410720104797,0.0905446512184772,0.195327612810219,0.18363687290674,-0.03548435024933,0.161607383074733,-0.04614273236665,0.0573354672555473,0.152670096464142,0.160618473814703,0.137670387077916,-0.15612797995314,0.203166432900247,-0.12212079074575,-0.04664251947753,0.183796255334794,0.153904125191317,-0.183986104078,-0.03280229962464,-0.02474026931192,0.198692913783368,-0.18384331240145],[0.0356133160898969,0.0103597311518527,-0.03219547153996,0.138052127596567,-0.1805018545168,-0.03616285210087,-0.06225947259782,0.119628553985076,0.0249613971248086,0.150356515146958,-0.11875283363455,-0.07151321978906,0.189127241683961,0.177087335870525,0.0789178176911739,0.197646903285285,-0.14162213455182,-0.06937582545802,0.186227810199109,0.197078977429737,0.177594602400104,0.0399193476702591,0.0463418642050926,0.078349823110686,-0.19912437817204,0.172232045215571,-0.12414263988238,0.183888946972607,-0.15077631289798,0.0719750352084987,0.116104927866575,-0.01509365050423,-0.14687623787433,0.187738993374562,0.135549723839375,-0.05714576638088,-0.14555690740214,0.196873183594824,-0.10738520155615,-0.06832758283698,0.2017608584518,0.100140012492566,-0.0928403208876,-0.03132592459119,-0.19567473221479,0.0290252765324018,-0.131896699066,0.0433925278741804,-0.00424192304692,0.00280071016153646,-0.14352184398163,0.0902422499282194,-0.04770487249668,-0.13952785956955,0.137954326745707,0.133217434359028,-0.11934843349113,-0.19603747305222,0.0452040833737039,-0.07413792046866,-0.09343464441488,-0.12604574878669,-0.10387600015281,0.093935013616589,0.0745055042538489,0.035087873943498,0.072828608947942,-0.07616754255406,0.139788552001349,-0.16136550235332,-0.17694410563369,-0.08587669905628,0.0905489838122566,0.113900384308437,0.0398741333021339,-0.10009982708001,-0.0419820454101,-0.03675116851967,-0.00102243044009,0.0609860463761184,-0.07338556881343,0.152305541271207,-0.11320736100203,0.140788238384563,0.0429539608482606,-0.11170959095546,-0.09975182627696,-0.13725409988178,-0.17796691287113,0.0735414485200965,0.0799756073891794,-0.12568523088018,0.00847173547960714,-0.06978920742485,0.107332770105257,0.0884398292866657,0.0959339083460615,0.0915887201196824,0.181839474104697,0.0809296629246145,0.0827633527379308,0.144093178971321,-0.0323046797335,-0.12038303461422,0.0389603897152792,0.0874686375367844,0.1169395307806,-0.15739195581225,0.101877874675633,0.0967434309486448,0.141605198595562,-0.08414081698076,-0.16177905272788,-0.03292094467637,0.0551768308786301,0.172907559140592,-0.20371459394329,0.168681616574507,0.0924269386909372,-0.15482384349561,-0.05786758204328,-0.15881507098806,-0.00068383155933,0.138418374196218,0.106455989107069,0.155577715748345,0.00559952542938871,0.0313862789703978,-0.02402210609821,-0.07251650055655,0.182390764362681,0.144500604724541,-0.01257738456028,0.163325933944885,0.0765726273755296,-0.06049166004559,-0.02453548583506,-0.09155635735502,-0.09180536669151,-0.00527274662848,0.166816094653354,0.15045883537058,0.040019517490319,0.0523073521410943],[0.0348454198451775,0.153570794172102,0.0410347485236935,-0.13930791471404,0.190533129644821,-0.18973649550235,-0.16851456246366,0.00443574350726497,0.123367055895432,0.183210098265159,0.032316553851857,0.0604389632553793,0.142664779637832,-0.10251750537295,0.104391894105962,-0.10189549734001,0.107091435965514,0.166811787604786,0.10770009612664,-0.1579094369317,-0.13146787762085,0.159908218234044,0.0754757166806065,-0.00687822855515,-0.08842688177298,0.106814388405651,0.18734633057065,-0.12913521353018,0.16168157991318,0.109198590048187,-0.05499216584437,-0.05502072598813,0.14400529632376,0.00707229499251599,0.0218063294759462,-0.05561778436911,0.0304279672738874,0.106352490789966,-0.08216375491073,-0.02063851792135,0.0728555025323644,0.0522377406061694,0.145947898458327,0.189504342393507,-0.17759214176108,-0.15093032385374,-0.1881268817221,0.15094267631193,0.0339740377757008,-0.19634722258879,0.119251650756051,0.175017159341927,0.0781898802841755,0.152682414628642,0.118435654980286,-0.18421577213158,0.15646217518603,0.11050606147098,0.10785815742441,0.106805719128502,0.0234629218371623,0.016528873321288,-0.19553496230039,-0.10134527304152,-0.03290909715213,0.122694179632534,0.0834994304354259,-0.15835681105768,0.160842219377838,-0.0810308639125,-0.09328411090944,-0.05949042233875,0.0944436722470688,0.119942316442503,0.196181113842661,-0.00278583110025,0.0269624080640595,-0.13404827525648,-0.01246872238833,0.00692107001180062,0.0778595836280628,-0.04451114753174,-0.07565511663055,-0.1661641179694,-0.12448765280114,0.000264883360098306,0.100655285589045,-0.00498906314827,-0.06581307044728,0.121625091000143,0.0828229344610989,0.124875300212304,0.0820483813103224,0.0639589093255882,0.0214695525421577,0.171492425960535,0.063344464625236,-0.05058655319261,-0.13638363202259,-0.10239186260293,0.0486781771607085,0.030291852236876,-0.19110231884549,-0.03424760323033,-0.18960629534719,-0.14166143717512,-0.06966293002135,0.0289485905308519,0.190540898093092,-0.04373317546272,0.19516176497328,0.117522257005122,-0.03463260135934,0.108500209309771,-0.12727662687475,-0.14041284509344,-0.02154142300809,0.17709493451096,-0.08563765175271,-0.15614247598423,0.0867256130629321,-0.10226825187147,0.0457948879893101,0.0980556204450276,0.113272098146812,-0.15955480813629,0.101562640193134,0.0136132557306527,0.143338531886943,0.0523062687318834,0.0982065760742329,-0.05218885933832,0.181479624530303,0.000275565638090364,0.021805651033984,-0.14004696536955,-0.03946857031396,-0.12116512456764,-0.18416860935398,0.0710282051762638,-0.07085472857745,0.0286960213576457,0.00768090105877828,-0.20365497908381],[0.0413861394414436,-0.17082592584358,-0.12863069506366,0.0196798132551486,-0.18857481186773,-0.12717773366032,-0.00748784446379,0.125760155925836,-0.13828615291903,0.203322417631118,0.136130372508009,-0.1146780799439,0.200460875524375,-0.0208006411033,0.0304984448472829,-0.03584983999914,-0.08494524021771,0.105983956614852,-0.12294403916604,-0.09600372251743,0.00259840269346587,0.0829132493754028,-0.07252111948833,-0.0515424327429,0.0116027620881825,0.00888158375097936,-0.19994969348176,0.0266497609340579,0.0966980429252991,0.100772893448539,-0.06778977733284,-0.11907180415383,-0.07018789248822,0.077361119841049,0.0553728952834809,-0.12010116382543,-0.08761038990828,0.131800365205045,-0.09997345332564,0.170089993940744,-0.18023630811174,0.167534083276616,0.0881257469910747,-0.06724247290477,0.161588688822408,-0.13178085485484,-0.07242879720889,0.0427537960197539,0.0139477323596237,0.103908896583718,-0.03047846190843,-0.03647532315861,0.153026412459077,-0.12797583161996,0.138585626992951,-0.07977980988522,0.0750251421856118,0.141592603546581,-0.07032647358911,0.0126171904606584,-0.13914675769968,0.0188960365137558,-0.11380860312273,-0.18346790008268,-0.00825598286129,0.113913774447613,0.136612778250264,0.0166687767470444,0.109239291634975,0.131721285486345,0.186120769721298,0.182468917114961,-0.18622923936849,-0.10571769077708,-0.14125369668027,-0.01187192029761,0.0153643542167312,-0.06254022133629,-0.05971912336163,-0.17164038874101,0.194695741327577,0.012519976897107,-0.05823043403337,0.00809623178190921,0.0187723634538292,0.0891789150598953,-0.2041190218276,0.126243589043379,-0.15961455187151,-0.08842414616408,0.0313649963872489,-0.10198383004191,0.20082353228068,0.0189549651392504,-0.09616501985943,-0.10007998350366,-0.01359423596367,-0.16133670839866,-0.0383765088921,0.189973461551452,-0.12922070534262,-0.05425161340305,-0.09727218609454,0.111097745457187,0.000410211304797042,-0.14523047378946,0.0302757207027648,0.0659742670608826,0.181505590682626,-0.1301449095376,-0.1407165259037,0.192413613026949,0.181454301458831,-0.08081719593393,0.203526168255297,0.00380959497415151,-0.08734649660561,-0.16983032641247,-0.130488325524,-0.01227245157254,0.0986629139241068,-0.05721556286632,-0.11400578727202,0.106848343155932,-0.0074847476561,0.0836817550627799,-0.04576696949911,-0.13880205832975,0.0342649469445473,0.0731604373597889,0.086522026768214,0.0451992315016049,-0.19369477589767,0.0905961450036373,-0.12703943360617,0.123095297759531,-0.09096265270138,-0.09555682521658,-0.14846744204313,-0.0969031972174,0.0445983822860351,0.103494222182671,-0.06760308911072,0.0344747669510205],[-0.1414650117072,-0.11487006444232,0.182036046475661,-0.09442349390393,0.116171558842521,0.0702220450498658,0.0924995307787235,0.0475149788591837,0.0556182111464347,-0.13543410500979,0.103050249625747,0.0376856981248638,-0.15180381308041,-0.16620933510083,0.0778587054969119,-0.0661142902418,0.0544538783241751,0.033318901240442,-0.12792694053877,-0.06477740094352,0.149621645451596,-0.15534753396749,-0.05284127443207,-0.13835207482309,-0.0472334385115,0.0235827656326634,-0.07896353238296,-0.19474970103607,-0.150009681555,-0.03028106273593,-0.09023922919817,0.0141187020887104,0.203231253250927,0.089481053459982,0.0341660105206335,-0.17649082243388,0.0714755359713374,-0.06557399945694,-0.07142546858996,-0.11559441969337,-0.01505182422071,0.000728289180802727,0.0986112264722139,0.150662178196297,-0.19130691271268,-0.1087513718438,-0.04789873328503,0.127158718124281,-0.01559136574591,0.133017128169646,-0.00450295056253,-0.05868828479633,-0.05926053867728,0.0983511766993291,0.104994065973752,-0.00025559692654,-0.13886787841495,0.102956157589787,-0.03337753736638,0.0187664784311507,-0.03974476874853,0.200603569449977,0.181768625523138,-0.19436138983028,-0.10530952598211,-0.08411719787405,-0.1054970913251,-0.16207888390801,0.155174648505576,0.00600792675003117,0.0517644968291827,0.115295548475026,0.197882900352083,-0.00164044798974,0.183888502136307,0.0645091072498938,0.108832857022672,-0.20183856294342,-0.01534572048647,0.0096147387966429,-0.02828934475801,0.00142057732345482,0.0630970339603219,0.0473287779151761,-0.17368826369656,-0.18619271831345,-0.15831240238419,-0.08154134441215,-0.12512114136316,-0.04782416805797,0.0531055840567218,-0.00002825658713,-0.12753726942073,-0.06853762251389,-0.05238527033936,-0.09012281655685,-0.03754023990173,-0.14268226057983,0.0477244391369675,-0.05439071513685,-0.0447103497748,-0.16376172455298,0.124842812052515,0.0374383828591602,-0.17383440059334,0.0974937895802896,0.0350991636549874,-0.08794566234094,-0.01044544506336,0.13374185195091,-0.18215514695027,-0.13008243119333,0.195344937367289,-0.02792200906221,-0.10982630106306,0.0214569325927423,0.182961566290535,-0.13360899330145,-0.07997275157458,0.0278673038272287,0.0666970862074326,0.0386010721541534,0.100099968276585,-0.02095693756961,-0.14236917549695,0.177707358305914,0.0753060027127118,-0.05433177963896,0.152438421780625,0.118075567004788,-0.09777927559014,0.140725390925738,0.112725813616922,-0.01941582092013,-0.08264777401074,-0.08676289921243,0.20030368971552,-0.1992143489023,0.156430725064809,0.111551671661149,-0.06895725368719,-0.05984480231128,0.169154384749527,0.0134904875280822],[-0.20173613415992,0.106779513858162,-0.11756745260523,-0.06902221682167,-0.11481434978453,-0.01734045121004,0.15719333813554,-0.01577407989133,0.0378070040815559,0.139775979508127,0.084536846915304,0.00550570840291975,-0.03741714146202,-0.09742617542713,-0.19020665161259,-0.07553518634443,0.173819737182939,0.150653628828603,-0.18315409051371,0.0184522130334392,0.000868208076306803,-0.12078214538022,0.193545689788022,0.139575204400266,0.138893576848991,0.0426617655648893,0.0723675307027876,-0.12735368790356,0.0436454375176636,-0.01403602788603,0.0252883328218831,-0.18417259753055,-0.16098831465932,0.195517948478943,-0.03635961229112,0.0138454628507151,0.198248391734469,0.101692918601378,-0.0786794035178,-0.08815276615772,0.122818823301144,0.122711886476589,-0.02807648688494,-0.09535850265002,-0.0071967465387,-0.1136326386653,0.14081741246958,-0.04220374441548,0.0202053866868964,-0.11921894966929,-0.13451163083581,-0.19765856807471,-0.11288780240636,0.0210451520091141,-0.10303151790019,0.145389398544891,-0.11731298288419,-0.19530435575496,0.175022704591706,-0.05723153012115,0.0824742844471089,0.128650782839947,0.195541926312789,0.0162230951196021,0.201371054776973,0.128375327215035,0.094203149540278,0.02361963857426,0.0118238445333066,-0.19361146354784,-0.17581251144215,0.118007081038069,-0.09212130803937,0.0369628758790664,0.0920052771665555,0.118768986985301,-0.09049549635793,0.0136651107973372,-0.07440759681215,-0.14009102668252,-0.03990268444194,0.00951263562375176,-0.17986836966449,-0.19064938838609,-0.08756256706702,0.144586341938855,0.133803801842316,-0.09593355054451,0.0928395555483264,0.0783618809401653,0.0141344718990928,-0.02530638921016,0.131877173736508,-0.07504013289561,0.200924196452002,0.0129647113085218,-0.13814641114674,-0.16316856588978,-0.18157312657367,0.0881193183559437,0.0779556474157118,-0.12474343835779,0.00236199440061954,0.13935609144047,-0.19881631519619,-0.11114312033414,-0.01848542088096,0.0923003379137366,-0.0522659135354,0.0353105261827931,0.0112105119086252,0.129470473628044,0.121864927610096,0.0311689162284764,0.180720914794747,-0.15114427079354,-0.15091802949049,-0.11227250164593,0.0112202816860779,0.164068641958897,0.13142940254646,0.165872457100976,-0.03083451717304,-0.05524352200223,-0.08351847923051,-0.16855316841699,0.00289427089554173,0.10002883452673,0.136323930489621,-0.01725778903515,0.0798310850709316,-0.11997943752365,0.106651676474524,0.031360159020428,0.0848915888603924,-0.04954739282554,0.0626585894908975,-0.12136715399966,-0.02112595588207,-0.0392925277437,-0.01215910506897,-0.20113147611552,0.115734362186126,0.16104536121938],[0.011943983708263,-0.15528044443769,0.137307646157083,-0.11022463653781,-0.02217605897739,-0.16282524021713,-0.20238344091947,-0.10473455991035,0.114564494278225,-0.00806941976159,-0.09025246010047,-0.14407270931909,0.154237508363665,-0.18516109256878,0.0839052844779504,0.201390057925651,0.0966589652120362,-0.00668971576901,-0.15429575588563,-0.12348484440556,0.125003205586524,0.0197007148509248,-0.16309133785349,-0.1966093674773,-0.10526352965484,0.0674299130593051,-0.15631727760549,-0.15639377264043,-0.14967883921325,0.149883239342008,0.011590403320638,-0.18700261084002,-0.17513144207162,-0.07761364891373,0.0758925419678739,-0.11294654906372,0.186848250048798,-0.15820218919821,0.131277566126034,0.166154856396128,-0.09910987981862,-0.02479694870858,-0.01762013206907,0.0125356058343496,0.124335649822695,-0.00664916301057,0.0398931275906106,-0.03914403544567,0.0141811074476967,-0.02888760049641,0.060129645291138,0.162099563073799,0.165318236820544,-0.00180114109445,0.0575630436256757,-0.0829415858892,0.16309541607869,0.0204229032174403,0.140043146188605,0.0373399045099069,-0.05203660478634,0.175516242947641,0.15044878713092,-0.00118511995822,0.106365545301214,0.183476082198994,0.0151141322746091,-0.19491134958575,-0.12793930780196,-0.1178717396111,0.137710675290951,0.198134702480771,-0.04381131246283,0.187861261562133,-0.07554614994397,0.0894354094352526,0.151493667885255,-0.07330688197658,0.0118160314236428,0.130094808905928,-0.16078429615386,0.0463117480523839,-0.0953717510758,-0.05080710592355,0.119145745548929,0.0314318229739458,0.0697179088030896,0.164319994255135,-0.09775389047474,0.15316723334891,0.0744684087156616,-0.20321793281181,0.179440374222846,-0.15717862723135,-0.15875360550469,-0.12581439814043,0.091198086543691,0.153120817270377,-0.17307062910259,-0.02185618391736,-0.05994024277209,0.0297772775701259,-0.04105631898586,-0.07375534490429,-0.06083175846046,0.0842795638252122,-0.15447979004083,-0.11010934784687,0.0120118301980281,-0.16135668468768,-0.04872060997897,0.140551236993264,-0.1352402504047,0.162052582806677,0.112599408405815,0.0997267884392628,0.0675162403545065,0.174660131071784,0.0633953264696295,-0.0862211470589,0.0733907954838123,0.111473682109395,0.045654198068008,0.122571388154324,0.123840042082374,-0.04688960647448,-0.04043062306455,0.14588711450753,-0.19070422825318,-0.13657964973173,-0.14289919330555,0.171861251122896,-0.03960662969106,0.00614632116753044,0.0262360253394004,-0.14899741521824,-0.04648997199567,-0.02024180363506,-0.134683814202,0.072812565150023,0.00254801408403738,0.185868997554643,-0.07051908921342,-0.17616933575377],[0.100155883512586,-0.02564330066003,0.0566927638271189,0.186476108029112,0.0498070621687399,-0.07932171875956,0.0656164547618862,0.0334575555966614,0.168219276349612,0.0485885070269754,0.119046641371349,0.0419565935884597,-0.0120346306993,0.0811736808562979,-0.06082335913397,0.00793427195403321,-0.00121080617966,0.0160636665473046,0.154196853821541,0.173290108219168,-0.07336713854825,0.000277295727600324,0.190811632486345,-0.0483469766407,-0.19599387606528,-0.1572626164065,-0.16736314584866,-0.1578870591094,0.117326412046867,-0.05576982205238,0.0679148996142269,-0.12678737202518,0.117029270203458,-0.03977782386229,0.132519429852093,-0.05829198270082,0.128122977007093,-0.03628990070484,-0.01065372314458,0.0237475348695021,-0.01476974787385,0.140122262004811,0.0808890598456086,0.0371344372591181,-0.04475937990886,0.142223375415086,0.106622766141212,0.101053835676299,-0.01620195081824,-0.00676724043859,-0.20149860895249,0.0528470896959915,0.146142902594577,0.203739954590059,-0.03960371609032,-0.09927723481356,-0.02418331635902,0.143270932163969,-0.20310471634713,-0.10893223859878,-0.0613814206965,-0.10477263848368,-0.07768883318475,0.150340989034496,-0.11190594625474,-0.05336098562524,0.173545849516587,-0.171239592211,-0.07682323276441,-0.02761050942115,0.132335203624783,0.0279727859133933,-0.05494167225357,0.0580977704441774,0.0430067054456077,-0.19028475024353,0.17665470147434,0.00344933887453019,-0.09872784821349,0.0111957911520259,-0.01720645013543,-0.12336254819555,-0.0224791211585,0.175118775448469,0.0991424044347282,-0.1190969612305,-0.00931849614686,-0.068112888214,-0.09092509077752,0.00989191271510839,-0.08953695911597,0.141738168700236,-0.11654792620363,-0.04883826802415,-0.05615173520078,0.189673364510511,0.179264457453016,-0.06993622088989,0.127259523963552,0.15557668421283,0.140833963186742,0.171869867876894,-0.20377486105036,0.0510384589402431,0.195208755712573,0.154945304866537,-0.14631881207859,0.0758414986490112,-0.12608381233164,-0.15451080512565,-0.0339165400539,-0.05300551585033,-0.168990983606,-0.08565868342463,0.168111417759475,-0.0753265469351,0.137924107327172,-0.18148418414015,0.190089451625953,-0.11381874398656,0.145694808048362,0.194294848197937,0.202595502440095,0.145893064395024,0.0279151564690583,0.00551605290036539,-0.02310097602879,0.0908303754349276,-0.19908363281261,0.14713120912275,0.0861499806012613,-0.11691743210541,0.154566953658785,-0.00337464598598,-0.06265184888509,-0.11913773176541,-0.10898091510409,0.0839217913701636,0.0398261392582958,0.0187124942958323,0.02078368676634,-0.17567421447271,0.162557737563826,0.0951259458422302],[-0.16870855225703,0.0280788857622633,-0.19308533948128,0.14950687883407,0.120178353106447,0.133073932818392,0.1327987147949,-0.06166375378496,-0.19179376470782,0.0839715615956627,-0.13610178839335,0.0863434597159385,0.0679985449057313,-0.006758049527,0.120245707015938,0.10374879466776,-0.10162976037449,0.135804234996971,0.0951866380669727,0.053456243722654,0.190117339241594,0.0114638925242717,0.135968844040651,0.114773833503427,-0.19421005703511,0.13189180353728,-0.14207955624747,-0.04256899216811,-0.08790805175447,0.0388657127623246,-0.11055468359141,0.0380882589038313,-0.04747232706087,0.075984223532532,-0.01515215898862,0.132313958981187,0.17344280453253,-0.19989582376289,0.145178563024287,-0.07696926448715,0.137555514958947,-0.14316352478701,0.0545750173454166,-0.10837641995784,0.175591711136147,-0.00006132238791,-0.15787531980098,0.0834987096649837,0.0851706598963937,0.174575071207146,0.0870206661253449,-0.1810499137594,-0.01405604354076,0.0871806201789974,-0.14371887245767,0.20177284076552,-0.01611013662263,0.0671165585396056,-0.00268498556851,0.060582197920695,0.136389349392121,0.0971842360680708,-0.07882890510828,0.183502988982167,0.106980221439305,0.118231986965403,0.0471774650021752,-0.06295823102824,-0.19450863493864,-0.15860698460355,-0.19298377613315,0.0899827438314321,0.10477818780465,0.0718438234923399,0.0303916627044002,-0.17350250478067,0.0946861196373364,-0.04493212933939,-0.07682663620688,-0.01249470880606,0.160766821286457,0.147725264462454,0.198249664583656,0.184093059149201,0.0349446170809405,0.0766747780888841,0.158112066866324,0.0494484500225773,0.0672501234277774,0.118609484733571,-0.17970263968153,-0.12173650904104,0.00828066632785604,-0.15817325430801,-0.01078698636952,0.0489176680749803,0.00774960185149759,0.137601178314458,-0.19965809156433,-0.02628219591552,-0.14887105873799,-0.16534458314882,-0.09166139757474,0.0394240995654891,0.189586221470298,0.199524215306556,-0.16405809156951,-0.01572481638586,0.203276113605993,-0.05867835248546,0.10748009945956,-0.01308675637246,-0.04284104461943,-0.08411311842387,0.156872371461236,0.12217832866768,0.0437389108117443,-0.03736605451627,-0.03271628543244,0.0144177775083827,-0.08594487475339,-0.01168325612642,0.111521999210669,0.11933502472192,-0.1385667944785,-0.18117988011792,0.160028460083592,-0.00889806072307,-0.08490957606849,0.0331039818290476,-0.15851541284129,-0.18617077398016,0.0691657405771437,-0.17175875632394,-0.19535334651494,-0.06541084802687,-0.16341106438628,-0.03745249636798,-0.00336236536272,0.112079740290955,0.139490569593469,0.139017501907834,0.000440128070405998,0.0773262873440975],[-0.19783080869475,0.120551671412841,0.20199500469282,-0.13677149478018,-0.02019245194611,-0.1070038870727,-0.14535567927564,0.102237639328621,0.0873808662633229,0.0889779646679273,-0.18034806536104,0.146799729968787,0.0987429001816214,-0.0963172758636,0.0362545934677699,-0.15433949255618,-0.12206179004296,-0.16363206480955,0.146832439110928,-0.10707761778731,0.0447863208034692,0.136030587842031,0.0571181801868664,-0.05243859605621,-0.15904105952097,0.0664152031229253,0.0842091714479957,0.0350239827083215,-0.20200312268374,0.0704468928556159,0.104790478558921,-0.08368048742079,-0.05908839334631,0.00739768119023113,0.0675398701887594,0.0848514889275127,0.0585376642298123,-0.0943695079714,0.122530278475635,-0.11375875149826,-0.20139891433581,-0.1025134563191,-0.19500799043684,0.103038714249676,0.104246586769131,-0.03380522502938,0.0936422066309944,0.0110386876474236,0.0809047103657479,-0.02370705992409,0.191851772322394,-0.15742873902324,0.104164598705316,-0.00772410972614,-0.04540058382858,-0.05694666746003,0.00419535245771799,0.101103256922155,0.102153943418646,-0.00572023581097,0.151102152694716,0.100300806269851,0.145084581393004,-0.03573085190121,0.0860493959449977,0.10155811370497,0.194683068065892,0.0144115671915443,0.0568636184097864,0.0391517832207605,-0.01250595673985,0.144987411816568,0.00216143954130429,-0.13223432436312,0.111481879014372,0.0799260565596718,0.146983167458972,0.0490119254954398,-0.13364741814165,-0.12257552246665,-0.12390714458207,0.0324847565840382,0.177026160688999,0.157724639883123,-0.10235356616601,0.0284524776541181,0.202417473121221,0.165079004014575,0.064930723188986,-0.03105327826294,0.179620727593066,0.0703664397243984,-0.16990062324395,0.0232846681503339,0.0817176271931931,0.00903845926664135,-0.05004003779372,0.0135873522844124,0.110559721308665,-0.18099533836886,0.147717877548661,0.149443675691241,0.197911443354682,0.113871738081755,0.17300215044881,-0.13512740755544,0.189211201195114,0.0467160747965166,0.0830882844489463,-0.04818237309839,-0.07113782495832,0.0730126531836985,-0.19171920798806,0.144158966286284,-0.17633133105756,-0.17480664717681,0.179010763084681,-0.0004037040124,0.0630230714068138,-0.14021992496081,-0.0744267575513,-0.14180576377232,0.0314361131556286,-0.1507191288161,-0.08813457441801,0.150903173213645,-0.17971452748843,0.031964420408507,0.173526744080037,-0.12556980564247,0.0107557084738445,-0.16244058914807,-0.1618530842874,-0.18516694431644,-0.16586328879971,-0.0279572849528,0.145824127181379,-0.01739612046186,-0.10124321843087,-0.12958488500116,0.115862650885202,-0.15342862574923,-0.02142117897852,0.168885515651907],[-0.17749263398965,0.0710414661897639,0.0332219855793125,-0.07570298046312,-0.13483146555836,0.104479327514138,0.0529043339245852,0.141881964675425,0.168496860026765,-0.08808656498331,-0.13885004367456,-0.15175623652375,-0.08951088942668,0.194116309230544,0.172465355259617,-0.09654689463656,-0.00749431726122,-0.05011931657014,0.0661303608757931,0.0990155331095465,0.160110306355803,-0.0421159242121,0.0882576232992746,0.0392315179563911,-0.09659197897016,0.122878920450196,0.102626366306215,-0.02306857681304,-0.09462147998882,-0.03346641119855,-0.1794480408989,0.0761740584025409,-0.13969324550604,0.19186520019156,0.189838147129466,0.0265109501482309,-0.00344301437339,-0.17611857000521,-0.05731132213991,-0.10900161515374,-0.15631980722287,0.0316155715252777,0.107958723642069,-0.19344431765847,-0.12499388160178,0.115621620259518,0.0394971810551684,-0.03048812877815,-0.01355577205577,0.00507391465208659,-0.12719674705123,0.0742852488357061,0.19346782030917,0.0855715784471761,0.144281160658091,-0.18847990676304,0.0703375818150379,0.197006986986373,0.126200634968712,0.0941732233148613,0.0987821646297326,0.187369415807266,0.202015495725635,0.192611267199915,0.105414811530085,0.120523027104421,-0.09069701770999,0.128767474012462,0.151715615166891,0.174690466266884,-0.04802212640216,-0.1103069630476,-0.15649108642112,0.150502819421287,-0.12354008052558,-0.05507738701801,0.155939799005023,0.176927835053918,0.175438576962789,-0.04114248027582,-0.16828959824757,0.0882180363854755,-0.02101673819524,-0.03875647086592,-0.05210977752827,0.0919873824056702,-0.13103659340517,0.166399535646224,0.129133041337316,-0.11537089238589,-0.1384671990856,0.0853921373622154,-0.13025005149305,-0.11873246063405,-0.04342164545697,-0.01414603002743,-0.14692784168958,-0.07859759883446,-0.02984170714441,-0.16859741758927,-0.12634452629101,-0.00160819380303,0.194912610493747,-0.02456471329722,0.00000386760644638384,-0.18750041085847,-0.0136806721451,0.0334016403822089,0.120894092058306,0.0791704012750375,-0.10786408662728,-0.07976741950731,0.188820851656935,-0.13323315787225,-0.05071061878751,0.105480299063408,0.0307877820942858,0.042021676071337,-0.03636827195994,0.0568774852648207,-0.15187140020214,-0.17161918472225,-0.10481315759261,-0.03909554404763,-0.02765921192153,-0.07345804775403,0.0546473516844154,-0.09383687496234,-0.0771884807672,-0.06596963988801,0.155816515134548,-0.02340771947842,0.0547908173445503,-0.13356516813299,-0.01406819021635,0.178520283973893,-0.17759919485797,-0.18686340522396,0.0343113962563063,-0.13635236158077,0.124941424350099,0.0110854212938074,-0.10438046169412,0.0279585562833686],[0.0234798932765708,-0.01905284032166,0.169891152000945,0.0979208383357949,-0.07476943257552,-0.11096222033593,-0.00844182913567,-0.15752480840253,-0.13523290840474,0.0919938773455692,0.108279866570943,-0.12878026806394,-0.03119221936233,0.175400732462173,0.0589331856455975,-0.08432570142479,0.155888855861804,0.160215857103795,-0.01443227877378,-0.15006625628204,-0.05287772715177,-0.08827381259429,-0.02349306730685,0.127564195272765,0.181950441964764,-0.07431168434628,0.168060414733309,0.0634904295067315,0.0656955486760837,-0.09534644710449,-0.20029225101053,-0.05833249439246,0.0677251138820962,-0.17761331352883,-0.05469148483358,0.185846409816167,0.184250588189841,0.115115835358279,-0.11159392225824,0.155123391460302,-0.14302300348018,0.165762946963772,-0.07855213971269,0.144523185673501,0.120672331242186,-0.04999287142539,0.0644990758785231,-0.0166191031984,0.0734195048629129,-0.06756051537186,-0.13998179079208,0.074477120682122,-0.16408414175772,0.0258100898721388,-0.1184617542769,-0.1061765721452,-0.12611273343199,-0.02316273912652,0.144377455347635,0.184874304673959,-0.09796270421371,-0.18005400771785,-0.20117595521199,-0.18378615316122,0.00724750186661161,0.07638539013708,-0.06304141894881,0.158059466922932,0.0957679932338408,-0.03413000562443,0.0780113093049436,0.111865932065335,0.125783286528575,-0.09240996610055,-0.18201468128107,-0.0264126608252,-0.01375617453941,0.0425395797592156,0.0957664658783616,0.178672859453606,0.106998350209371,-0.2037031523877,-0.16855343201901,-0.16723312951331,0.163153157733225,0.0167392626786647,0.168064495140726,-0.13274507041462,-0.15886171549516,-0.17131388577126,-0.10087880957922,-0.09675766200672,-0.02351460617267,-0.06896509272856,-0.13128019884261,0.112395851105006,0.051451061380037,-0.01106322930866,-0.0684298931591,-0.08303620731808,0.0513991980258595,-0.0674782110366,0.034281039613677,0.0277051658817711,0.119308626851289,-0.12306117674336,0.0690932610344078,0.0222488073649445,-0.11201033045907,0.0763397168572647,-0.08672466272424,-0.05442428200014,0.068237417279211,-0.09726171814376,-0.15267373256695,-0.03456988160145,-0.14674838778967,0.180137907799643,0.153945128864544,-0.05852810276414,0.157215780449925,0.158254287285349,-0.02101790463151,0.201032582722456,-0.0097614092763,0.175064731274716,0.174000554734705,-0.08552757390079,-0.14195857707248,0.115539949276742,-0.12839219146107,-0.18409269331048,-0.12171257165383,0.103669324429785,-0.11718944499711,0.0453021441340237,0.145572785679294,-0.19937208102856,-0.1560723490139,0.18934785844004,-0.06503669937432,-0.14574504837416,-0.10330516346411,-0.07669724846359],[0.00586873216582315,-0.04071795633748,-0.18821991799991,-0.17871924554249,0.0110977927997526,-0.04076969080787,0.0226867873840492,-0.14195021158158,0.176885751392321,0.0422636531032958,-0.19184255640973,-0.14955998894141,-0.14501032437134,-0.09186202576665,0.00077187115767044,-0.08915860590704,0.104466099690806,-0.09222336961083,-0.05993013947029,-0.00178248665678,-0.16364148782566,-0.07654331465436,0.163161441121793,0.0121294605872845,0.0776272728845512,-0.01934349916552,0.0544398179488024,0.0719374784707624,-0.15675116674052,0.0298305068257964,-0.08867977901834,-0.11747395060541,-0.09406100043037,-0.02635610662692,0.0425780611575736,0.168690813900427,0.09866433382295,0.00191369499306879,-0.00628780675199,-0.01827660889036,0.000206302915461337,0.134099851828873,-0.15416756205071,-0.00905381458315,-0.05809760824317,-0.06887152966934,0.0872104428630578,0.173439350506607,-0.18564599055608,0.149362849088963,0.0413142813763582,-0.08167484967419,-0.01205806734127,-0.0645123651698,0.00419156543666352,0.0201289315825671,-0.06806014085139,0.11189581007571,-0.01357680613123,-0.03497185382021,0.0781750744763157,-0.03999192712733,-0.04873987390281,0.114918831075687,0.139530428625798,0.15741698793781,-0.10321423453958,0.13331314379643,0.0688408950302611,-0.01526135485504,0.0542380437640009,-0.15934897650731,-0.06440676018904,0.0726977469144031,0.0412694927322335,0.18894398073825,-0.04702942572473,0.0178535969483564,0.0482318438300508,0.120642708530369,0.0743552174852475,-0.09227067143571,-0.03957432963385,0.139829179594433,0.0222101249814665,0.0883103383944064,-0.03762004153757,-0.14169127095625,-0.06704079011423,-0.06505511352661,0.102369300570449,-0.06729080324281,0.137952825976643,-0.11931447027785,0.17467704875777,-0.0703131616993,0.016442364608092,0.0527547214847733,0.0116995091434115,0.0621897856757809,0.142748956723266,-0.07079114918514,0.137652607763889,-0.06619936290851,0.18835368691698,-0.17698032889561,0.100196900909835,-0.18501077318021,-0.15182135016584,-0.10774831702142,0.00641564778569448,0.0985550358410384,0.0250811174802427,-0.18186613146351,0.113909504710085,-0.19165042524494,-0.04502099397492,0.157214786450154,-0.19649464273168,-0.08098711228739,0.148028080610665,-0.18576136999288,0.107322369759534,0.0634536107474312,-0.1971085693557,-0.12071337624079,-0.13970566981702,0.0489070329571641,-0.08683621180937,-0.08014260029275,-0.00617025225746,-0.10457453135646,0.161435708328962,-0.12073207501835,0.0312833196356012,0.0721094961476292,-0.12694646128942,-0.04943582285252,-0.05278132263486,0.118657855194175,0.188323773649331,-0.00154523714431,-0.00140904522313,-0.00368289341611],[0.134475165752238,-0.07203115143497,0.0100614865448618,-0.19306337325662,-0.1732475421641,-0.10540885703106,-0.05367851512519,-0.07818443947742,0.0524391027103888,-0.14842111400097,-0.13806536764949,0.135255015351469,-0.02748005886797,-0.18507344994695,0.180217414293316,0.130824567292225,0.149935585396749,-0.09322668706578,0.0309285977063934,-0.11048482750097,0.16803198747693,-0.1325486396072,-0.02847571882324,0.0633509360788093,0.0221839443072124,0.0588859608872324,-0.07381123118527,-0.19210659656167,-0.10759821346172,-0.04767457768361,-0.06542670855542,-0.17586445653445,-0.13816845101009,0.156876569866365,-0.16775238383127,-0.00076751731642,-0.13254885446699,0.200197885752704,0.0353275626298946,0.104147700867693,-0.09289693101453,-0.10934471915061,-0.15089182169422,0.104425324569619,0.121252192326058,0.155294882709732,0.0696234891663987,-0.0747215244642,-0.19894563195025,0.0685386270443332,0.0986656841234262,-0.09769188257604,0.0392038218652179,0.0345144401636214,-0.03856934956277,-0.17422325271619,0.159459249691356,-0.14732565059481,0.18524895134717,0.0649908156377032,0.138369505206608,0.0778990539034397,-0.04577177499818,0.0772400473771536,0.163625651418689,0.118682609841254,-0.20083188700835,-0.03295396397133,0.0599344590724615,-0.02903291002195,-0.03075479677373,0.141163808687958,-0.06863655074508,-0.01263788602521,0.184970485297394,-0.05093269652193,-0.05089773620801,-0.04405058004996,-0.15953261187129,-0.06907115478612,0.0266033932649565,-0.01085612608113,0.143533270659385,-0.00944421548241,-0.09441443408014,-0.036359255558,0.033477376366368,-0.08949554112435,-0.01257787144247,0.0832459306645828,-0.12759862677083,-0.13401956317099,-0.14737332317872,-0.03889481897477,-0.14001581692202,0.126542679642263,-0.20212562829145,-0.1226894463712,0.0170939155929016,-0.05286047873438,0.123801455847363,0.00740053644192284,-0.20126051873105,0.0962922270900515,0.163223117655756,0.200742315397609,0.193205115464104,-0.12716103593288,0.145447563525926,0.0761889980962849,0.0617435453099718,0.195099255409301,-0.20348077505314,-0.09652486137442,-0.0494342314949,0.0922057261543617,0.0209555323065962,-0.17605836767476,0.0926243461402906,0.14655397596904,0.20287068440909,0.109375757834218,0.0584778387304304,-0.19878060519654,-0.10314138894755,-0.06423252860149,0.140285662323076,-0.04640599076995,-0.04584587854172,-0.06536453389552,-0.2040037369795,0.119071917272457,-0.19040878014812,0.181555293307338,-0.11282194126247,0.0685185628397916,0.0105776597111111,-0.06734242085318,0.0787259072007762,0.0434135336264574,-0.1767807661151,-0.07841790794691,0.157398656400264,0.049852810720192],[-0.07196046707269,-0.17046971991986,0.0646238064975521,0.116848900282087,-0.07743198297067,0.0319322236087941,-0.07296556231299,-0.08796261372991,0.124614035158683,-0.05112123574171,0.0866999644309564,0.0576700953354732,0.098814167677885,0.0753387524442882,0.123227196356878,-0.00601031836794,0.147298170563583,0.121797258656577,0.0548204547681327,-0.05077121735985,-0.12874953995916,-0.03703169009183,0.100785291681022,0.0433121656123418,-0.08231549291522,-0.20329720704816,0.139420543859015,-0.19075990541946,0.190195908171105,-0.14446634064684,0.065203308641494,-0.17634972536974,0.0628030695782759,0.124892715580676,0.00987109808763142,0.148819825922531,0.180438132339724,-0.06603907978063,-0.16272165396252,0.170146541427791,-0.10930449551441,0.161700060781855,0.111842231627968,-0.16831899821861,0.0809122803522822,0.129908960739076,0.133932124196078,-0.05737991593476,0.102659899818944,-0.11560204254498,-0.10008737474811,0.0393889139509497,-0.12977405723697,0.01423328941976,0.117848828885789,-0.00919798875161,-0.00430383676503,-0.16054651472805,0.0970514547734104,-0.15241365404851,-0.10941932441454,0.0752581268936353,-0.02853561025079,-0.16970845933946,-0.07168027622624,0.0518519184019604,0.0390818248015645,0.0885488356307076,-0.03848891632901,-0.00902905857892,0.145979937347759,-0.19608877302497,-0.08581359357734,-0.10000918531804,0.0262950781991879,0.189903530125884,0.0751933423484571,-0.0833463912151,0.195922661762682,0.188505695969964,0.00882923718074838,-0.15156320754537,-0.09915931574636,0.144917208406253,0.0728469203019053,0.00850731000925692,-0.08776304623173,0.0634233972018318,-0.07442816982511,-0.09372343401905,-0.05412625478463,0.152078787816376,-0.13970705025209,-0.03105138991158,0.0979347102655178,0.0954375801698398,0.151982515177755,-0.00101431506286,0.155144049106384,0.0563950953158353,0.182579871164706,-0.06658041725844,-0.13510271521209,0.0926655932903131,0.0977073325012869,-0.11250083323303,-0.17887218943713,-0.14362307482049,-0.0981561547669,-0.11967496044832,-0.166256685608,0.0478532847852403,0.164362086659775,-0.04871393347354,0.0127579087665889,-0.11816444776716,-0.1493824753412,-0.10012192342822,-0.06155380990076,0.165462453141113,-0.09644763163378,-0.1641742227517,0.0674825725859259,0.15061802300114,0.0687380168771269,-0.1318011988897,0.0834507456033414,-0.01256545326691,-0.02657726579268,-0.04724637537589,0.172318552576002,0.136179702426206,0.101188658531362,0.166493120003617,-0.10502358212631,0.100629073134988,-0.0949032725042,-0.02882727629266,0.0484153500306812,-0.11930231682339,-0.13468893377424,0.067521613073438,0.109346507798068,-0.19032123191204],[0.13729774891889,-0.18377235857521,-0.2021192526313,0.16663209690219,-0.04245779677207,-0.0614757481341,0.117752543977811,0.0568453493558748,-0.20317156764781,-0.19035200404248,0.186592793620821,-0.00638342985104,-0.0001021107879,0.119872300827822,-0.18117964657538,0.0958488771859025,-0.18031139993796,-0.09569109807151,0.128709544306928,-0.05276737625916,0.0277611454966316,-0.20059091178142,-0.07019224977887,-0.01156303040702,-0.15766396971984,-0.07858985684619,-0.13098411806509,0.0637520221742087,-0.0417200259578,-0.13718014827859,-0.03952100253829,-0.09057394744331,0.0237827770120644,0.0699191627032415,-0.1096118038549,-0.031785193359,-0.02599927450433,-0.0309205634275,-0.06966211883141,-0.03852325231515,0.00863760447819506,-0.16258412038594,-0.20366102540341,0.0249387164546045,-0.19089100555216,-0.02616740956267,0.0850614643535061,-0.08341793513483,0.153169883917731,-0.0362407160038,-0.18026747885966,-0.0870038128016,-0.05265920064289,0.0767373131462807,0.00240782883497309,-0.03266941414742,-0.00099342752814,-0.00694737927904,0.0419929559196354,-0.14821629665841,0.0489744970559414,-0.03258428753919,-0.10596944810345,0.102000413985918,0.0675112849790818,-0.00325535769331,0.0140716849889616,0.185444030155983,0.159273122283634,0.0609065270561899,-0.09606399180766,-0.05355224219153,0.128176859683114,0.151560549747859,0.148123752568725,-0.15622942201344,-0.0198124319518,-0.11228235289646,0.135236950985428,-0.00008085141816,-0.16232748592972,0.0359561012718002,0.0401553373673541,-0.05099935966715,-0.20393969616777,0.13592543203393,-0.09672267956012,0.167630664158541,0.133388684884637,0.0826079515511867,0.135271760947119,-0.00701697958606,-0.19925478402419,0.167464448426542,0.0851844903831569,-0.1655196683385,0.125730647739735,-0.04414383867721,-0.00661479016284,-0.03156411232055,0.00840835343256116,0.143132197752567,-0.1782897190809,0.136784050535222,0.173235008292016,0.102533791089365,0.052340569381447,-0.13619116102084,-0.1455191380516,-0.12169961858152,-0.15705066730955,0.15777211584326,-0.15723077786132,-0.1813251081907,0.032348435350782,-0.03865520739247,0.0925193621265516,0.144857895871957,0.0838799844564774,0.0406036740026765,-0.00048870044796,0.186934689199519,-0.0525439328273,0.0715769044212368,-0.06904910146895,0.0953580537386752,0.108520750351515,0.140781242859561,0.0923849871938608,-0.0067473353318,0.107954902977587,0.138808599169751,-0.08485289728904,-0.08376260714637,-0.08502922792405,-0.13991064490433,-0.00269965305191,0.0938788164215312,0.0901321271773199,0.147520871590591,0.0605025158905191,-0.01511777598945,-0.01835676871929,-0.12630232609748],[-0.08501151447217,-0.03540646530251,0.194546150147067,-0.04905123166209,0.0922981148060902,0.111802575514798,0.183399577353361,-0.14982854346809,0.187303761191298,0.101895316257041,-0.02430707828211,-0.18257274301558,0.0472728416327634,-0.03633299712656,-0.08603088549038,-0.19734268688602,-0.01172710155197,0.159502542122501,0.161601282615576,0.180189553265657,0.142758241999293,0.182342759586941,0.102589899677321,-0.02697445356614,0.189605330341353,0.181662452813655,-0.0084439715257,-0.12505145630833,0.140612328946652,0.131330444970122,-0.1457186161449,0.112322361829673,-0.03495545987155,0.0514009843330744,0.0231964598749632,-0.02764573895795,0.0141397016512775,0.100299039597427,-0.13178406897572,0.0741993657175035,-0.18297301002314,0.0975390749646183,0.066594882376081,-0.07256403501696,0.0434488579811284,0.0867175985960282,0.154010124021253,-0.07500043646089,-0.05144035221257,-0.17633005153576,-0.12818216273819,0.164439320918946,0.0927655845081898,0.00669425941044577,0.188731283217494,-0.11722526443786,0.0226986431546611,-0.12012201235656,0.145582257237816,-0.17265552092835,0.00335723867397178,0.0112042561363425,0.182250668486806,-0.06524593894875,-0.16730693639351,0.0815136272204949,0.000223390974471438,-0.1022991069766,-0.12379713555026,-0.03437056805298,0.0936847839523218,0.148307641245762,0.168285635683437,0.142687126816248,-0.05379221459281,-0.13289133263909,-0.05910802906988,0.147274822720924,-0.19496348850972,-0.14640700743603,0.11303758717196,0.0421552092936729,-0.18203478639602,0.13159956520751,-0.0036875994152,-0.07491765371146,-0.08736130830088,0.00303079386632477,-0.07475290810812,0.127986938800802,0.0319360440916434,0.0840780727401156,-0.06394115387483,0.13507960266446,0.0909678818504465,0.073351189503977,0.00691007954422759,0.194151156732052,0.0801774808271617,-0.10281679587917,-0.0884815270031,0.122364685780559,-0.11601683764707,0.160884648030713,-0.18171711648949,-0.15337489659289,0.193924641178765,0.178658481304282,-0.0424053832759,-0.10594869958857,0.11896814766916,0.0447559340247286,-0.11359563612717,-0.01541683847016,0.124666645052212,0.171828289825044,0.138198581208184,0.155904810385066,-0.02649796599482,-0.04607350679032,-0.12755968008392,-0.02777596626821,0.129591326029052,0.134145863195359,-0.11200243754638,-0.09975572859967,-0.00501347080788,-0.00299791664181,-0.12414969001755,-0.17613132633554,0.058232474334889,0.170495953118548,-0.03128899089853,0.0293792499226258,0.0571610487996727,-0.13962240856684,-0.05149838048976,-0.06178879287287,-0.1454248560423,-0.07609803663213,-0.0654883003274,0.162152003986694,0.173467645297689,0.16770441089473],[-0.06475685269508,0.113587502431081,0.149388295713886,0.0831537642091219,-0.07641354337379,0.0726636953168432,0.113870491724407,0.0851323533563043,0.00173771000185005,0.017601956452706,0.127206125060423,0.0239163207693846,-0.15754582313035,-0.02101241135042,-0.06315946835591,0.000124073107967138,0.112947388812185,0.0556901214306331,-0.09151555622705,-0.15068448608877,0.163839157236122,0.0911913416256494,0.00507486438324101,-0.20215030814628,0.0517831790100538,-0.13024102302358,0.20322422052494,-0.18931050651001,-0.10433624674074,-0.20103160496422,-0.01493578648291,-0.14434890549549,-0.19372851681147,0.122986901745846,0.0253217477518828,-0.0346465239799,0.146520661525738,-0.18077519446634,-0.15805163664483,-0.14011856276755,-0.04131402840351,-0.13051494458052,0.0712742191556077,0.0761208785836809,0.169237422055812,0.164866569003464,-0.11658279649384,-0.19002576959097,0.137267405781801,-0.19458112548231,-0.15631992830226,0.0252728876607191,0.00893966766826915,0.178556896628297,0.0832794859079204,0.0264427102977524,-0.0474927038657,-0.1160649582418,0.197555236332232,0.203776529473037,0.0379209309770227,-0.05120110749106,-0.09781656273042,0.190959585792442,-0.11126066051641,0.155061196926155,-0.14171843079125,-0.19425782639677,0.0135528612585739,0.203997889912341,-0.01642209502957,-0.06451502458413,0.173255344372884,0.186141937234804,-0.18085451458377,-0.15657465192767,-0.00255528022622,0.0705549051824838,0.124233424375804,0.0773122217246531,0.109480803032537,0.140966182720952,0.0968125422375717,-0.15912220367638,0.0197240385888464,-0.04347739021847,0.138653939086724,0.0299247264646355,0.164672262441661,0.163730470657983,0.111563557101034,-0.19187456216662,0.17044953559054,0.0423451250567621,0.121820984675358,-0.05353499150359,-0.01129536524844,-0.16536881597562,0.147159747393332,0.201122363053514,0.143794267539955,0.0313076116545822,0.0127174855177784,0.0416470447112715,0.170703557336418,0.189175809121234,0.129339441890336,0.0547664725321814,0.0535657296305099,-0.18774029824352,0.124340129840746,0.0136197410388527,-0.11829091303516,-0.19457377791026,0.125817347291834,0.150184358854345,-0.13169328960372,-0.13107567704881,-0.16626327250968,0.0602222245055731,0.15647549607151,0.051062236787423,0.168246614902462,0.0577158407633953,-0.01414524805511,0.083262083168812,-0.03215562411571,0.0792640310580069,-0.01665491318922,0.131765884495207,0.143774334870113,-0.10120130054519,-0.00598015716636,0.156425715516087,0.0272792156091077,0.198121151821821,0.0318115898079349,-0.11451428947087,-0.09680124326509,-0.09221690915948,0.0379960267680823,0.112419119600969,-0.19253957482288,0.154943411030646],[-0.15451598777112,-0.00918026462149,0.00999214367851611,-0.15721278755901,0.0263900247918691,-0.03593763892252,-0.09552426445281,-0.01969626606325,0.00691559127792463,-0.09042087218444,-0.15743968990991,0.11695943456725,-0.05330470461935,0.0472175891554932,0.149469479401319,-0.05030618911201,-0.162973058955,0.182195606801941,-0.04871467671379,-0.09796886965111,-0.10698425568548,-0.01542957512447,-0.17471888073389,-0.18509401416238,0.18233414888846,-0.0297439574314,0.198169516125641,-0.05442090241785,-0.05886265660885,-0.1659889918484,-0.11630147542833,-0.11547289547351,-0.1291516223486,0.00639324200230318,0.167700878787749,0.0977633921509137,0.0220895607008734,0.132689917573947,-0.14781096457906,-0.14538215164682,0.157258410658859,0.096207753274838,-0.17058210200586,-0.16536325169876,0.168705864104654,-0.02525521874009,0.0220147895881188,0.18772744839184,-0.06690835008214,-0.07624814499365,-0.14549039063489,-0.08177910291903,-0.15050315143486,0.162713418957728,-0.08824362801658,-0.14328330221714,-0.17982481344512,0.146382006677516,0.197010755415871,0.0925774888377613,0.0832570331355524,0.0410796516137951,0.0776651220966259,0.10105298194483,0.197718493210259,-0.10643759315738,-0.03829022141053,0.0117419910454576,-0.18947767817596,0.089888756219497,-0.13042283476347,0.07886024804033,0.0658662573141368,0.0547172294847291,0.178034025224558,0.0364281158704436,0.00434028461706062,0.127811239564808,0.00480112043106135,-0.19541113111295,0.13139351142556,-0.17956952354765,0.140735246660096,-0.11519666952678,0.134090797122335,-0.18149256336269,-0.19684918199258,0.134788515597247,-0.17404745531049,-0.16307361958806,-0.01232852203704,0.176001285265891,-0.10053593583177,-0.02605160976319,0.195958949929269,-0.02649417683342,0.182718149198976,-0.10298154892026,-0.11342369779292,0.172230413815363,0.130525161810945,-0.01627711460444,0.0233921092726003,0.130966183199766,0.0227498883193572,0.0609369486112232,-0.19820666045646,0.148408884055511,-0.04042378778595,0.0681648332927207,0.176607587090203,0.0576577082557432,0.0133967686383631,0.173131892101405,-0.19922283537611,-0.19113222927546,0.0910945496674004,-0.04031875682522,-0.08991051550795,-0.03980109329802,-0.1461310230179,0.0319109021773895,-0.19793706155895,0.124701316358656,0.118448603934334,0.0522243709463805,0.122809579893996,-0.11066918654187,-0.1507263001484,-0.19836442608896,-0.07265664392317,-0.0077343048271,-0.11564918244197,-0.08360000962579,-0.05126079459223,-0.2015101917186,-0.00083054782599,-0.19724141014023,0.144910650326372,-0.14562347326859,-0.03709203304464,0.045442628778703,-0.13136344119278,-0.20312149921162],[-0.00311568993605,-0.08280381767049,0.13368905913543,-0.05965753709258,-0.05390317256349,0.121401988476206,-0.08725834066871,-0.09949518419564,-0.06418648950615,-0.20214851814195,0.120578468472367,0.197649261488311,0.165226613542241,0.174271737453324,-0.18577784388931,0.0260188582936911,0.191108976625693,-0.07603530134879,-0.06314151800809,0.125767640618097,-0.06901208114626,-0.19814698645516,-0.09833036386183,-0.07831823866276,-0.05987549450338,-0.06910339988531,0.15554115168811,0.164883643403558,-0.06445588583325,-0.08170542111926,-0.01909050424421,0.00140584352686401,-0.1718126083485,-0.187804100091,-0.06344919502247,-0.02323839624878,-0.15055691602238,-0.01914515812164,-0.14918591628917,0.00493232472626767,-0.0404012831172,0.0161165725523312,0.00753524050323162,0.172381507380792,-0.10027975366253,-0.06274437762817,0.0043269773499707,0.0213239317567168,0.111503091174774,0.0454896876518763,0.119992508484832,0.139633457256719,-0.01079319949126,0.0526991250983955,-0.13595156831926,-0.15793512765714,0.17580448422342,-0.11770047633303,-0.20228070759895,0.0529592999183277,-0.14558588692317,0.106202154659429,-0.09910036723744,0.195967727749214,0.0185306925482052,-0.15869718538934,-0.17589033174165,-0.08476632944556,0.202290212898183,0.0199398127722163,0.0881441606191785,0.102471395000582,0.187432232664235,0.0963131991707746,-0.00259641126684,0.00953920474561887,-0.15899567507766,-0.15170200236036,-0.07569586635045,-0.07321941403051,0.057079571934133,0.0401731813804716,-0.06191757210543,0.00997243259421024,0.192592049324988,-0.03694320148495,-0.19205149521797,0.093557400916605,0.0432204452147561,0.076681306202308,0.18079067755398,-0.08042729502642,-0.11943365506395,0.119628428756423,-0.07269980662643,-0.01124577279085,-0.11309692266662,-0.02766296731741,0.103144323873564,-0.03602294167234,0.185217252127198,0.180950762808073,-0.06118028315324,-0.04433274991569,0.079860606275579,0.0135015429827601,-0.20303177604664,-0.20189928958237,-0.0961642278216,0.0782104208251519,0.101782957486958,-0.18594845960174,0.0147628497691449,-0.1198595086173,0.087764078211663,0.202070511249161,0.126680023530112,-0.12522950560285,0.143927785588674,-0.01128353123121,-0.14827330233008,0.0378041868698079,-0.0078723562258,-0.04440054021082,-0.156496204097,0.161602574308774,-0.02082978116868,0.0993130794911167,-0.1217052961737,0.131698904088985,-0.03446052867307,-0.1840440939124,0.00281427842484192,0.0516213833000473,-0.16939157248615,-0.07815645130672,0.0540143093509435,0.0540362443637049,-0.08454269611985,-0.05037115500896,0.0309419438761167,-0.08954997099088,0.189824922446218,-0.02284424724909],[0.0582570963684357,0.0705953987534756,-0.03174277365843,0.070013065096082,0.0147282686492268,0.0818363074514094,-0.02520542200228,-0.14519386631065,-0.18865542792069,-0.11132449188228,0.0897619325609815,0.16691538444348,-0.13851961071006,0.133200270637182,-0.02332625812604,-0.06831481286978,-0.02238231493494,-0.06228093336185,0.121883627426234,-0.10865837426691,-0.15870062433647,-0.00403654039123,-0.20007571831085,0.0971476151081314,0.0737695871022772,0.0958552571873972,-0.13829066612755,0.00228296233698463,-0.04949186603524,0.159895081237643,0.0840996101954114,-0.09883745142473,-0.18379916969109,0.0836697877676256,-0.14816900228164,0.0718752513412708,-0.16915491255691,-0.02696371380802,-0.01108464868971,0.0594406308401784,0.0130877936975373,-0.12943583475182,-0.07527901614182,-0.16920320185716,0.108178563710672,-0.19201528678539,-0.18835106841675,-0.01142190099062,0.170290765417218,-0.06783956721199,-0.11643820290333,-0.15565662143237,0.0414064527979384,0.0965601908072863,0.1384898456991,0.0772555138575667,0.119054023477764,-0.18661806722624,-0.06107105634022,0.0703258202796121,0.175712688939428,0.202627201292865,0.0208394117437999,0.131467717636634,-0.11862149099178,0.200665499772556,-0.03558462102587,0.0882396236214186,0.0296010210336499,0.199562568036702,0.202906249736669,-0.09696490476028,0.145035581189357,-0.02656902263599,0.116785474309615,-0.10338044107706,-0.19344578491841,-0.02426690256204,-0.06835827701658,0.00436064936668379,-0.13148706244812,0.121751114033454,0.0352196071292045,-0.16538281581083,0.0334622515183945,-0.00232994882183,0.124265301889861,-0.01468410524513,0.0932923364504341,-0.15921749665614,-0.13726185206713,-0.17197443356991,0.199607758929394,-0.10148224791297,0.172510977849378,0.0891695831727802,0.0291223273912528,-0.13976071774619,-0.13766981117251,-0.00678469220848,0.111616005210819,-0.02660922799116,0.194977434010616,0.0402599259512131,0.189454731324507,0.150297349897736,-0.13002844213885,0.178378102213899,0.0702379028298517,0.0677620302319314,-0.08427885035747,0.204070989707044,-0.11090275301778,-0.18556220239595,0.131402639700511,0.149791757950516,-0.13068352295769,0.113894280163545,0.195590335052525,0.0908250449413608,0.188747058207422,-0.05225106440981,-0.16227647125356,0.0930083868863023,0.00894177312707464,-0.06259801453216,0.0237786349119627,0.0755873065398633,0.154966053801724,-0.07792367131776,-0.10219627275536,0.18632950463068,-0.10319488976115,0.0408435298311535,-0.1316389412627,-0.12451808051643,-0.11953069545579,0.200598724432537,-0.10144151053901,-0.14002390566468,0.0674191834095518,0.146640645683625,0.0101977652147062,0.0663342533347395],[0.123737250605818,0.01898402775619,0.0702982304210328,0.183835082278712,0.0830582139424202,-0.12964292432289,0.0940112952348927,0.183329397499461,-0.02116879801443,0.128308783963396,-0.04403312981223,0.065591424024162,0.102070904374147,0.0388711530462708,-0.00329862335464,0.0294621180998405,-0.18216799219936,-0.02840941192699,0.0349286080362409,-0.04289483700139,0.151462533105047,0.142889029881375,-0.09142424808737,0.0141031572120122,-0.15806213472332,-0.17928750228699,0.181612913970519,0.19452527290742,-0.02145069693815,0.0648201840464115,-0.16394640974208,0.0538328349638911,0.199662484718681,0.185390830331503,0.133896975613968,-0.05235806589122,-0.16413630111089,0.152196968899604,0.0753575943881249,0.0434434480265841,0.0750731373426754,0.196386568166619,0.0319426845324655,-0.07809880119562,0.1528669286077,0.158865756902892,-0.18242540927984,0.153995576682596,-0.06673426479974,0.129799339412473,-0.19064996588778,0.191000270677919,-0.13767628400323,0.0450020721981035,-0.13030144712906,-0.09941613986916,0.143818584615006,0.156033191767587,-0.09038810041754,-0.07577253886642,0.173490156129262,-0.06083591341928,-0.04503940218185,-0.00564009100585,-0.13247770094165,-0.14563954540917,-0.0843480589479,-0.09928947387268,0.0911607134611357,0.203430970937161,-0.16679737225643,0.173983182188797,0.0637887739301866,0.161586270754359,0.0658813076782421,-0.01458674124072,0.0965263390555209,-0.08959661528575,0.0808211111923147,0.140712391738496,0.176117523988128,0.14683514770049,0.041170932853712,0.0200242590063359,-0.03950735291419,-0.10580317368967,0.0707703546711961,-0.03699994869154,0.0857054823291449,-0.02267424837807,0.0916689034403447,0.0313088690380433,-0.17849835540495,-0.16076281997655,0.0988833460793513,0.114672559098491,0.0196303309471819,0.177095793576132,-0.09820487664283,-0.12465089312789,-0.04887357512198,-0.04808602855086,0.00433774482485474,-0.09635773846038,-0.18835866889821,-0.18197840781208,-0.16549846590308,-0.05231450434273,0.0906763104016345,0.000193512914660826,-0.07592826046381,-0.15773757772868,-0.04236565657329,-0.06833716996768,-0.19114970921512,0.0859660552191635,0.00499760872273067,0.0941848181012073,-0.19475324403413,-0.20064631674899,-0.06728696825101,-0.16994558508692,0.00207945127990405,-0.01355989922087,0.116372642209034,0.110931419520079,0.0584970958473697,0.10455686796094,-0.07560143092865,0.139612676022864,0.121664207663765,0.110716594905143,0.00416323279939795,-0.02259833581778,0.118492124525412,-0.10926022918033,-0.04060957382918,0.186845601823293,-0.06722394463446,-0.0655550245268,0.00450798795964175,0.0501755663762954,-0.0609623321339,0.124267766624429],[0.0666690518571031,0.138360103147943,-0.00067125745187,0.135350428122791,0.0399297390581255,0.181693596804104,0.172597907254052,0.0308071432432331,0.176146859208044,-0.02579946227054,0.16390386266576,-0.08600051584589,0.192313456953443,-0.17573521545277,0.195352064625141,-0.1659239784116,0.01948103713038,-0.0283071122615,-0.14283205334876,0.123324205999024,-0.02098400328773,-0.11086965215281,-0.08435613669672,-0.01224000796222,-0.04071735841447,-0.05901086317812,0.121112584714285,0.14712864030151,-0.20167161901564,0.0597882974166475,0.0787071235519152,0.0752684221746627,0.00449035642085363,-0.08566205075049,0.122977872858287,0.133628229680668,-0.02828521171527,-0.19576374681611,-0.01406127467029,0.136099457885363,-0.01143797652704,0.150437491854159,0.173266156104337,0.18976609674708,-0.1439443293581,0.132199302045742,0.0145544502474638,0.0155847696790604,-0.16490586776502,-0.19026468335078,-0.06312348572679,0.0597457566813992,-0.16371855188534,0.111981835245807,-0.14971993254253,0.0003783749693064,0.187322989333748,-0.13002373341057,-0.15213914265455,-0.12432556839942,-0.05089052638749,-0.15487207273989,-0.04836831131148,0.154310375442634,-0.12374065879201,0.0152427915487297,0.146650144542014,0.118085501215138,0.126635122950825,0.185050657554167,0.203677379293607,0.0129367080809566,0.0870940944023447,0.0690545001978408,-0.01302285053003,0.10856256884378,0.0515037237247872,-0.07438496697561,0.140577106721533,-0.1624308204012,-0.04820768506464,0.0826957866622899,-0.16554069892526,0.192941034097897,0.0936876132319852,0.0930544798395486,0.0931549573832221,-0.03341260926153,-0.17227436082544,0.0455078391804306,0.128766529943696,-0.07885505041972,-0.11602706875659,0.17918215353386,0.109583717071051,0.11760393973751,-0.11985615182101,-0.09667291491596,0.134415632386543,-0.14605051779139,0.158382212360208,-0.17475817483311,-0.02247215357491,0.0726422166967703,-0.07219452297433,0.174583261157366,-0.06005156439027,0.19080178771443,0.123325026573733,-0.20146124957387,0.0637390492175194,0.116749221490832,0.0339518654938358,-0.02537613169902,0.0547891523391602,0.0165639901889447,0.183189859600585,0.125700541852406,0.0131801897734177,-0.1287519162266,-0.06277216008982,0.0829183224486021,0.0648552411349772,-0.04931108342496,-0.08035232536261,-0.05921695984228,-0.08334541394726,-0.16715367037384,-0.10156032409995,-0.04462248814769,0.127421865750807,-0.15608468877178,-0.1401547556535,0.158243061796366,-0.07426272449384,0.182462185190509,-0.07717047207254,0.0531944066870058,0.00174129019250541,0.0815689828319558,0.118438190995047,0.146617245536138,0.178687600876501,0.124642950883202],[-0.02186634768754,0.141340462306724,0.189251047182725,0.025592615188532,-0.05212413795256,0.0635854284866592,-0.03181790640021,0.000450347453656796,-0.07001310116454,-0.12602287826801,0.0510473742652237,-0.00184552565404,0.109825919045703,-0.0722050603545,-0.06238613862159,-0.07398894454546,-0.20181735472396,-0.00577322000577,-0.07741278487823,-0.16569091111536,-0.04025741225745,0.19109308968074,-0.08135399648554,0.163795576137754,-0.19777257977386,-0.03489237728443,0.0875151254578764,0.074936079902451,0.133671632547964,-0.06816755830974,-0.15132317832376,-0.14316851177864,0.170371766305291,0.198983445380463,-0.04590344422058,0.0707549374415898,-0.0952674387845,0.0666520718310439,-0.15141414602119,0.141724608521944,0.0216903582875746,-0.16014423455886,-0.04064976117105,0.00928915510112668,-0.00791751011878,0.0399336365820726,0.17442867466518,-0.07501754728389,0.0987327766775479,-0.17726073133841,0.0390814129187509,0.0849899484571029,0.0879897173741027,0.0375435716204391,0.0909615158632203,-0.19618384787226,-0.04740024345548,0.0998614148023448,-0.05455785163276,0.0929167526311787,-0.14079692614446,-0.12058786116431,-0.13276069256627,-0.11541094027649,-0.19040249813759,-0.00601555046834,-0.04572068686607,0.155822184490309,0.000742675727488068,0.00944177058845891,-0.0462181142736,-0.06125913965538,-0.16649346645101,-0.133196866577,0.0839267443477392,0.123873591256797,0.156042986577186,-0.023693350251,0.0329638761256866,-0.026243307028,-0.01148170861447,-0.18375971188552,-0.01146487417899,0.0805153881020423,-0.13266863028946,-0.14559164596914,0.18499291785235,-0.01934338909934,0.0775363206979924,0.149307387126979,-0.02686217670987,-0.05992166501313,0.188603469101318,-0.06329255717745,-0.17256573353474,-0.01582549243973,-0.01243173245292,-0.10890143285118,-0.15919481155972,-0.02108318886868,-0.11646149206251,0.0938263790358472,0.12089251417584,0.115086625229229,-0.00219563769978,-0.08512237414962,0.188342076517216,0.0216134672882435,0.157729771180998,-0.03388348529191,0.121314760095376,0.12186162353872,-0.00470360366555,0.0571503322180876,0.191745380131918,-0.20049678651617,0.0838492051933633,-0.04385627421557,-0.16244920084452,0.0876090299641185,-0.1671312936173,-0.06499635816562,-0.02304690114289,0.178973107249358,-0.15098037278233,-0.1497221648899,0.170603946796138,0.010869400199033,0.00327673014303478,-0.0928285610666,0.0977114297753048,0.128632714275181,-0.07599070839502,-0.08117660404153,-0.12788048982794,0.191182838541071,0.0195122775256823,0.0829304179885535,-0.04605937715198,0.053016311435075,-0.07314150070563,0.191146416507079,0.101956417882685,0.116629667397617]]},{"activation":"LEAKYRELU","bias":[[0],[0],[0],[0],[0],[0],[0],[0],[0],[0],[0],[0],[0],[0],[0],[0],[0],[0],[0],[0],[0],[0],[0],[0],[0],[0],[0],[0],[0],[0]],"weights":[[-0.28802768848348,0.120960935386487,0.316511358530764,0.277880908325651,0.0508974037872071,-0.2096995367385,-0.17786590627395,0.371763758621504,-0.16867203659196,0.132990570529914,-0.13182693581047,0.275867760472787,0.429961062658633,0.262308747343591,-0.34541804797231,-0.11283152434702,0.441275847116049,0.280862959603386,0.147296641688969,0.244438834881077,-0.03281227967391,0.395301359491728,0.3481878189235,-0.07794861640643,0.278471652625603,-0.4316060361609,-0.42571755071738,0.422535871577663,0.00361402456036997,0.240546117425776],[-0.36576581414679,0.330436918336117,-0.12372756406548,-0.3514136516422,-0.14526792854943,0.340112733520266,-0.20058752648294,-0.31087364959645,0.16041200903319,-0.28797585537352,0.346560806069522,0.27533613224742,-0.42945201898321,0.066522450775319,-0.26018803430194,0.131506726684481,0.00803964883218067,0.00123438293760741,0.067553296545306,-0.41027190847967,-0.09871418425586,-0.24391109805933,0.232170536212925,-0.41731596644141,0.304694030471132,-0.02665195488657,0.293130243783213,0.180168726070344,-0.1583183463787,-0.06280144902613],[0.17617603021711,0.16539273676535,-0.30493276465166,-0.00507159523281,-0.04363721894948,-0.1224298664588,-0.39599304436911,-0.10368538449012,-0.19824666582234,0.352689749668752,0.249980911036501,0.365875862454037,-0.37685990823472,-0.08873105926768,0.366333733040029,0.166716151312041,-0.3385416056212,0.215790802159745,0.17799716270511,-0.40373309359982,-0.39909705520646,-0.4066049922412,0.344678636527953,0.253525718600719,-0.41296513335905,-0.2311170107911,-0.23063786701078,-0.39952705849398,0.0854169415729469,0.404898624121328],[-0.26823143913542,-0.40569472722958,0.427095501483867,0.204619380521014,-0.18827615570834,-0.07658822796322,0.323613374951408,-0.37903220107493,-0.42943306355307,0.0701513189624502,-0.39594660262079,-0.14162575213458,-0.05654042655174,0.33534138680379,0.0239050794263694,-0.16644194371882,0.0228023433131253,0.427671607462672,0.136725217829325,0.282351190376174,0.190423573965118,-0.35062801810424,0.184290464410376,-0.16579776099955,0.423791584154486,0.100190421931531,-0.36774654840125,0.285853477864103,0.0296805081742469,0.105862826603653],[0.10770292214454,-0.28250202752485,-0.41389331089006,-0.31966550698637,-0.28404949758065,-0.23464191372351,0.376225118943702,0.305574508443163,0.314457527207824,0.00236481667212052,-0.18876112471867,-0.32982573790405,-0.3477031591883,-0.36656305741951,-0.31308674278227,0.260883263583357,-0.41138770441386,-0.06183873032295,0.170059034896822,0.0501937990074813,-0.07479274999234,0.158270901252742,0.127412743691865,-0.31121944487672,-0.41733075276869,0.276702796763295,-0.29676380349489,0.315031455703582,0.0328630965793435,-0.17117212706385],[-0.23703857695114,-0.37098055825714,0.181944756753308,0.299208447552713,0.284882845291586,0.186793030283525,-0.1312935218231,0.174663880037611,0.225489476680922,0.116378894132652,0.418809719326843,0.171879179063264,0.339119430393356,-0.38390170459139,-0.29832642547224,-0.43936003232105,0.406168495585581,-0.12013684405554,0.269510286390022,0.376581442161814,-0.0370309037831,0.289701074164266,0.165917832262221,0.331299563186791,0.142374549565725,0.0617522113911649,-0.41527786541841,0.192574549289458,0.173064524719577,-0.2419951748658],[0.221809875725744,-0.3708052246854,-0.32417729792683,0.30509650837387,-0.14152581396895,-0.41564185470187,0.143248333683101,-0.01889394788787,-0.19296160495134,-0.27818542803255,-0.03900794869105,0.190858795590759,0.296466764309653,0.223609153490002,0.231446954138453,0.0515948911553618,0.142486170116551,0.270007444550577,-0.32111789235298,-0.28675186549015,0.240821371775262,-0.34911978728475,-0.32787446388902,-0.03984001797221,0.0936116584276086,0.307269856613497,0.437250133070229,-0.18628147902061,-0.22521126790321,-0.03472769994294],[0.352416678436679,-0.14237228645183,-0.42133060363381,-0.37372139303685,-0.39542037908531,0.0478399728544724,0.427794789824948,0.13847619509352,-0.3904973661902,-0.11780084925229,-0.33563354070948,-0.37891284653978,0.293371497720011,-0.39276572718022,0.0320668727028966,0.387334651109463,-0.20808521157505,0.210425299647922,0.176956229817686,-0.32961126789133,-0.39600442207096,0.404810670887662,-0.38961711087741,-0.37733338372287,0.0127653697392481,0.16466503073463,0.147018386733036,-0.03174741189873,0.388762869255777,0.34906355669942],[0.0124495927707332,-0.39395916657084,0.139738776435053,0.0697488261325788,0.233490383092764,-0.13596056822925,0.407416220397945,-0.19177408280647,-0.23881098985286,-0.39303474447143,-0.22919661836789,-0.44472672712904,0.110007467329028,-0.23481615407691,0.30665872405939,-0.27780847406456,-0.01432193020778,-0.07905681950873,-0.01207629947266,-0.16521055597158,-0.13087175314099,0.317783910515093,-0.05619426104374,0.00858064169108741,-0.06072768575479,0.431190319535646,0.374970640538718,-0.14216191884298,-0.30342663292624,-0.17458259447857],[0.175222708431024,-0.07963912223037,-0.33668799123017,0.240176823850117,-0.35670675563085,-0.10169486854071,-0.20256196495765,-0.11249773488713,0.367755250486269,0.0699274665573305,0.0927680956084723,-0.00205083499473,-0.40724738096729,0.262190017938965,-0.41042919863002,-0.03399741372118,-0.13481158755395,0.111207750325079,-0.3380349689777,-0.03474466243369,0.0629585640056469,0.401451965677171,0.394599459179132,-0.10025927422923,0.0478071788098489,-0.32987572189777,-0.01800114417653,-0.38008377076719,-0.09110362239346,-0.42453534517428],[-0.30793078642076,0.0177194810272052,0.269739233139964,0.118637753101749,-0.35912553231419,-0.05973922301263,-0.07709882828904,0.0144379211082933,-0.24995383275638,-0.10984583451792,-0.1912960490323,-0.26636245733519,-0.39971332159796,0.27737886633304,0.415449381855422,-0.42853235280101,0.144396094143685,-0.17808230564776,0.140770365288223,-0.11580699499691,-0.33732225569521,0.0566767588096398,0.388139077180694,0.0358886316893752,-0.00239159215836,0.220741320755361,-0.17739789886896,0.150572137267215,0.201675314743148,-0.07951850470944],[-0.38281846751366,-0.08532491703733,-0.08261354079836,0.00482944645900685,-0.02439567834738,-0.44502057646637,-0.07059703769679,0.198431750085706,0.398400464132354,-0.2242296982662,0.414698746392587,0.154945411610241,-0.05647482230441,0.371192362638001,0.0961305672837793,-0.19261354287288,-0.21217021060975,0.419903578213857,0.360256336741093,0.362279383236746,-0.33792849110815,-0.37566821280792,-0.08809005212399,-0.43312066514548,0.205859585639423,0.223272394488664,0.236533908614138,0.111058312084307,0.0967440705900982,0.248602377827785],[0.285495548015039,-0.41696065697887,0.0964933698434571,-0.43567969610535,0.355728132569572,0.348051842303824,-0.32189936835941,-0.24073347721384,0.110075908530904,0.196044488567651,0.281165608516046,0.275349787858431,-0.23774103536966,-0.1071366809668,0.134823937308244,0.202556444343983,-0.16578959739973,0.301463889734978,-0.11952723624461,-0.29169648028243,-0.28130517285589,-0.36593369698135,0.195266509536133,-0.26344666979934,-0.32413954408584,0.409760852031475,0.248781272006352,0.200702969870676,-0.42164921899486,0.341837139682924],[-0.43479716201088,0.133495348769263,-0.02799452977948,-0.01551124430573,0.0574823881988074,-0.19208904203227,-0.00667779242353,-0.32890942412975,-0.39955202049095,-0.38146856031795,0.060535880661454,0.339272006042087,0.0880020861127437,-0.14666085081675,0.357043362498676,0.0495286405174757,-0.23908411987608,-0.10975313785829,0.428973382176687,0.43688100495273,0.264462102439192,0.0213463135742625,-0.08417501740845,0.182743725677016,0.236022849444243,0.102049242863014,-0.14311574332358,-0.13377940854077,-0.19134617075291,-0.2459835077181],[-0.43120755568177,-0.21797460978833,-0.37683343589467,0.14857102943826,0.377203031848396,0.00948878011127047,0.161787068908454,0.354078141029516,0.315530842143198,0.433596200438411,-0.40154676926255,-0.21026672075711,-0.07407392239458,-0.02824130327354,-0.15733462480897,-0.01671997300907,0.143601820608002,-0.19707563928172,-0.08595342873675,-0.24023773403614,-0.22761334799724,0.330895451723883,0.313069613030651,0.172319991781795,0.173281439580446,0.218651604519371,-0.04821706758939,-0.19707652321166,0.0982789162437012,-0.38635357797739],[-0.41452419664199,0.311931348613194,-0.36399539753671,-0.11964320474898,0.372533173760812,0.231351687399363,0.377451318248185,-0.17103122887863,0.381065465554464,-0.05288992594977,-0.09532875278939,0.00416526661473188,0.329817264880571,0.124287635830575,-0.21420519671428,0.16343488957448,0.125701238379927,0.0157764056281425,-0.40959004348059,0.209948461192895,0.344939909651344,-0.2469434182601,-0.40215074976007,-0.02595997854787,0.305060721907756,-0.43694365062703,0.143885959418178,0.402647589313291,0.226464505959737,0.184229218007758],[-0.16165780376128,0.344274074761551,-0.09496271227966,-0.42871484945637,0.0203955267155256,-0.09395971466413,-0.01947102792587,-0.20282265038059,-0.05044017026871,0.229762369342556,0.125862982021922,0.364802767608732,0.0445123834363594,0.0136259497097246,-0.12844786067258,0.0319213366716671,-0.1078437275721,0.0118355647108045,0.0786866120681489,0.423333788020645,0.0962666013018519,-0.43107790342094,0.0704862207884995,-0.21257234640942,-0.13974533372179,-0.01185917706115,-0.40473854267299,0.244752574828969,0.0209805541676373,0.417082202538216],[-0.16406207726583,0.110054800967444,-0.17144206977024,-0.33219607302342,-0.04079493253144,-0.06431627263745,0.191296331321831,-0.01874314386526,0.171680896039189,-0.34927462397546,-0.26046362543481,-0.14591493648414,0.0844672434641365,0.424775299895627,-0.26034530241886,0.0593407461802001,-0.30359354124243,-0.42647437714364,-0.29224588135264,-0.22255556899174,0.105805886665292,0.284920700385572,0.312147273105891,0.00668661615669236,-0.33458952006648,0.284390757155042,0.0839008231449696,0.307271609831711,0.0830856914349423,0.0733434228636911],[0.0469300698974163,0.0329641563594185,-0.19886777727784,-0.40238246476719,-0.01634649251951,-0.10574995925245,0.00554549384024605,0.403237360787839,0.0572553646553207,0.0990582646348461,0.0498251997143051,-0.06928098842856,0.182336977117415,-0.23184609919754,-0.36715318129201,0.301205092219025,0.399297620039428,-0.01717316971873,0.173842347553295,0.0148794012179116,-0.22275605417122,-0.16052427656251,0.295993404362865,-0.195816535749,-0.1144242734107,0.274151801474808,0.0307607722632253,-0.36225973368893,-0.17745555348357,-0.04037916985744],[-0.29855179265629,-0.33223543954622,0.144182613937551,0.137745093949423,0.173833544275831,-0.20282560678591,0.439978959470057,0.213544527718507,-0.43102897317546,-0.20179437014374,0.380115287677605,-0.07331672878642,-0.15763594862007,0.162152763991993,-0.14524581214372,0.213544901034135,-0.16017625405803,-0.43913199350758,0.298875899019451,-0.37995945757657,0.39695557598576,-0.11134369617635,-0.23728378797182,-0.23185003801878,0.366396076117901,0.429968245511382,0.39772425958532,0.42549587164145,-0.32556594805984,0.0183285983139435],[-0.26115324021176,-0.28646485949815,0.024474896584797,-0.43543767702604,-0.1537517198436,0.327122620956316,0.156871701198928,0.384662303671351,0.0975121174928875,-0.26510572935717,-0.43580714389587,-0.13451943438783,0.402322690397558,0.0310895409689717,0.0734069350157443,0.277988175751257,-0.33754801637563,-0.16552150176793,0.409443306322486,-0.12130976193104,0.239346468211084,-0.1252732698351,0.398121908827005,-0.17645163688243,-0.00293195754713,-0.1188608249101,-0.31304178801619,0.281637452313273,0.184285270674568,0.130964618125513],[-0.01514935480584,0.100871417929188,0.0447802075807066,-0.03700231754809,-0.43013315134783,0.338215302620956,0.31050596888618,0.440381378924404,-0.16320394524061,-0.13039285428404,0.353742189860461,-0.43577213125084,0.39182265502923,-0.15373615816715,-0.10616545561781,-0.18998357429893,0.123765325009724,-0.02039678483963,-0.11146087269084,-0.28019467738871,0.352767542205882,-0.22250238623075,0.0200310196751082,0.209915792403648,-0.06507598856633,-0.02431130799316,0.358630887429454,-0.01516083156964,0.377931021445046,-0.4124432913095],[0.0253905972527937,0.332294101796613,0.444697882220577,0.189624044269319,-0.08136949568218,-0.25736442895771,-0.07770751379145,-0.24312317776893,-0.33184465392797,-0.07412576758011,-0.03721953194568,-0.32732389943726,-0.25605750514378,0.349279694562163,0.18229060563477,-0.34889533313577,-0.39256203702316,-0.41291848004982,-0.39050629674464,0.21603834628779,0.362073616122787,-0.42967791869292,-0.2836219794733,0.0313294604757676,0.172447684939272,-0.41243507722109,0.377793746314099,0.0823353560175354,-0.13183545581133,0.429285229849672],[-0.08792944817706,-0.1468389828639,-0.07693443129916,-0.16681985216416,0.337108580915929,0.0661295466998647,0.240430358657519,-0.28486816219654,0.157035961656747,0.443927512751026,0.227065125680736,-0.309153013215,0.0727157639170596,-0.12748777518049,0.146966001257261,0.25117370195692,0.0336186730778992,0.218455655953078,0.0469485512269187,-0.37819477263768,-0.14764357200008,-0.38371840987384,0.309866994042244,-0.16218145995949,0.11964066189618,-0.09635887842762,0.321825325827447,0.327273713850752,-0.21100179835869,0.0970910259659541],[0.159724256417892,-0.4383188724591,-0.03753953609635,0.251097548688155,0.214451197092338,0.21919435210392,-0.41493787493331,0.434350747400131,0.10303916884872,-0.04396359629961,-0.1422873779344,0.228177417761776,0.0681327383244661,-0.21728738182938,0.204734569347836,-0.37953485632265,-0.35410841963712,0.173536709677991,-0.19462598868346,-0.04413814783311,-0.42776730289315,-0.18150434040537,0.210780625896267,0.053147852719293,0.0955436141162199,-0.23355729090437,-0.13095427472042,0.249040550683159,0.128945926870386,-0.19920591436361],[-0.42617492511264,0.284922156825007,0.153136686216335,0.389135567232417,-0.35515120556573,0.212655185370861,0.256348252547181,-0.05353596215695,-0.00959549004489,0.0312969601965799,0.386814777801916,0.401540908845868,0.331228368048484,-0.02125729392781,-0.00812277675557,0.370334000016265,0.259339205386498,-0.33863710794062,-0.36069264113661,-0.16122234097455,-0.06376491348513,0.0323329802991421,0.0480313223409634,0.226681989824862,0.2704459529641,0.293245863212964,-0.37571705208208,-0.11039099049586,-0.02302124121228,-0.02837157258554],[0.205160845840116,0.436979376790206,0.388745249305093,-0.22501099628347,-0.19558264144164,-0.33500381979728,-0.34008229032311,0.25530376662561,0.42075880124366,-0.39838850477904,-0.19512438855202,0.089678683274912,0.0940863668621248,0.0443808124749248,0.275277267888687,-0.4068179274418,0.249912782967215,-0.44562686001137,0.307560968556441,0.183486212690666,-0.10533528470111,-0.06961965513665,0.157823721108008,0.0679353704204719,-0.22047389131214,-0.04121124340078,0.302486142214606,0.39992987576239,-0.16202042638914,0.242598564480958],[0.0852675810520678,0.419280733663743,-0.02443111911852,0.347653638118378,0.134087265239508,0.0390967643442605,-0.15989938434611,0.2492895651399,0.420950537173487,-0.23871178338415,0.29602883809398,0.382864705890587,-0.40490421151999,-0.34929594877789,-0.19251063469817,0.363399833996896,-0.27399524695395,0.281969028026734,-0.32784130948863,-0.30702406105088,-0.18683828697949,-0.08700689087952,-0.15255354897539,-0.16434823436464,-0.3029311814902,0.304946085050932,-0.10407325173575,-0.40820929891861,-0.02535990028199,0.0186402197613279],[0.0476014096982544,-0.06575638841954,-0.23093803197822,-0.13461206696125,0.259270920579858,-0.41307373866338,0.204280683921384,-0.26664543921436,-0.27766892515416,0.345078729125739,0.341753551121182,-0.10033519510882,0.256825955313573,-0.32936869285351,-0.19389433861246,-0.26855318326734,-0.06759769610907,-0.40258619638162,0.339858436400393,-0.2022963596995,0.0742937562171795,0.321073778048098,0.183350284862252,0.011778373722605,0.376162034198895,0.444172610447216,-0.01324633274437,0.329708046431066,0.193006380230179,0.196709555859711],[0.319716569738208,-0.23021285285209,0.104457560723407,-0.22575254969543,-0.36816066542677,-0.3457064054453,-0.20481324904922,-0.02550815481001,-0.34882397610346,-0.12057946473904,0.317946079703349,-0.05108087077698,0.114752335614373,-0.07068313775892,0.0402363772155463,0.386462669070803,-0.11148717911763,0.175308633432695,-0.33769525026969,-0.42509792478833,-0.23463558099345,-0.37780227227622,0.416708746416927,0.244508942861079,0.170130521135938,-0.05985978814809,0.338111092226677,-0.17636158811351,-0.16265204845846,-0.14429480791935]]},{"activation":"LINEAR","bias":[[0]],"weights":[[0.166196048540946,0.390666308809951,-0.02887180854877,0.321920714680221,0.322955368816209,-0.26759918880749,0.361117079705273,-0.05166947722056,0.211516025202,-0.37650398451235,-0.14261433070365,-0.18816096107619,0.391681046807273,-0.15461442304656,0.16060906252073,0.227243002379368,0.19161884067497,0.381741564216232,0.317128946713339,0.445009569587951,-0.36873537814626,-0.22584511312975,-0.12940117557744,0.14846012792662,0.275024477292751,0.0870259732657723,-0.17276287557969,0.00268326035428551,-0.22547839453978,-0.21296478494096]]}],"t":0,"training_gradient_threshold":0.000001,"use_amsgrad":false,"v_biases":[],"v_weights":[]}
