{"beta1":0.9,"beta2":0.999,"bp_method":0,"clip_value":10,"epsilon":0.00000001,"layer_structure":[144,30,30,1],"learning_rate":0.001,"m_biases":[],"m_weights":[],"network":[{"activation":"LEAKYRELU","bias":[[-0.00695509280666],[0.00244141474980385],[-0.00117919971822],[-0.00038782269899],[0.00443875829207872],[-0.00018418722131],[0.00304823898954837],[-0.00705166640847],[-0.00871802644691],[0.0123038048725869],[0.00375170059902656],[0.000214908097553796],[0.00628952962572183],[0.00113393932610105],[0.00321538326469572],[0.00708028334049974],[-0.00337748241201],[0.0130611406542671],[0.00475698602655814],[-0.00294509260976],[-0.01889423666798],[-0.0173093294797],[0.00176412124588331],[-0.00597490041508],[0.0068153023854579],[0.00524012702172763],[0.010155980083615],[-0.00253825968492],[-0.01384852871792],[0.00139438930106513],[-0.00081091230314],[-0.00649628516852],[0.0021580045374385],[0.00284074993663226],[-0.01197034646367],[0.000635584387914449],[-0.00566443974801],[-0.00267204687493],[-0.00075115022876],[0.0115730280658406],[0.000548528585456294],[-0.02097942851651],[0.0107536330122891],[-0.00250981205212],[0.0010320430735744],[0.00284890701493948],[0.00755775046014393],[0.00284963143280007],[-0.00736095661094],[-0.02381786994572],[0.00143619691625172],[0.00830641104960053],[-0.00893056938309],[0.00373896245087441],[-0.00988993928488],[-0.00210205816003],[-0.00301948698812],[0.0072401205900185],[0.00512917167112775],[-0.01759767490848]],"weights":[[0.0188275029869816,-0.00879362173892,-0.12572726678004,-0.16034122257972,-0.00462274379079,0.157331181296532,-0.02009392412451,-0.04674455733094,0.147083818932272,-0.07744233479281,-0.12346319862858,0.110003888458247,0.194499347853448,0.0530637731855557,-0.14239347216587,-0.02944567445462,-0.17412443019841,0.129225762410438,-0.0165000805874,0.0388038227303975,-0.10346157740439,-0.15508015435624,0.0960391371818565,-0.01708367198922,0.0713059758444123,-0.16039366518107,-0.20069282631533,-0.06506648787333,-0.02989852216037,0.193690356427215,-0.19423464953905,-0.0505395754455,-0.06368231732797,0.19078466230815,0.161078987773515,-0.05197338969244,0.186704438534885,-0.12192613637638,-0.01857776151949,-0.18860869377328,0.00720684147998534,0.0986599801789386,0.0222697903397686,0.0743893388293108,0.0479593403680804,0.0432042681774715,0.0135596035414001,0.0953075375777279,0.197502362565488,-0.14749427521979,0.11162847017981,0.0988616146002088,0.116677065129971,0.176940133087819,0.0982786942735542,-0.1026965570797,-0.11814780258324,0.120519564724219,-0.04187079925394,-0.11609213264066,0.0740419755417797,-0.0314584459341,0.00839178206869838,-0.1508122467098,0.0113223656610453,-0.12961180815277,-0.0666195924772,-0.12009807582837,0.0108058136585222,-0.09720966923764,-0.07866269630508,0.190352413555994,-0.13770051490927,-0.10717406121684,0.145827969729083,-0.06161542405916,0.0386210477582611,0.00821058923731608,-0.09801821725504,0.0749727942852436,-0.17528988222815,0.108752424947271,0.0801376678089774,-0.02201267049659,-0.15037309485518,0.157734465138711,-0.10663770980421,0.0780759971405898,0.123774989771045,0.103970377137866,-0.19702061080483,-0.09630028004215,-0.15766123078558,0.0138958746154391,-0.13662160339637,-0.18528798339632,0.0731740087013984,0.0967406735417068,-0.13788221565987,-0.04709940479742,0.135344187769848,-0.15898620034975,0.109491876342881,-0.01140046909897,0.100021105286551,0.00175987356491383,0.158169646520957,0.101603195578456,0.0883197439859798,-0.07360338958146,-0.17321148724843,-0.05071514368563,-0.17521671734922,-0.02030069325956,0.134455308234869,-0.06916097819473,0.0746220653007959,0.110398952323666,-0.17998753956177,0.169447902874906,0.062961749623982,0.0178074868109452,-0.09490552805051,-0.05177947137752,0.159517000095217,-0.04794366635925,0.0312001359553443,0.201063657566904,-0.04263702553329,0.0200590897803932,-0.15506355001864,-0.09086964569824,0.118045256970034,0.184046010402821,0.0620149964940054,0.175307259131731,-0.11284608149399,0.0371170201354108,-0.16634885941243,-0.03311587787663,0.17950310368407,0.171889547307066,-0.18023266855462,0.101139052772548],[-0.0717380442707,0.0714337037675293,0.161161806745783,0.152030838865088,0.101880901911953,-0.06276713484584,-0.18960570357437,0.022391789515893,0.0186037807704022,0.141652243977487,0.154604781144749,-0.05928217777517,0.0971462918325985,-0.06262944787329,0.172068799325743,-0.19534874975231,-0.07458037967105,0.106784272398043,-0.19499122560208,0.0741032806571494,0.180478373841529,-0.1469145405171,-0.12579950452226,0.0693306169234393,0.121960734081523,0.0283621795642409,0.195924568663198,0.0380083528473771,-0.15033821029897,0.1912391465988,0.0504112881458408,0.190602099456763,-0.13954888270514,-0.05404453906414,-0.08233335580615,-0.04085146740033,-0.10587685238331,-0.00436528177961,0.0711483797251564,0.124115181082341,0.103078880003744,0.0784053610691531,-0.19269639907634,0.109531425098117,0.0423238706886113,-0.02583843897153,-0.1459956372735,-0.1600601632407,0.138947449508874,-0.1247302628317,0.108277215510384,-0.12908989014543,-0.09799347421978,-0.05402472432841,-0.00975111722605,0.0182409531160798,0.0470961809472254,0.0461826337485162,-0.13454368199354,0.105452851873304,0.144248132578744,-0.13012332667119,0.107226462234547,0.0446413389787976,0.0810397918159683,-0.05423611042796,-0.10019431777095,0.194421067883293,-0.08462972795473,-0.1668631893763,-0.1944141153193,0.122246154147395,-0.06793253515103,0.0430438393126642,-0.06260654542385,-0.16801406104154,0.186310196357953,0.0537758971156143,-0.11718670864605,0.0364831137953456,-0.03457731066416,0.159280882546347,-0.1719370711045,-0.11756414329693,0.0188032849524727,0.0137534570034879,-0.00534936847799,0.201250535176812,-0.16905578213466,-0.02070857430425,-0.06433394962259,-0.19997368606644,-0.15885726544831,0.143816032086929,0.167428370545072,-0.11193624748541,-0.06174148651302,0.0122853430114222,-0.14141810947342,0.181396612129487,-0.0709393544554,-0.14834002259741,0.196050693256625,0.20123707738902,-0.19803952301079,0.0891311863342198,-0.04516982418593,-0.01580334367333,0.0402700794501053,-0.07381044212584,0.0169475216639327,-0.02465327969363,0.0858939056922926,0.0865242247616858,0.182921981268014,-0.1956284999878,0.0606902010663381,0.165117347950924,-0.01173781007909,0.0781886896336539,-0.19792496881112,0.112943588577534,0.186187342398424,-0.18846952661866,0.149934795685795,0.142185747826769,-0.03803051699361,-0.10514076965714,-0.14668049631037,0.16340906078457,-0.12000492188468,0.177046447341431,-0.12631056062588,0.191787115424845,-0.15596525101319,-0.158490071766,0.174090712059062,0.10739527289731,-0.0137577186571,-0.00196753560771,-0.05915539177757,-0.13980659160299,0.162685328082998,0.0624608798598947],[0.184909881034575,0.186712187683304,0.0343710131232857,-0.07229152353894,0.0851555046381515,0.203387915899198,-0.10816963406361,-0.17517194580378,0.202355769092817,0.0701342886961853,0.156722949393337,0.0194388496111088,-0.01472357371008,-0.1944525916812,-0.15124619289415,-0.20139023716377,0.201842130857927,0.108076799010468,-0.12533396072068,-0.02201215434967,-0.08453501731124,-0.15447383952535,0.0482714174721771,-0.07256871549909,0.06368442888542,-0.15278785483777,-0.02449693494063,0.186423696317344,0.0756540746937972,-0.04066396517712,-0.15038744151984,0.0150256365444312,0.0680884005689189,0.0962228157116295,0.142087458054972,-0.06493606181111,-0.11212499260072,0.1515273034089,0.108374794858539,-0.11488117819455,-0.05176594992043,0.0297486367418704,0.201938260977375,0.107870101787757,-0.05808271554986,-0.15303347115017,-0.1769676559074,-0.15804726170517,-0.10746141155371,0.18460272786163,-0.04837527463328,-0.03048598562397,-0.02726221691731,0.192858144969031,-0.15443759969656,0.203494883592026,0.149429713769027,0.139489573041349,-0.00925640162701,0.0130569652768766,-0.14004948960752,0.115070341147341,-0.06356159246345,-0.07986141696487,0.17983271257033,0.0458938541365664,-0.1359715981114,-0.11513440393612,0.0806397605819275,-0.14289500835715,-0.09530298533913,-0.08837447514985,-0.09027300938995,-0.10995836072495,-0.05372359988936,0.042972032286141,-0.19615737735152,0.163450232110984,0.156830563311264,0.11281475044501,-0.00150659486331,-0.01321993457471,-0.08624879009357,-0.04506345505145,0.134428247752521,0.0312784322047229,0.0921057461375526,-0.0034413983131,0.14782930068913,-0.18044078501807,0.138993913342152,0.0256094349917397,-0.1387562912271,0.177792050759339,-0.1897670029501,0.14778119266309,0.139184678929851,-0.04838966987132,0.16407605588473,-0.04208890699372,-0.1847352167768,0.167986189792976,-0.16297838608063,0.1497840114798,0.0322203416908491,-0.06226098583478,-0.1376498765097,-0.172648835648,0.0124687562490097,0.0620437727152949,0.17967124395818,-0.09544387043966,0.11564430059423,0.00558822562012148,0.0669159441360372,-0.04354615176619,-0.20266884897211,0.160946537242485,0.0167404431575724,-0.08453432498599,0.085525329129902,0.0639075260230304,-0.0484911686796,-0.10901050014784,-0.00688792608651,-0.17004530230078,-0.10947889379772,0.155415872877002,0.124284516856538,-0.03374170782579,0.0847011262826695,0.133580995414156,0.0131287118586198,0.0779927942010542,0.157071408894296,0.07947649607626,0.104266675790314,0.187377293964367,0.0856651049913187,-0.11286223896391,0.0320994721625823,-0.11213553754851,0.0403637864010264,0.0194475312394756],[0.0152714956163915,-0.1889623253901,0.00200094466289904,0.200932192211447,0.0620055962277926,-0.14243839865988,0.0325007013299095,0.174234781200534,-0.12945618599355,0.0897473784389678,0.200842322044431,0.0577550442850196,-0.02191379524568,-0.16197996038415,-0.11011749749572,0.117332336288867,-0.2012289299283,-0.07493122141794,-0.0282940446478,-0.18547125627535,-0.00187761167064,0.023342296190138,-0.07935488721091,0.0408371477097114,-0.18478075983256,0.202176432274995,0.183177899926132,0.0928898321773881,-0.04335258009446,0.00357546775419032,0.19926090406556,-0.03739026870988,0.0538406926106919,-0.19599618576209,-0.00289659781166,-0.06384083685903,0.0895030491252079,-0.14888531889465,-0.04932079303117,-0.09858826477652,-0.05823910841416,0.118548514477154,0.181501538871087,-0.06361214506739,-0.02221950699797,0.0584123948658021,-0.00066468922624,-0.08638071616618,-0.01111621214819,0.0357207694912182,0.0932708415188777,0.193852293545584,-0.16996421686413,-0.16979113762186,0.172315883341297,-0.06785690561382,-0.09120105127571,0.0273200194739208,-0.1951110499181,0.171406042644816,0.121041690116803,-0.11186183731724,0.18068785883406,0.168101851662035,0.0277490294372888,0.190367384171023,0.000888134979799162,-0.11633662495704,0.0386274297606746,0.199878377314625,-0.14450654376733,0.0514901099780151,-0.14848156885994,-0.04548292502171,0.148124796958903,-0.00438778159326,0.147834907982967,0.0892988821478704,-0.13351280153108,-0.02567248474133,-0.00801475794416,-0.05247204936432,-0.19303866431425,0.124794118778088,0.176784590100553,-0.13536354262642,0.0344904280857314,0.183055368738141,-0.00984505023892,-0.147240248586,0.0499524788134848,-0.04122439919156,-0.20190707080918,0.0493138251528903,0.0394164233815552,-0.14033478134123,0.169212005081269,0.11442162144269,-0.04657572707032,0.064296131336733,-0.06638683190887,-0.14581339091565,0.202396684034498,-0.02447884133439,-0.14362272955829,0.143449002728655,-0.00599408849527,-0.20040817740529,-0.00734915141443,-0.19896826179175,0.177443657318498,0.000674946444482435,0.116210572574459,0.152067633445925,-0.06540779929822,0.0312336307238875,-0.16061561140636,-0.15373140526295,0.151335628824524,-0.13166903802249,0.145847993902643,-0.05542568006005,-0.13460563916962,0.160047753476319,0.0196923835657782,0.186019817542227,0.0516667158981242,-0.07936002333218,0.152682523132754,0.146105024373115,-0.15260480782604,-0.05372620342867,-0.17492543087038,0.154579027679065,0.151298727804659,0.0439827997711577,-0.01764441928266,0.0407250224750045,0.0666183568953341,-0.1243372949093,0.19720643598955,0.112209782648162,-0.02721439293369,-0.00189262480868],[-0.15358167653798,0.130117142253983,0.194088278927587,-0.13728234391513,-0.1775195466242,0.0166450216551327,0.04265243689741,0.0856626291928918,-0.18844068326201,-0.15722612318529,-0.04489782072152,-0.05498263359837,-0.02151205889091,-0.01322309298334,0.144305925296671,0.0436253037711311,0.04029404274116,0.105951957173621,-0.01677351725211,0.0467117981858003,-0.03488192561019,-0.10087190965863,0.0774741099251319,0.198518218543116,-0.03358083860206,-0.12621062532801,-0.16940534196954,0.0537024922497184,-0.01349988207737,0.192715878201667,0.13852725919606,-0.09766455627078,-0.06631580781772,0.0646328556451377,0.04390921446923,0.187930103134004,-0.10547781181251,0.0871951459164865,0.196592870721853,0.0162930976942573,0.156227273912194,0.0719893343061394,-0.16434163002527,-0.03703428620932,-0.06721902823766,-0.13970008154638,-0.08589994323925,-0.0355351116725,0.113033079247791,0.138367248794981,-0.16438773927291,0.155325331468964,0.149750746176616,0.0742871310857978,0.00868511013103568,-0.16071731144951,-0.0749779595356,0.184989514917982,0.202817834463392,0.0823580410869054,0.0549423919938134,0.00343966841898201,0.01485819377624,0.191619110903618,0.0513034482599883,0.0184865828839442,-0.03805025958429,-0.19941677887032,-0.01978520031752,-0.09739051301031,-0.07324858760061,-0.19333960459099,0.0812149763964713,0.0782992811207825,-0.00578392573447,0.194722942007939,-0.04020858816618,0.160154981653547,-0.0091728793622,-0.03960389066848,-0.11675393084374,-0.0247080052874,0.166363669766188,-0.19162557359801,0.0216075169645508,-0.17739589714069,-0.18347753191652,-0.00822413874265,0.0435039109468725,0.0812838012816657,0.115817964369394,0.0568130141124196,0.144355361171842,0.110498608392028,-0.07058808464079,0.0984152065474799,0.0853976202560826,-0.10581488892933,-0.00548018769061,0.140550062856929,-0.04610712189511,0.0526178102957955,-0.10372044729673,0.0556657360732281,0.0123901481347266,0.121941821801842,-0.13043775639269,0.0160390880723966,-0.18222816542813,-0.17687422371039,-0.13500344473987,-0.11175278240913,0.0460098747317157,-0.04434480332027,-0.01687614450258,-0.02508807739074,-0.13152876326803,-0.19509231084217,0.0260049036702949,0.163849322221437,-0.1502022501273,-0.14274419076546,-0.10409585299408,-0.09804728676615,0.182754966894528,0.204542263176787,0.00671516341352623,0.155039393279814,0.0882426673409625,-0.16088069212694,-0.07938509814622,0.170974784564143,-0.10393293208798,-0.1351191919664,-0.09756713946726,-0.08013178241329,-0.10330265825685,-0.05352584140884,0.0390481308752405,-0.09787932481262,0.100774194816465,-0.0941148654492,0.0494113442780184,-0.1838023433144],[0.000406220859524762,-0.04028191180482,-0.16798709663513,-0.02735713588339,-0.15441975105526,0.090331884793252,0.0903791002408491,0.109935034224628,-0.1845756162926,-0.00812447592476,-0.05527485073359,0.153753479474739,0.185684636896729,0.113541969767866,-0.07597645732304,-0.16362839137671,0.0235557023696677,0.16966052382406,0.0789397493895542,0.07955455982447,0.196031070505379,0.147772783110592,-0.02653197888057,0.0559833361959229,-0.1712617152512,-0.09964534555674,-0.12428944242631,0.023473334803225,0.0136311409557635,0.163973084838175,-0.10276199227534,-0.12964441155697,0.0868186203457602,-0.09061063872522,-0.1918616782677,0.00377719901786246,-0.01501545862656,0.0757241389995965,-0.02467817719307,0.0283623864488159,0.112793522215526,0.131341014147105,0.0865720038032411,0.144391037201654,0.143435057804445,0.0674048710354905,0.158696652674651,0.0224136569630775,-0.12123284508336,0.0780551699662183,0.109645307857861,0.0356366180744508,0.0182714397846724,-0.1360616374448,-0.10958207499514,0.00544496229310638,-0.09806293388964,-0.11797695874698,0.143808388941484,0.167796611673535,0.0771412507419006,-0.01566273440989,-0.11243065504315,-0.09779473383687,-0.14661504030882,-0.1918849290101,0.0870778256109308,0.137869032543162,0.114964906348154,0.127646296885989,-0.15540530245026,-0.05429648674593,-0.01102731844698,0.202027904767571,-0.0203937098191,-0.03924425895878,0.115519044738661,-0.19036365213025,0.152637779234786,-0.05838341415024,0.133359895916614,0.0370789564274685,0.064730130740354,0.174866011238025,0.11264988566388,0.00535602030576392,0.0684252498765116,-0.1418338755774,-0.14776154756637,-0.15095765363412,0.173153005129289,-0.12260987693882,0.0676056703149397,-0.18632057295114,-0.14727354467941,-0.14105914397209,-0.00709575678732,0.0433982224140496,-0.10176621529116,0.033730441804947,-0.15662080094161,-0.08631613985372,0.00678594052553834,0.156250076207502,0.168583876770466,-0.07971558968138,-0.01734884095943,-0.10079885978374,0.0988760742016797,0.101627172102494,-0.13303693639862,-0.02978436896747,-0.06250848616266,-0.11458772513922,0.0642729823614327,-0.18533021165594,0.0128479379680439,0.0516747314821483,-0.19216367310278,-0.15994588120142,-0.1330126132602,0.169644031440033,-0.11620462394376,-0.00494678498668,-0.00686937090143,-0.04713599986306,-0.01269763546007,0.146865311955852,-0.12825080913207,0.184223255603984,-0.14988045179519,-0.04047840758194,-0.03909601036408,0.0647161592722019,-0.08542106811346,-0.0885145952768,-0.13874487641366,0.140228330579693,-0.01300054009078,-0.04262181293273,0.121974473660138,-0.13687572682129,-0.02384662006645,0.0756513047640344],[-0.09351943803492,0.0820489013131829,0.0847440287377468,0.0243600172656748,-0.13077368173425,-0.03667431035747,-0.1096305196375,-0.05489969222832,-0.13591120836903,-0.07566975347413,0.037170781559253,0.109460122438297,0.1522509192941,0.00755322434559437,0.126413716588939,0.150961132744927,-0.10040488786557,0.140348733677169,-0.0793513260852,-0.0426231767753,0.174699668657118,-0.13166728164583,0.141583062364918,-0.00620750645248,0.0220718714697547,-0.13930443851284,0.0601102931002582,0.145524082195828,0.052573497421753,-0.08375004851444,-0.05516521777974,0.147094893880566,0.113814642026572,0.119461970974314,0.0382385009611602,-0.18586929047726,-0.17844334565705,-0.18029338900627,-0.0426646922722,0.0703119123074425,0.0729124209524221,0.163047070338403,-0.03151889529492,-0.19910952781969,0.00892570606949862,0.102928073576517,0.0414767051485477,-0.01088500186856,-0.04170633627808,-0.06369424470953,-0.10101764956573,-0.06605272606912,-0.05796402320329,0.091264723703885,-0.0126561407735,0.0214924979504033,-0.02064338577008,-0.0372500259817,0.166212230269714,0.0746868246450112,0.0600590069729214,-0.00255332588552,0.0121227170243915,-0.09127012462724,0.0985208782166843,0.137180684446639,0.0347600722895455,-0.0675814565881,-0.05324124565731,0.00161963041303963,-0.08289887320054,-0.0304167796262,-0.01048217522021,-0.1037647237484,0.0749142530607452,-0.11546917870241,0.0935282512040425,0.0123998385978948,0.113710189906408,-0.17084658060311,0.032303335409066,0.0719831372107636,0.00038310508649182,-0.1868168386281,-0.03746991740147,0.0437637082259023,-0.14011477297385,-0.00687275119424,-0.06403970131738,0.127584639001076,-0.18014678914228,-0.1669717127538,0.173407125862403,-0.00678483703773,0.133279665046877,0.19916117445629,0.00920042458416805,0.180257594151889,0.145925993141743,0.138251134676475,-0.09385539275156,0.0852935748892543,-0.18417180503998,0.0632460305310472,0.164221529723015,-0.17957805051249,0.0273774712160199,0.156988428234849,0.000428239057582995,0.0537000503678729,-0.04142093889547,-0.19784901808015,0.0844669396767651,-0.13238421274649,0.181261225809513,-0.01886347996323,0.0898329267390993,0.0698590606040803,0.168664377987962,0.131506043934389,0.150178824636552,-0.19346042222727,0.0886286599899646,0.203842409594449,-0.01283919199139,0.161674570176556,-0.18852379052781,-0.20235834165001,0.065484110526251,-0.08397051255563,0.171385031353531,0.100233955728772,-0.16637843766771,-0.16223088708403,0.180687097138829,0.0855931817115407,0.188010773892928,-0.20121146181943,-0.05328422477587,0.0298651690397865,0.161495253749784,-0.03013732992467,0.176946953660898,0.0572769529802821],[-0.05897821452452,-0.17382688465034,0.0294665206860394,0.0955727107562212,0.0309331598854418,-0.16046422828322,0.0382986965300597,-0.16186686718908,-0.08695747091169,0.180757496431605,0.136455427060575,-0.15761297862304,0.0352655521023565,0.184649598314303,-0.07648353540764,-0.0894252588952,0.0776264382963975,-0.02229043360246,-0.04623092409965,0.0298619993075391,0.122307258464067,-0.19048704312337,0.0935593698039979,-0.06832581164693,-0.1503715238571,-0.18531834268293,0.0399899525332681,-0.00638190939435,0.0699577919796223,-0.04562715816244,-0.15435263884852,-0.03355501286329,0.159697200018376,0.0831231684587842,0.0569441158275773,0.063391648581834,0.0908459570148922,-0.12130054219755,0.0190318269244063,-0.07046073074118,0.0457812813508853,-0.05182576228486,-0.02666349862599,0.0671821715198809,0.188676329851911,0.0608465421106411,0.0508574326338824,-0.05109778637672,-0.16730735904029,0.166499325469153,0.15106042253499,0.135860003079749,-0.08457472132045,0.0131902873250962,0.204826618890672,-0.00244136117127,0.00722054788712965,-0.0441962961265,-0.1240354237858,-0.00581057200789,0.167552805354104,-0.12427631750764,-0.20103360291198,0.0444533492395391,-0.15349298642749,-0.16685981557181,0.199633177753774,-0.03365095902204,0.0805492279433517,0.181442287539174,0.175597981709594,0.177094768729675,0.1320059733998,0.0869606431239903,-0.163159021761,0.193093013184542,0.0889639806519302,0.103292225035524,-0.19152775146688,0.193678843561636,0.103631781435694,0.0503181233912174,0.0737574281641019,0.14977573095313,0.0176719585479069,0.0225172983558465,-0.0229722368912,0.189582845735305,0.0509631886522434,0.0143796661143314,0.205607621186671,-0.05934107109129,-0.05112621999771,0.199805068595487,-0.0983367493439,0.151368081261317,0.00795159646281642,-0.04471318365776,0.188392493101965,0.0674615780295026,-0.00650619161936,0.0471933937448445,-0.0136713726975,-0.10176454481397,-0.06802446369208,0.0307974298995871,0.202043227205176,-0.03265891224239,-0.0329047664965,-0.05012519926519,-0.02139554613678,-0.01572080371781,-0.05508135455975,-0.10166319174204,0.178416573958305,-0.09916690121997,0.0930497029960556,0.112870877139984,-0.07869875082541,-0.05607315054525,-0.20223489831597,0.0639729648386859,-0.19881129613988,-0.02561797411574,-0.01025001495278,-0.08326542762989,-0.16020265843183,-0.09786567820147,-0.08250686962069,0.0223367751545319,0.125204073271188,0.117310257626495,-0.15042317991799,-0.19312153031656,-0.12097970238827,-0.16830866180361,0.0772468770423505,0.0432105533617117,0.0622176749424718,-0.15863232000741,0.0939237190698511,-0.15807783225766,-0.06914864766172,0.12452764749157],[0.146782064457633,0.0842769821107019,0.16171615663678,0.173465077790428,-0.07370285082654,-0.04992129459259,-0.13771550514613,-0.16461838153993,0.194045684108953,0.158170563110655,-0.05198324338472,-0.1646408817847,-0.01237296796136,0.00323941788336307,-0.07770260643596,0.0818192612699965,0.00175958655662606,0.150506951823281,-0.15176916169603,-0.13775280253408,0.18757667064732,-0.06699728733756,-0.04096315156624,0.0357533635261667,-0.08730786065461,-0.01802071614559,0.155937452006955,-0.19784126882078,0.039107975887724,-0.04352418661102,0.124040624699334,0.0771780205883655,-0.07267198592295,0.0678887560527004,-0.02546434452743,-0.03323454226679,-0.16506614535069,0.194772213632893,0.0655411856720144,-0.12032610354207,0.1015249979665,0.104087521805929,0.0653163923862052,-0.07304244415356,0.0288483086888026,-0.03555859130316,-0.04404675917832,-0.0440196231052,-0.02313046224429,-0.14123709965017,-0.06170014868836,0.168381056028238,0.121771955941862,-0.14799530537305,-0.15300253890608,-0.00686260802312,-0.05191067963434,-0.04961816820035,-0.16195482483348,0.183895018465621,0.124117494069694,0.152070099538128,0.0999381789840482,-0.10812811682723,-0.14437259798029,0.152343704365084,0.0993087524094273,-0.02813986589267,-0.19780661988381,-0.08907506251734,-0.16955132847125,-0.02238647717936,0.140331661881991,0.160438379831353,-0.05947959199744,0.168014163485676,-0.12017309908185,-0.06515131670893,-0.10915933530083,-0.12926844992399,0.0770333014898951,-0.17462752141639,0.0819590732846005,-0.10904020946182,-0.06050479395065,0.0795009035003959,0.113883373140346,0.0280569680270077,-0.1883360707169,0.033092382035919,-0.16785236740652,0.0620100865470865,-0.09114383693909,-0.0065339124522,-0.07353641396713,-0.00221099321834,-0.13686689808247,0.0796461205352476,0.0792891784433466,0.174010828405725,0.0117364044485135,-0.00746917171304,0.0252195456686624,0.0598238594933499,0.132638532815517,0.138704016914112,0.189590246262325,-0.09104981818066,-0.02574899025436,-0.00708444661765,-0.17946774126171,0.116937325429731,0.0551561787363895,0.138273433696141,-0.1946976230391,-0.15094399216535,0.0624120251903249,-0.1416670029918,0.162047128066482,0.149289694237803,0.0168269959842424,-0.01917727367023,-0.07673273150855,-0.183088753574,-0.11711756384104,0.0814684121138781,0.0840006607635826,0.165551681317396,-0.09683090645007,-0.15059616727168,0.168366391441779,0.156811835472061,0.184973936977157,-0.08356716924439,-0.1803598874069,0.160284292035005,-0.16879146121067,0.0625516116019475,-0.00838384730275,-0.1053488467583,0.17249379887998,0.174191579912194,-0.20242416763692,-0.08133624914738],[0.165301078780268,-0.08410015060951,0.174182271165376,-0.15906064264908,-0.2005055725056,0.134325847356047,-0.15929270452581,-0.0763135833187,0.0904727783533477,-0.12393891522469,0.20281921408049,0.0765662605149,0.00851801347727623,-0.01008558277007,0.102906709738887,0.185314255525744,-0.17460321772075,0.123298239104297,-0.0627330322878,-0.12514488113366,0.16186131208359,0.179740759675733,-0.10319376835207,-0.03039604564389,0.09771467179867,0.175785642610036,0.00238182555488579,-0.16987057900033,-0.17406117981844,-0.17750943286331,0.130271644762846,0.144407919947259,-0.16270073232911,-0.14688560683272,0.00897051532240083,-0.19136433200595,0.0193062602625281,0.0597831461797563,-0.03227530946643,-0.15561051998981,-0.17211013690604,0.130904162118958,0.119490000600511,-0.18246199659008,-0.09304143998315,0.0555449585379861,-0.18695056041862,-0.12475453618667,0.00636570071651828,0.188172749672655,-0.19428018669952,0.115686721665058,-0.12624430251779,-0.12652893627665,-0.07284469661631,0.0459363568390305,-0.01393909587531,-0.15818887158963,-0.02320892462192,-0.12266028280435,-0.0190901983148,-0.04663507074624,-0.16346629603378,-0.19823522271168,-0.17577653882346,0.0173953749664419,-0.19779196054557,0.180441569948406,-0.15891615584489,0.0813600885256049,-0.04870263363689,0.103088942549934,-0.20174267003676,-0.18583763302804,0.193558874470936,0.0939370210258334,0.0208637477148734,0.00531387701622953,0.168752846511286,-0.20451287514776,-0.0183223143855,0.0896533379725395,-0.04481408320994,-0.11049408305627,0.0975904553960764,-0.12743561639981,0.157995838265378,-0.14424084119896,0.0919634290589967,-0.0977168068328,0.156305701394761,0.111401690023668,-0.04836090618923,-0.13588322504358,0.068004882608823,-0.18882784515848,0.0471469791614908,0.0395613496692569,0.139634273207257,0.0734825422478487,0.164610634995803,-0.07678163511088,0.117526632115872,-0.07288895209821,0.0340396897448857,-0.02632735180134,0.195551664581895,0.0662527548609085,-0.10566078814611,-0.05853820563753,0.149831956589632,0.13095394766444,0.166843233142893,-0.07098558056265,-0.03732526988472,-0.03689148857196,-0.19297857324908,0.0195615721303671,0.142759453148528,0.115567047634857,-0.15509132832574,0.108097532902074,0.044403310514656,0.0608776537446841,0.115401587230407,-0.06772079795948,0.198452909458615,-0.02914829057325,-0.08260719491068,0.199424745927292,-0.05865763624044,0.0257197684128326,0.0041103710487647,-0.19568631174947,0.0965858588778359,-0.18168356240599,-0.10230379943002,0.188953534481376,-0.03202530201775,-0.13223907296164,0.119243009460989,-0.05146854590562,0.0191163278499728,0.00288291857989561],[-0.09576584358827,0.0654703423506296,-0.11771890416808,0.119450632979933,0.0826185998951015,0.0762343987847846,0.115302012795621,-0.0926230908771,0.104301412167784,0.052999960455559,-0.04395977100599,-0.11734453475689,0.194953658166819,-0.12988223008889,-0.10919422624952,0.0718032598348567,0.200876684082605,-0.14905753175557,0.0910879904348086,-0.09394140677265,0.0719899887700909,0.179748652095675,-0.05187899502824,-0.13397584742487,0.148979682572357,0.0236161364355191,-0.00274437052237,0.0511741013686132,0.092882853045129,-0.09878536223031,-0.03856549073451,-0.05226081260085,-0.16713817068831,-0.0375825189559,0.0827035933609081,0.175114864515801,-0.14395826367481,0.0445407406545547,-0.03837402002862,0.175681772132894,0.080858211666882,0.0401037220201711,0.179675877012224,0.0227793695786436,-0.15159632512269,0.0388410905051975,0.125462388459488,0.133998971449761,-0.14381441915323,-0.02150276843302,-0.0926581903532,0.0963986172947553,0.0808059132946653,-0.09787569062529,-0.12614063165459,-0.06737292537769,0.170507446874678,-0.0625753608651,0.0915242917634074,-0.10062888936126,-0.05786260149473,-0.18152401126667,-0.15063659653704,0.181445667068307,-0.18735020047448,-0.11455348585197,-0.03981670613457,0.0732921139925325,0.122138129246575,-0.05668603886364,-0.07664184638743,0.0730090592334555,-0.10697003744108,-0.18739898761315,-0.19607202956589,0.0363316381030826,0.185294694503284,-0.04817784659488,0.144331499267898,0.0426513864085988,0.0248886603247899,0.188220349927762,-0.1099289564645,-0.12231511899141,0.127836025032147,0.0820050978488951,0.0291993848065579,0.101798110858355,-0.05481741396588,-0.13626165593429,0.0301329723627042,-0.05305531976226,-0.16265118617478,-0.16317228536966,0.0842456853389324,-0.19678948534441,-0.14296589431594,0.156664086030377,0.144634889242708,-0.13297500367088,0.102331213658268,-0.07975043141371,0.17883414708662,0.0137397336054093,0.176587365875548,-0.13472419393445,-0.13838414665104,-0.02822494360353,-0.14663181962385,0.120935043612795,0.0499454818290471,0.161101985661246,0.152433169627343,-0.04564560370411,0.121839776533741,0.0947708231133361,-0.19427160451855,0.11137909763677,0.00601171388995631,-0.12017013103635,0.173447373924079,-0.10811837151223,0.187863142931667,-0.18507345795246,-0.11115738094753,0.137789254027405,0.162101323361424,-0.01383321471824,0.121648906896674,0.0895441851267453,0.130004334268322,-0.04157219148438,-0.0156401034898,0.180665866132581,0.0524097224272377,-0.16559853674921,0.0850057093928261,0.0361858222278545,-0.07873896359916,0.194190031484524,-0.14386414943328,-0.15861805585343,0.0775200078966525,-0.07538510163987],[-0.17017159099205,-0.15480604504417,-0.1071050145527,-0.13357724784677,-0.14424042785619,-0.01866410828372,0.08659077543358,-0.08904697570226,-0.17341844520448,-0.02177000470681,-0.17968288705841,-0.04343628852585,-0.09112692735473,0.196815162987169,0.0359537314157482,-0.10540501827953,0.127981494677072,-0.16721480662715,0.146274229379294,-0.10555622941799,0.16482142168465,-0.16502753421755,0.10830208515372,-0.19687425440343,0.142333826498004,-0.17694509048314,0.20240497838631,-0.05190562097187,0.0171295030600546,-0.03251929562602,0.16531975577498,0.0703711973888519,-0.06302750055535,0.0995027202011023,0.0863433650878098,-0.20334851147466,0.115433802290687,-0.17821158581001,0.0529532893337521,-0.06549565194131,0.160600214279441,0.142410770806265,0.144017856456112,-0.08545105279097,0.0679739701401727,0.188494670914248,0.133308266916557,0.142500262687743,-0.18691985667469,0.131189577723614,0.114422071802697,-0.08469542537816,0.0592217615897526,-0.12860781417021,-0.1271350227371,0.0151946433621653,0.138969264342292,-0.09053750105426,-0.14013801119113,-0.07948814577637,-0.04120344894952,0.0848569400895754,0.18309665227764,-0.18126082655682,0.0614994714030592,-0.06836624121251,0.124026808477098,-0.13391764670253,-0.08792552689655,-0.0142111616982,0.154719916518325,-0.19451936452902,0.199029054993304,0.16476257823098,-0.15163265903725,-0.16490883969117,-0.0801312790304,-0.10914007493727,-0.0094819314774,0.16545263941156,-0.00793536234967,-0.05590621895437,-0.1267978143981,0.119832584638068,-0.14107303297273,0.136132086300567,-0.04032251847205,0.0688729598059575,-0.09190289097025,-0.05056540020085,-0.17652903306475,-0.04845149147412,0.0804149574521989,0.0267768040729585,-0.14421827417239,0.196518268713202,-0.08878967573479,0.0597760933778834,-0.15207905226659,0.190734370459693,-0.11813470740328,0.184611421691681,0.125615479853978,0.167847135957707,-0.11417557927314,0.0574399418401814,-0.12142655889289,-0.18215159278906,-0.15646352406377,0.0725066774469588,0.10538463393974,-0.11276404358765,-0.15559919680335,0.151155702518845,0.0762729237555851,-0.12310875432924,0.150967384990919,0.0222879914083598,-0.05451936817885,-0.05189711318451,0.0758025766092031,0.100412444911413,-0.17822959039284,-0.18660968139572,-0.08965082880956,0.200851595713936,-0.16722213362542,0.126534723977267,-0.02482948991714,-0.18679874009826,-0.0926138015204,-0.0689080605054,-0.02832241485413,0.146185508841432,-0.07723951398424,-0.12321205477766,-0.14894291899151,0.145587348489828,0.0453281077404079,-0.14070177039223,0.0189746725091398,0.159565002959681,-0.14830280461192,0.188321757892759],[-0.19000117070309,-0.06784394100538,-0.04276646309199,-0.08236894000002,-0.1907187054631,-0.01740988973972,0.11255034383427,-0.07128994242747,0.0600891196591162,0.177939260581148,-0.12362244525923,0.08585550376049,0.0762708219955318,0.0273797087334113,-0.09592594166194,-0.13548894164702,0.185824010158348,0.159422643761708,-0.09364132464512,0.0602409197645063,0.0298480431508467,0.193802738532978,0.128676482472669,0.0126412991288733,0.136715477045717,0.0822901487951251,0.193091597499855,0.00454804882094843,0.0459848138021445,0.0640674248775596,0.114230714687501,0.0237161339045077,-0.03731667066694,0.123431032290949,-0.0061689974974,0.0179814366029625,-0.19810596041056,-0.15485933300857,0.200792310727707,0.182310657129139,0.185483062202225,-0.19573906838786,-0.12707155950481,-0.08968536988002,0.180839147672997,-0.18574221771405,0.184640857558774,-0.18556499330039,0.0314078099710653,-0.10466229198046,0.0868165001444903,-0.09786412870494,-0.09442312297083,0.0422391149091512,-0.02555923258463,-0.00153600940337,-0.09347940724441,0.0624372158429215,-0.04810670940226,-0.07185972833812,-0.05726667803612,0.130645557580913,0.0785925391819789,-0.12807897698086,-0.12371165291092,0.141330211457071,0.0473005367980783,0.201178175683989,0.115137181060102,-0.09009057384805,-0.12033829156402,0.185858627461362,0.0887246248675659,-0.12315698239917,0.0911493204432339,0.173248610805206,-0.09514421246772,0.199002622392801,0.16188288921798,0.164580379306409,0.103656728959224,0.00099173067556086,-0.03272430742992,0.129748953293981,-0.07875626251106,-0.03713564166765,0.0980549320846509,0.184581208601974,0.02678455958811,-0.0302874711982,-0.04292687346745,-0.20333461079653,-0.001513869676,-0.02039695927909,0.131861247467526,-0.00871204377972,0.11400179480936,-0.16706691015393,-0.05492513777137,0.192367046753454,-0.18573163597766,-0.06092203540107,0.0920375336407001,0.0585416314672237,-0.20227084898244,-0.03481176151146,-0.18336451496506,-0.17693382679374,0.150885752837562,-0.01056169220083,-0.04236837501402,-0.15826615875347,0.118140732993843,-0.17872669849026,-0.0902292977514,0.156057183123059,-0.06009916133207,0.102354094660532,-0.15520995594444,0.195200036042188,-0.03046900890957,-0.08725679315726,0.114086380781044,0.080175149712671,0.185828591604732,-0.10898244260662,-0.07052273441147,-0.13613630860526,0.14310993254392,0.0299546681606656,-0.11660902139008,-0.02748646224364,0.11357922428767,0.178335084490148,-0.06382919170709,-0.04549529917133,-0.12435047954717,-0.16353742522641,-0.18782753621724,-0.16919047598339,0.162678219687005,-0.0414796818763,0.109034153604939,0.0837139706139466],[0.0539683855088655,-0.11169048699563,-0.14453192326053,0.041820420074309,-0.04349989288335,0.0219172221817374,-0.10871093078508,-0.01635827986938,0.116414810043963,-0.01224777490475,0.175699123750929,0.0157583332680713,-0.02752666980861,-0.03370159071961,-0.05060942013771,0.0799721040301721,0.0692484699232434,0.177509295848511,0.0717522964242599,-0.08215103488907,-0.02491740561747,-0.19887112602069,0.139018359400882,0.0266153515101948,0.0536480338387053,-0.07984773709756,0.0945206088890027,-0.07513166004134,0.019688238343791,0.152866501798891,0.0698767725635198,0.0764401708904634,-0.00592493292561,-0.19668868310299,-0.04330477081676,-0.09478794759953,0.0463186941896969,0.137459158431224,-0.1601919895446,0.143777648895983,-0.00684723993848,0.192746703121095,0.0423162669639312,-0.19310554709718,0.0932512728573655,0.0636582289782507,0.193088970425771,-0.04040940810286,-0.17557575547994,-0.11169691914124,-0.19095843568686,-0.17963021695756,-0.0690245325875,0.0613125530712152,0.135429931552021,0.100787492228046,0.181985822694326,0.058266094238573,-0.10640889134519,-0.0245884589418,-0.17250917394361,-0.10880622440721,-0.04476123662686,-0.12418183786098,-0.14723897125595,-0.00241390172478,0.0451387651812914,-0.09169611083713,-0.02843670253022,0.0540060281291253,0.100173130510903,-0.1511039522035,0.102356631073641,0.0431992945305381,-0.13626679933925,-0.1864473422279,0.0367306971268655,0.0269724996011063,-0.04318387642394,0.0746347784744967,-0.00169181561069,0.0278362319852512,-0.09879577319453,-0.06790943288289,-0.10226494052349,0.180594684976419,-0.13475117471977,-0.02056033767054,-0.09815014186832,-0.12980797058605,0.162789282121384,-0.00217604223625,-0.17111624338616,-0.01155110135819,0.204407614914549,-0.05687027742514,0.0132626710142944,0.034875736414692,0.155676190283088,0.0647595034732231,0.114384436760983,0.123966524804404,0.179647812011494,0.0409108286087483,0.0833906968708975,-0.06009404435699,0.115511462534118,0.0630812938566138,0.196824524044434,0.0778316022164092,-0.00274222121192,-0.00740444520098,-0.17965588694588,-0.10287564083074,0.0365269650887458,0.103005298043197,0.126251034802444,-0.18654437878398,0.179385029181822,-0.02313354189164,-0.1985305732571,-0.11684868661482,-0.07041587963268,0.138467726092663,0.160019120006243,0.0548247268614854,-0.18965639880838,-0.07785903003363,-0.06181013080728,-0.07343641266811,-0.15492221674157,-0.00863700381515,0.184370277248598,-0.16103183996406,0.177663222643595,-0.03531569363587,0.138564403930143,-0.15376080301506,-0.19332511134936,-0.02686597876343,-0.02927150765853,0.0212074185648453,-0.10473391322037,-0.16169844432206],[-0.20029675918669,0.0731771378605727,0.193942438611486,-0.0634288602807,-0.08323354910595,0.19148645785558,-0.08701735767204,0.145635872093821,-0.1833886459978,-0.0121001376064,0.175021787155228,-0.15973222960574,-0.01257648681605,-0.15810202971307,-0.13401417837089,0.100301319877979,0.133540302659729,0.103442603241459,0.198983828997484,0.0847626611396538,-0.1586458112828,0.15900548401646,0.1311170831185,0.135907756395091,-0.15326030169018,-0.02762025027227,0.0785378749591859,0.0417525623863427,-0.18476993982121,0.159563688407555,0.110381740391022,0.0316973289407488,0.195347505784201,-0.07550665690983,-0.10783903718864,-0.11270860455837,-0.07846834011506,0.0720561165863205,-0.05411513292537,0.140083482049789,-0.15244242011179,0.0846492785593907,0.129370244837155,0.0970282303896027,-0.16252313033795,-0.18225381173661,0.128917420332384,0.171688771192633,0.00414822988801502,-0.16828050990514,0.0116873662831382,0.0461004431002399,-0.05388318426779,-0.00994834086431,-0.03290301458622,0.0395770036607057,-0.11966157298985,-0.14399145222924,-0.08351230555594,0.119075970369451,0.0563655405193114,-0.10655975450793,0.125133441452118,0.0343452483183974,-0.14624404300949,0.171755680540657,0.14862371931465,0.0991717397579462,-0.11640010138148,-0.14974356491901,0.204024219902584,0.120672686234117,0.183587159847176,-0.14336178538925,0.10020885463202,0.118460159608075,0.146864233450216,0.0108255512011467,-0.11728548463142,0.171992433742911,-0.05304703322477,0.030479224255509,0.170452084742009,-0.20372670139886,-0.03436463866946,-0.18122959010537,0.0600886420547203,0.121543821484098,-0.06523394177813,0.114414427028672,-0.08873368751388,-0.05265727072594,-0.15292687841093,-0.19868009514161,0.0726251405290293,0.0519724904423102,-0.15002598005734,-0.19695659143235,0.192097019418261,-0.06448990560089,0.153460787372453,-0.1257633448901,0.0326572276976388,0.0940818205504807,-0.12340081264157,0.0963725210312679,-0.00844101009504,-0.00089549982085,0.0325748791946278,0.126801146378371,-0.19549875472644,0.193924163581941,-0.02853202214971,-0.17389180075277,-0.09087103443904,-0.14268154756597,-0.13840416074343,0.136615273409296,0.192922004506765,-0.06220265700636,-0.08983714372049,0.00591583346913874,0.0812811172928267,-0.12249138032251,0.129891280218392,0.0606103500945859,0.0288584867106162,0.0710632096480319,0.173322418784234,-0.11703382575092,-0.20364743412138,-0.13709442203055,-0.0083571291196,-0.17977026246121,-0.14197676652454,0.1789903874817,0.0976903095107528,0.00315227108415097,0.158140488853586,-0.15177208734528,-0.18832202235142,-0.15986938396929,0.107183829517921,-0.12187224705269],[-0.19337101358174,0.155484049918887,0.0518668318527089,0.168743218131261,-0.0903271226954,0.182230701042772,-0.13600493563283,-0.13177593027337,0.181126237481627,-0.09984100836318,-0.18374163016464,0.133274758282673,0.0244782438075332,-0.03836186273484,0.189266987587323,-0.20156051006967,0.0644597545797266,-0.15965899991403,0.153805914261167,-0.01845304473467,0.18525302964799,-0.11269471972184,0.0336123632614595,0.118996539178571,-0.06602391695577,-0.19298193936436,-0.14863239374602,-0.11168499575353,-0.1638771557206,-0.17903150566357,0.128289204690042,0.129247260100361,0.140053659160243,0.0651458650055409,-0.04345482254373,0.0217955083301327,0.1798938658925,-0.07619131996605,-0.02401715760814,0.159780640065328,-0.10879018545056,0.0173784509721524,0.119168468286593,0.0600184442001451,-0.15289596127569,-0.01691429508387,0.200977799780074,-0.17121538505223,0.0237289839396895,0.203212866723225,0.00280475569725124,-0.09641233157482,-0.01914266165275,0.138443258269984,0.0686968506187989,-0.15107449677382,0.00978601072169298,-0.01174752962139,0.0817589330015039,-0.13587582702134,0.0745144783449828,0.129939078853703,-0.02831189491584,-0.10148293952782,-0.20175047231251,0.0412802913697775,-0.05254661586461,0.0488704077265034,-0.18688148283908,0.126253709064501,0.117875647156448,0.0528848944056513,-0.02695582938217,0.178074672779322,0.0541353623152518,-0.02281338233936,-0.19293649089112,0.0299380026803608,-0.07764395152285,-0.02907431773281,-0.06799366510744,0.196671884246048,-0.0344145971964,0.0311080455615829,0.0564902408998758,-0.11186704922304,0.121609564875747,0.0775413147051056,0.166692678895787,-0.0270125767524,0.19114984131195,0.092251811247723,-0.12606182393928,-0.06212088697887,0.000022387859720057,-0.06741739098114,-0.16211448369653,0.133951600365772,0.069083989828507,0.106183281631718,-0.17090207878556,0.0643954406274679,0.199500487831905,0.076464011954246,0.0360916632664694,0.178405333113398,0.00613116199581936,0.167691087231572,0.0979861327550573,0.124238859339149,-0.14194778498943,0.0420372231047946,-0.18602352789156,-0.11997652072528,-0.14631621121376,0.0428394371973398,-0.1366231858125,-0.00003261537336,0.119480406503408,-0.0242921363799,-0.09669463521711,-0.18224433228321,-0.02383451411512,0.117510802974611,-0.10765698607975,0.0244350015768357,0.0433316066489546,0.0795646742791536,0.0328750388009814,0.0265474162537805,-0.06002335595688,-0.02214338092005,0.175879942165438,-0.06371142395093,0.0545801835634031,-0.12037159499641,0.167227444188443,0.0191804381628678,0.040401973890585,-0.12514121307426,0.0925228736147551,-0.10262372630341,-0.0137774561155,-0.0305880996046],[-0.00741334672065,0.0201247651916842,-0.17474112768225,0.158881653089233,0.12180755634967,0.101447214624384,0.148924511675055,0.176434468086027,0.17413803537515,0.0516807696074598,-0.16989921261506,0.182190556265227,0.00264225857661865,-0.14816339821288,0.0775405139422956,0.196817595656464,-0.17867250005291,-0.09767978808614,-0.15935472862273,0.122516902259054,-0.19759979033078,-0.16650256275716,0.0197488959962729,0.0678309895169299,0.189165291236617,0.0822719892636517,0.145658135534766,0.19056900145919,0.140686362115689,-0.15666905260848,-0.14247328126937,-0.10758745812505,-0.18694764641015,-0.1484366769715,-0.02015246419002,0.0117510977494209,-0.08193703886918,0.0362672345353684,-0.06390643134609,0.152611336254459,0.173649638562359,0.186619475054289,0.0244386498543457,-0.06551730412645,-0.18009368165627,0.072310116936704,0.0251226832217183,0.116502085721252,0.0958541314912295,-0.00706729892681,-0.01829746861035,-0.18914888121846,-0.02681410084013,-0.18942542935088,-0.17871840244689,0.192240765921342,0.081868092453383,-0.00797371565986,-0.08743368967634,0.00515388811668782,0.0130652784328651,0.102679929889371,0.0184356276808525,-0.1653768650543,0.15236987761293,-0.01529719523754,-0.14299073381119,0.153886966288919,0.196481696304051,0.151262529240479,-0.14851116918732,0.0406523593601133,0.0857690123322786,0.139947270088772,-0.1951217120601,0.083530000918404,0.0952722838659606,0.15758867099502,-0.01096322489079,-0.1928419898371,0.0688560732561552,-0.1350587127759,-0.11852551766602,0.00575679403716748,-0.1082445737413,-0.06513686151277,-0.09376411293115,-0.11679515970087,0.173576252258234,0.0225346134291795,-0.19694447810844,0.187480397467271,0.118326946127232,-0.16028087706464,0.0233705886578308,-0.01447395474423,0.0906678595928801,-0.17873035512098,0.0528104254330073,-0.17418420768009,-0.11493411399132,0.203905434815654,0.0320821010165635,0.180199224314537,0.144423296180635,-0.10283643350935,0.180515737809219,0.0286063427005413,-0.02152044772073,0.0902269398509876,0.153282610118997,-0.20216499438499,-0.15399233742183,0.0893154142301095,-0.00023970955445,0.0738743808553397,-0.16539989982669,0.122070585460318,-0.00438275591985,0.116126487594601,0.159434694322995,0.113022880124613,0.0242610545219695,-0.15049767210288,0.0807895336870525,-0.12284840965006,0.107612052415579,-0.0599572827321,-0.13785592413154,0.104197133523905,-0.1447320046583,0.126404087644441,-0.01938160432167,-0.00161578619368,0.126443915740165,-0.12929826507092,-0.00057182428734,-0.10493668246242,0.130041257652006,0.148428642790416,0.151877545237746,0.044025741817869,-0.20139509625137,-0.18552686729158],[-0.16772344504817,0.139088257368792,-0.06060840477502,0.0590774769744388,0.0307562692866691,-0.09450137273668,-0.11442711045845,0.148329001266001,0.153195675710919,0.0932221457784885,0.0261039545466142,-0.17109410594468,-0.12827711269942,0.133854582828845,-0.07861722867521,0.03374494349069,0.0319887332389245,-0.17296198210856,0.10766040142568,0.0521343983140975,-0.14076909135659,-0.11879009296147,-0.19351829657358,-0.09829250401753,0.19828792245965,0.0537496348895558,-0.20098020494251,-0.13599850718848,0.167628052694105,0.0350469525235198,-0.10320442277268,-0.15601529278959,0.0211704655045558,0.0791140398038392,0.0755235303645801,0.138103850637834,0.166617478013441,-0.05139319385747,0.0190863840004962,0.0246095448652489,-0.19126699909092,-0.18409279363533,0.0728561056978936,0.160599369872803,-0.08177454777419,-0.15996352214545,0.201673237589389,-0.13625580651857,-0.08063321980557,0.0691684876717062,0.133430230916364,-0.00639198059511,-0.0199939772801,0.201979097226532,0.120491282857614,0.100067083624851,0.194247533304214,-0.04030815191928,0.14436086927462,0.115912533632943,-0.07848355610653,0.134115148119797,0.140203646273649,-0.18911383043836,0.15268959942569,0.128247625565072,-0.06351064574842,0.0583266865485191,0.0186908833409417,-0.07889185663404,-0.01729708030942,0.137145884083486,0.0838717429092039,-0.16941183098558,-0.1483774905747,-0.10962397602048,-0.12554382061493,-0.01717750514206,-0.18598298346405,-0.18341189255566,0.152549177558444,-0.17586940139922,-0.08060885574241,0.00905670067823733,0.00747484124939788,-0.15821789564983,0.164493531311685,-0.03841173916013,0.16258398637375,0.015258757887643,0.059267819702315,0.0803916405070601,0.197705838827208,-0.1219802926752,-0.02613660293634,-0.02686955077763,-0.09953089946847,0.204046800788265,0.0169532687559563,-0.03572470105287,0.123088333142792,0.124811379438317,-0.01198972383998,-0.18707547173011,-0.08880491142854,0.0135606736619798,0.141699054499461,-0.04451945430012,0.166139953483609,-0.13228386322593,-0.20420162241832,0.0776297574271508,0.105480191612027,0.173271711208841,-0.14984989235943,0.155103266270912,-0.16105425857634,-0.03138333524637,0.199998167636521,0.18773845569676,-0.0468803510869,0.197345906494483,0.0503689921774867,-0.11662145332238,0.186835025071202,0.180428886707946,-0.03595570124487,0.162006701398879,0.193769900809858,-0.07055078610374,0.188828915084161,-0.18933380798887,0.168670380255838,-0.17102289610947,0.0135240027032295,0.0124719387375415,-0.10636503784866,-0.16563245288818,0.200052199947807,0.0435700760379301,-0.01684934581007,0.0459429002298516,0.0934546087992438,-0.14074412369293],[0.136492296439514,-0.1373216847462,-0.13178156758136,-0.04493580520317,0.0742864447934925,0.17201257677671,0.199681376190605,0.0581087025502969,-0.13362714278748,-0.17763900086437,0.0795134056804603,0.00690942756450348,0.0773678309589187,0.0575797267389133,-0.05367585044969,0.0751059636453569,-0.1059986702396,-0.18064382741539,0.192904321559477,0.133710547226816,-0.16732311004483,0.0408260476677653,0.106874242616879,-0.15711558448365,-0.14789877402838,-0.0124061497371,-0.08478137025534,-0.00610993704629,-0.13728872819783,-0.052708498563,-0.11826369836544,0.0330217511171119,-0.11148131330543,-0.14962243394264,0.0670856117368738,-0.16835638187471,0.17777377818274,0.178923912513951,-0.11974092722441,-0.07977505596193,0.0653911793185021,0.0413088887481618,-0.05295126647924,0.141065005284832,-0.18598892102513,-0.12945086653701,0.121450714387626,0.0162645513874387,-0.12224564123954,0.0105154556555169,-0.05886313814569,-0.02624823728139,-0.11196384931497,0.199927156747211,0.0882059954073877,0.0775262888856704,-0.11834680145063,-0.1336698236424,-0.19351606773381,-0.15232288818361,0.131283518154904,-0.03243855241735,0.111497002652126,-0.05629906417983,-0.19941051315588,0.184759381959725,0.142198246375712,-0.11521063126292,0.111163301472837,-0.0180597062163,0.0549071655058974,0.0429474975056918,0.0557867935788983,-0.16777768170807,0.0247829862508559,-0.16351748857498,-0.10233902938347,0.184169975816115,0.192741198473849,-0.19812195962701,-0.1468489477353,0.0377724157414855,0.0046677830456428,0.0646790086750105,0.035001043935218,-0.14554963790768,-0.10853904045971,-0.1649434063319,0.0966047167902447,-0.16132593307672,-0.16551545279476,-0.1813261675383,-0.17155674627444,-0.16438233560473,0.0796905141966343,-0.04184410859972,0.0227131339234193,-0.11410954050669,-0.20073267788061,0.0369498457064336,0.194492908781061,0.128423859790004,0.0438645380291057,0.000142256387179706,0.108693875946995,0.00739214821455048,0.195865134330621,-0.00290990178282,-0.19865265378206,-0.08061187352739,0.19618327002052,0.0429004749288788,0.0923574014242172,-0.11168797869043,0.0947443214959303,0.157165726076539,0.0115230553045005,-0.06459025286691,-0.12044791467249,-0.18497888605176,-0.01825424520753,-0.04993041345714,-0.13669032262289,-0.02285857784013,-0.04598357571504,-0.09429467148384,-0.15202172980156,0.201162891600317,-0.11497896508863,0.017894754272454,-0.13415495588008,-0.02608946370238,0.0505838540061039,0.0861065886337869,0.00276432386814046,-0.11281163146866,0.158582581826885,0.0767012946254435,0.0708695488904957,0.0979634919919669,0.00422596484126455,-0.05486320893735,0.1229944940947,0.110307552479813],[0.034720040706736,0.0934697425400219,-0.09469711265965,0.144468954843207,0.00428091288040025,0.131976058366412,-0.10390105813446,-0.11724017134022,0.0676111384491402,0.0463784384809507,-0.16234212572605,-0.12536886390575,0.0191470052309704,-0.023998372561,0.115693053438879,0.173795870613947,-0.03708507546313,-0.1792537364163,0.0795702926227985,0.123642286507778,-0.01593164502272,0.138882833992056,0.107871354406082,0.193801141753571,-0.00480327253099,-0.08702293568916,0.19606171772159,-0.07302074202773,0.056315280657299,0.0118307998647727,0.16926165450391,-0.18674333471913,-0.00017576299308,0.140019533229482,0.0180317297699707,-0.11666784270327,0.0992515700112805,0.106395120635854,0.128660834908983,0.0576727431286732,-0.02333894613063,0.0741730817035956,-0.19092642470457,0.104241266403991,-0.01595177310954,-0.00639273167855,-0.11564343502462,0.19583792525135,0.195563604131476,-0.13000382439689,0.0406100246036168,-0.06124841082402,-0.11263371220752,-0.12583571418707,0.200681489483483,-0.15529749279941,-0.1151199156372,0.0281352060411041,0.00464622318030211,-0.03529551708225,-0.10627315418356,0.0748375816599769,0.031552029020388,-0.10755582480607,0.126973483753479,0.17517051227903,0.000715368651704782,-0.15388173462247,0.0197907243693578,-0.02622722142195,-0.05796930209671,-0.09964001971134,-0.10654958110033,-0.18713031633857,-0.10249837830262,-0.07653434030198,-0.15821976832947,0.129526848302755,0.152624958113172,-0.17938402627804,0.0425836618352803,-0.11495309137412,-0.14271192333207,0.00814917336677783,-0.15546363144446,0.0721284002374812,0.0715442360046879,-0.07218533561572,-0.13743029909101,0.0873455206759132,-0.11862255276049,-0.19741565805406,0.0114107391678851,-0.09853672252254,0.188735139621055,-0.12461230602773,-0.09524255160454,-0.16726148419699,0.0560070140801553,0.093205172520945,-0.05425394946263,-0.10565669979629,0.170829733405287,0.0165671723706248,0.115301749118862,0.0659871851409563,-0.20074287841297,-0.20249535473472,-0.04094332695959,-0.12415641920284,0.178022200698064,0.20451311422018,-0.03848169711195,-0.09896987835957,0.0203085473837022,-0.07860629915533,0.177294562462314,-0.09618525559009,0.0739720168152132,-0.07431628201839,-0.06115713053244,-0.04609984765648,0.194330929990048,0.105615164477223,0.117846410944628,-0.10737258178172,0.0651479810074199,-0.0835165452607,-0.02170221652011,-0.16600884613703,0.0696579220438804,0.055395010170587,0.0849902717922785,0.123158319728922,0.130370645154279,0.0859288477225661,-0.02339785591318,-0.1244182468823,0.0551128356779682,-0.15180147548781,0.0469617290385184,-0.1276556860435,-0.13242942427058,-0.03131563697871],[-0.06938792700929,-0.02751075427393,-0.17460926510636,0.12121559816134,-0.15676416033465,0.0510893308929924,-0.01361013912843,-0.09274321073974,0.0775316643982134,0.168257235201872,-0.00060909033313,0.196695432789677,0.0785207756057396,0.150729539057759,-0.18867647803492,0.127692117716079,0.034719709105521,0.106448980490743,0.00993367871955237,-0.17271841253799,0.142768162163845,-0.20218857875305,-0.18522628079688,0.146281147003231,0.0149982908677165,0.0641107322194723,-0.02788260390005,0.191447897875813,-0.10111929387476,-0.12690629747503,0.00808101014253636,0.0533282340621722,0.145323379363521,-0.05821120239673,-0.05728850402647,-0.02761836207731,0.125272629471372,0.131170526575399,-0.0957837389735,-0.03833022177411,-0.07814410987829,-0.04841524144524,0.0783205310832087,-0.09213611514482,0.178909842776259,0.0662258342144983,-0.00525319422059,0.196396010026152,0.036836166386782,-0.01527977499548,-0.00850002033137,0.181031037639993,0.0652279007160841,-0.01096253483876,-0.12974085992623,0.0186085875223323,0.0717871923155601,0.169312184454042,0.0824085084212308,0.0674702542716454,0.0921480605496872,0.00869916718598002,-0.07267931713712,0.0650334843709544,0.0327082536535011,0.182181267582214,-0.19897698532068,0.198785661478487,-0.20127209214087,-0.17212492155255,-0.10032523819068,0.13600452226218,0.15242638718368,-0.11379821983517,-0.04745649421047,0.147431570451701,0.00771661566520667,0.17113903199006,0.0247823812825711,0.0726149036911312,-0.19802985235245,0.0488797007357151,0.117299286969794,-0.14377220817289,-0.12013582612208,0.0435503119577542,-0.09900840891505,-0.12004843697939,0.198288580493033,0.0403801297547613,-0.19687758531266,-0.00362563521037,0.17702738510228,0.183044728850251,0.103134276971371,-0.06605328137548,0.0719846638468367,-0.14611275709225,0.0425183442588237,0.138559694115132,0.161880770633704,-0.15288123793905,0.0406655674525279,-0.08023352791258,0.0609262609590729,0.11379210406888,0.0857301091905513,-0.01517036811967,-0.06107160645341,-0.18889189453786,-0.07472574860369,-0.00165381644103,0.0130927603124358,0.182744547449251,0.157343380755043,0.106056087391842,0.0231003352881711,0.0384715810793652,0.0130485974684908,0.118629144406815,0.0990793723215139,-0.17609972544447,0.00638831341473652,-0.03238795922054,0.0742843102255067,-0.17847779547797,-0.18923759532448,0.144932881354876,0.0141692646625078,-0.11616338101023,-0.1613077134152,-0.04318005200201,0.169814767021885,0.11023524802465,0.04754407869692,0.0365213112167682,-0.07015570810556,0.056963285564757,0.082782580720812,0.133926227848395,0.152316456374773,-0.09257553170119,0.0295479616051245,-0.16303818242215],[-0.09068121897207,-0.04949067969307,0.141675013770464,-0.03749340464059,0.0793710055000833,-0.01025985684997,-0.19929631597309,-0.19990925325047,-0.0463651531715,0.13920581220859,0.0182167215374259,-0.0376847874672,-0.09506727123514,0.105994879330479,0.0321823884754258,0.129123847984237,-0.13904005927336,0.194793673138235,0.187345249952649,-0.06112893458569,0.0453694220208113,0.044127667668306,-0.08206845730597,-0.08877597272357,0.0850329035887351,-0.10488760310589,-0.14676999668105,0.0543685508150457,-0.07937068415306,0.0612062204844346,0.0810806670293911,0.0231322192522022,-0.16341180921329,-0.0795779167243,0.0830698317212,0.170449369836973,0.0329842448416074,-0.17715761264894,0.14415201901046,0.0477087628487763,0.170957186620935,0.186854696027096,0.189951598300661,0.173304980031349,0.0407067763045636,0.172897435532851,-0.04464755502566,0.0325605137624306,-0.01550544888571,0.0597085123793374,0.181491346775504,-0.10828255635857,0.146446668169555,-0.03539910272919,-0.10953150233449,-0.10126005902066,-0.03776753978549,-0.04294603339754,0.0695222419534569,-0.07733486993131,-0.11625284506891,0.0970004387229186,0.0832860900019367,-0.09283056254928,0.184491258748429,0.147503371424387,0.162824489362159,-0.12561806169741,0.0832880728891888,0.149468975291977,0.170778734491409,-0.01665642003815,-0.12147392052077,-0.10588167584895,-0.14073985444577,0.153844065351347,0.010759183449501,0.160507904332527,0.172367650556672,-0.173137706564,0.142433685586302,0.107753825104741,-0.17952656013504,0.0693916702202998,0.0696856335204379,0.130487267736903,-0.05402730297247,0.0792753700553851,-0.13560782724121,0.0251769724497031,0.104175145613659,-0.19549598110725,-0.11075175533695,0.119057808067667,0.113592874830134,0.0742907776921189,0.0114938156205984,-0.08943973804848,-0.20281210961417,0.0542379021724108,-0.04052215715572,-0.00110353525024,-0.00531075211671,-0.12628488630655,-0.00635577859833,-0.05366353473513,0.042095092325855,0.180869090991173,-0.11739967296127,-0.09915020489462,-0.01982377312318,-0.00445271010623,-0.03647540551245,-0.03085942897723,0.120657221568026,-0.19593716027603,-0.05146115558703,-0.05188122243711,-0.01208545528089,-0.05184421959218,0.130946396376819,-0.02164073863697,-0.07690785933156,-0.15342126893097,0.00876247890137886,0.0496023805849053,-0.18174704524339,0.0250528277070608,0.108707436248642,-0.16909416451117,-0.17311868041842,-0.183250731366,-0.04080860275712,0.157634590590801,0.0791694548225489,0.0659330199902122,0.0805497179527965,-0.20006457311822,-0.05470986106772,-0.07585442819483,-0.1229839800385,-0.06591167373043,-0.13102038533553,-0.01266618778906],[0.0479857388796332,0.0632259549685964,0.113129901376614,0.164093066132701,0.0142447345550361,-0.08100343435507,0.117115943070687,0.00733983116007888,-0.13729969976723,-0.15730758582416,0.0544384783457199,0.0733128457562753,-0.03792566377938,0.0771221497038565,0.0499491566369995,0.182267064458559,0.00955226473643237,-0.08644515424801,0.0571227962990335,-0.1998685217506,-0.12238142568235,-0.18046379832043,-0.18588706378643,0.0549589192141805,0.139598285364224,-0.176269118053,-0.0471977459137,-0.03732815303358,-0.15608865433037,-0.00654549633702,0.0285074827960947,-0.08828168692209,-0.07373318484807,-0.05489509629082,-0.01985536575624,0.124588080915524,0.0075777630160603,0.0786303782893191,-0.18798547932765,-0.17873509972896,-0.13840185718612,-0.03777438047241,-0.01401393699253,0.0634429443703269,-0.03271904605405,0.0537984344601897,-0.02975418089676,0.0160124411208373,-0.05680735401244,-0.00296806828864,-0.07342134263937,-0.17678261162052,-0.00520337212407,0.0086815722427878,-0.1392212922072,0.0321146795899359,-0.04896002257399,0.0360808966516687,-0.17025844989003,-0.07128324496736,-0.03817899995482,-0.05949056779935,0.189704638994286,0.137111768681966,0.005869993229279,0.0523802861827657,0.115501103390854,-0.05262657987396,-0.08066215972316,-0.14077048806587,-0.02903695112948,0.0424301921130968,0.14647588790556,0.0218073635729011,0.153031110292285,0.158766766935082,0.0584408500909877,-0.03588434437923,0.0320248508889477,-0.07741927154013,-0.02100709039206,-0.1143659683638,0.171932593463997,-0.03322936911503,0.179061267753961,-0.19607764294549,-0.03785010206487,-0.13886274514536,0.0203293147775742,0.0398150784431915,-0.02572586916471,-0.0299502493243,-0.12120459413691,-0.12659964961729,0.0802188856989325,-0.01789783065474,-0.08528950458693,-0.0171099117273,-0.13371349730304,0.186411017348277,0.161197837044213,0.0756127669151634,0.162767956169305,0.0311281857098695,0.175037294608915,-0.14801743223255,0.150201083689105,0.130068184840125,0.118823620448564,0.150467599869561,0.12435382918892,-0.06862827157686,-0.08644364967309,-0.11281268279261,0.0223953165885774,0.11432163349436,-0.09490070989055,0.119353273169163,0.070332902529179,0.143508126044925,-0.04350140791096,-0.07521605058869,-0.06338162185532,0.0584312271642906,0.130010356704389,-0.15000967416822,0.0169035708959623,-0.17336072391893,0.0972438163462803,-0.03466802292895,-0.16201461392136,-0.09205186587592,0.0326080513578585,-0.03041569639736,0.0529606906642189,0.164464323959486,-0.16121606369036,-0.07671730141715,-0.07451003740954,0.0139865675299036,-0.0075232653893,-0.04914955138435,-0.05195725691875,-0.00832080965074],[0.0390398856121649,0.11488714462723,0.163810239933185,-0.16005782814993,-0.16553234317503,-0.12452749975238,-0.15922263846859,0.188888708148461,-0.12092929374018,-0.1678256081919,0.197167857158463,0.0766986862984301,-0.01470727572023,0.00347923412220713,0.200710763233396,-0.04923311180945,0.031606583403006,0.104822398459879,0.10957314338228,-0.17452771318561,0.149945910691885,-0.10451472451308,0.136365171914318,0.151941435590356,0.100859463171612,-0.15543944331178,-0.07369249334619,-0.16234183101634,-0.1583848138145,-0.03822617583178,-0.02245195027738,0.0376530707932424,0.145865612679997,-0.1353797362065,0.197701827100728,-0.14079662015348,0.165001441205212,-0.09142278758647,0.00422375249426705,0.162467953139475,-0.03625463673568,0.138246266432499,0.0227327262810479,0.109437691406069,-0.10833731575729,-0.04447998336889,-0.18283312819181,-0.17538949511233,0.154815828963424,0.118019633145724,0.110443302391827,0.0513577915148169,0.149144365123827,-0.02285755715018,-0.02165753090371,-0.15553670163688,0.132735261710317,-0.09952660579789,-0.0795187581319,-0.09922146627299,-0.07303039278368,-0.08739025464785,-0.11782241818201,-0.1922612460249,0.0145440056990386,-0.09661137240363,0.080417669304414,0.178670275533607,0.155847173528141,0.157168408957698,0.00447094954085851,0.18363144007126,0.10633543669575,0.0301886037860809,0.147978563101334,0.191957044383133,-0.0477340103982,-0.0463618908865,0.198709412622526,0.110729403849805,-0.08923989020021,-0.07602974047204,-0.14813390407806,-0.1232645328884,-0.04369837414033,-0.15399840786664,-0.09251885261139,-0.19913285701132,0.0714102096320115,0.0800608591172007,-0.16714066755788,-0.06837802420465,0.173875203801194,0.147391199738205,-0.07573409158764,0.144521005405977,0.0902055945611277,0.200968552913989,-0.03820748328119,0.0476974230215051,-0.04228980237695,0.134543091014649,-0.14948303256818,0.109912673600727,-0.15321572133273,-0.16572372206434,-0.06779641663065,-0.11655340919319,-0.03052549627952,0.0542073290144587,-0.18210024741032,0.114500865865327,-0.18796423683554,-0.1236146108193,0.192661547358725,0.0237497818173863,-0.18088761781328,0.202347677647223,0.0408549700317691,-0.02397766780035,-0.0881990043558,0.111609837946749,0.0454673956070745,-0.13081555220367,0.094264264010533,-0.11441173284454,-0.01464875957581,-0.03291806538346,-0.16080626815064,0.128282307853555,-0.12998860640398,0.0358044121517737,0.00287021663646876,0.0502748287267069,-0.14050993253637,-0.10034002661863,-0.10073735204877,0.176447283830795,-0.09363621437567,0.182651557477075,-0.11379576220558,0.185030525178897,-0.18103123817425,-0.14904408091243],[0.17640139895633,0.141377203788235,0.0869415426265633,0.167712648056888,0.0123570935757636,-0.13706257398627,-0.14084408840604,0.0465785001620709,-0.19770732864881,0.00722349949390373,0.144790026459949,0.0888026944185023,0.168094494525945,0.158197914208574,0.00313256062620106,0.0946737904230531,0.0649394411729712,0.0403956792542514,-0.1031794612891,0.0076522034301667,-0.11633885487189,0.0787345086717355,-0.01672276271643,0.0170295881481317,0.11819786400581,0.0881210850264237,0.0255691602520284,0.151623552969781,0.0397361953801372,0.0025813442588207,0.0147287185573222,0.128830527559694,-0.06666607874629,-0.04245421017179,-0.18085644674746,0.186811328708792,0.0583541649243556,0.026374505114699,-0.02402931018762,-0.04166289607864,-0.16176564501061,-0.17831240605423,-0.12200532238534,0.134908264563193,0.178887966802922,-0.17714261989117,-0.1651957934464,-0.04235814046664,0.0898685910486642,0.0281925832875195,-0.02464329409704,-0.11253562105072,-0.136631299783,0.151218235361694,-0.11651449134441,0.0986773774550235,0.0535828763819605,-0.13882336017747,-0.15146036218039,0.15353496939477,-0.07101628545585,-0.01951218112751,0.179417965485971,-0.0757558996781,-0.06167281778599,-0.17641309949301,-0.01391269434098,0.0188391229401113,-0.03825028603892,0.0804153441916959,0.0705152833633123,0.188126070159311,0.147599796585915,-0.16245727111678,-0.09766873940972,-0.02744871515667,-0.10913894746351,-0.09556842742182,0.178204813950035,0.038667052383554,-0.08217451062313,-0.0424454569328,0.116822997439027,-0.13128952476514,0.140085188977431,0.10584300176976,-0.08422424286456,0.178375334062289,0.102612580984897,-0.03131308362537,0.0634353689545007,-0.04441910335507,0.0316456753442126,0.138895694857894,0.184760599596465,0.115966978860346,0.0367817342465902,-0.02989462820335,-0.1264624491912,-0.08680518140453,-0.01367158411714,-0.14625189511994,-0.11988833625199,0.0469079828591155,-0.17559901647373,-0.18598662037858,-0.1806427467508,0.0824017098910708,-0.14930063169189,-0.11524573354101,0.093674937664735,-0.05606590270894,0.152877154796097,0.202212554527854,-0.06828996209312,-0.17005220339958,0.183416942584216,0.157545326785687,0.182037878664277,-0.12901235549031,0.0339081726670691,0.0978527129798266,0.0277540462167669,-0.09026849522553,-0.02086485778949,0.104313651710493,-0.17629846638928,0.126132443154184,0.022465367700214,0.173667659429907,0.090742428598573,0.0517278212581588,-0.09403650980163,-0.03283515214984,-0.00638142152277,0.0385000749506318,0.137135281657106,0.1760000554675,-0.0002488931242,-0.11172759406474,-0.06793455532213,0.198670633716746,-0.1124183281899,0.00454296192593572],[-0.03472275315647,-0.14077866397211,-0.14856731692066,0.125258141119116,-0.05045702710833,-0.07141082227745,-0.01170807720828,-0.05284864784496,0.120598024823566,-0.12510775674962,0.112010421115928,0.0357847153272765,-0.12570824363926,-0.00675362375003,0.0436273314908027,-0.01206668595773,-0.11133072287362,0.135808055884895,0.170609437121997,-0.06233125268668,0.0349690977657004,-0.08036014763291,-0.19431230119878,-0.16230111575579,-0.18419146851351,-0.10571954350918,-0.08929150790627,0.00342871748539044,-0.02351611147677,0.156679906760907,-0.0406064588138,0.105821010350288,-0.11120246590942,-0.09261207927507,-0.12933370514521,0.0212765792512463,-0.04273793211623,-0.07493146419581,0.144476495985928,-0.08598929413455,0.0262269083592587,0.107024446415465,0.186676994990232,-0.17040550729308,-0.06957481509638,-0.00713386219865,-0.19438760460045,-0.02447923299029,-0.19185243524645,-0.10423036740289,0.156557881962999,-0.08668952479327,-0.07454501874771,0.157709506129589,-0.1337871317245,0.137357929788669,0.128991623291193,-0.18205043499772,-0.10991240562301,-0.05699174007727,-0.13692468893696,-0.17517261303298,0.00585981204874993,0.0236413170513386,0.154958935312707,0.0446732585663476,-0.19899075353804,-0.11118083740401,-0.11432885565771,0.0135166274083009,-0.06458937180158,-0.17114879819688,0.0264204071870141,0.122624810905323,0.148417518851537,-0.05669278161371,0.0485736268252836,-0.03595360484743,-0.13844553162906,0.00758592447229352,0.0302434142594839,-0.04244105902932,-0.04394117279808,-0.20159289786721,-0.05027701468702,0.176432261516317,-0.13063928694334,0.153508512015283,-0.20407522301726,-0.09409580110213,-0.08790317905783,0.103938635753932,-0.07657945832862,-0.16959105122944,-0.12057520187757,-0.1577054738005,-0.07843588576359,0.0445325681581354,0.117996295451011,-0.02298366843254,-0.02553113433597,0.2029339691444,-0.1944381610085,-0.19380446344617,-0.1141505768209,0.127027717679108,-0.20074788250886,0.0428397015274515,0.064248312881994,-0.16443708912751,0.050298185020965,-0.0821693340104,-0.06343877984857,-0.09297937675799,-0.20381291870593,0.113597618510122,-0.0071322136907,0.105437824397973,-0.13501492373773,0.0657705093183933,-0.12371265858471,0.0517497054452126,-0.09011616445014,-0.11497340059698,-0.19612317489918,0.159865091966915,0.041729555359564,0.0405021065370385,0.0642529749458352,-0.12259484761041,0.0800437102961834,0.19614835777072,0.109131872067571,0.0271122674722093,-0.12730892185798,0.16927245793277,-0.08070721536773,0.186560843784891,0.0251216736169795,-0.06376997174258,-0.13485782953994,0.00249852592176578,0.0598859313065185,0.0764906896567697],[-0.19504957552524,0.0151641721528318,-0.05402424875236,-0.10599051985697,0.106547887830217,0.131279681996943,0.185019318357013,-0.0208666597281,0.18424578806801,-0.05186611830503,0.0981386915953471,0.18121562931194,-0.01149038657967,0.0442942188941604,-0.11506710503526,-0.10913521121069,-0.10005685494736,-0.17842012341474,-0.01623748921664,0.155602305737192,0.0100576011228495,0.0580205981876117,0.0185641429459172,-0.08890641952333,-0.0214138428748,-0.04194491447055,0.132975210934481,-0.13022810396977,-0.04858963014237,-0.00400148667769,-0.08677598263078,-0.06358435640448,-0.0706395449643,0.0681874326304172,0.171381279284313,-0.19043471306823,-0.05021855483922,-0.20344588688418,0.0756973649553441,-0.13462892170096,-0.19863070892382,-0.01414511692093,-0.07429440085486,0.165312187932126,0.194739226832385,-0.06272052061023,0.11825019638565,-0.12426342521578,0.136341988422965,-0.12186149526312,-0.11191180999846,0.164718519997074,0.0167924092143988,-0.01408870345465,-0.04088939519311,-0.09582731623207,-0.19933434837912,-0.15820046148292,-0.02489067798768,-0.14652393210569,-0.03251177694306,0.0406817768415918,-0.02202975567694,-0.03777200000815,0.0221037981569066,-0.14010662505606,0.183793649693021,0.173519541809826,-0.12684475671207,-0.15183985236957,-0.19307172592665,0.0162674149007944,-0.02874689483953,0.193705008352873,-0.15101280938316,-0.18079068017892,-0.04501223317064,-0.04835452894619,-0.02544755080281,-0.17622493527767,-0.16946803710296,-0.06796505734782,0.170586098671946,-0.07463797995865,0.162284270944558,0.183200763744012,0.153372873445733,-0.00167213713191,0.0402352746938098,0.168411408230812,0.0255628816906555,-0.19216542269639,0.139806959820652,-0.07781440240263,0.0821453706085883,0.0807777874623423,0.0674026844165141,-0.04552916487746,-0.1762392070625,-0.19386300255162,-0.19568370774021,0.0349756875648771,-0.08838829384385,0.130294088806403,-0.17930447453361,0.164718729390444,-0.08055445275045,0.0316992424913373,0.158726295248812,-0.05734476124285,0.0393920511032417,0.0177203068632992,0.132806554807582,-0.02612481823763,-0.09612261809286,-0.05684551462045,-0.19611536647195,-0.18730386362246,-0.04731858927299,-0.14020671287499,-0.20044843096068,0.0203232563746529,-0.04511406850293,-0.11928043696727,0.161966324765742,0.169641660305091,0.0732673996454178,-0.14007364896631,0.0320315714566443,0.119577319275427,-0.12795237423445,0.0847971650372576,-0.08617769329925,0.170236006652492,-0.06585224925394,-0.06767928196955,-0.16658140341075,0.116575607712069,-0.15849224231719,-0.13837612106608,-0.03014313661132,-0.10363397437869,0.117458752979443,-0.11319167334781],[0.0922626806024023,-0.0530227215409,0.190344441552799,-0.05914412428709,-0.06749935785221,0.140905511743845,0.137093443549194,0.0139371783192264,0.0574379408798268,0.189597574901083,-0.16127419279602,-0.05095093944507,-0.0077025746244,-0.07689660540063,0.0579935574793168,-0.14478614950859,-0.11544026651815,-0.07079162899178,-0.18693267719154,0.155489210588504,-0.13891179186629,0.0950788665814556,0.142767613568589,0.0223695386790496,0.190234424922971,-0.190065495248,0.000287513772199852,0.000538235760406633,-0.15402078340952,0.0930914865232659,-0.02169703433285,-0.09252993785404,-0.15734315514232,0.135427005614922,-0.02680903764332,-0.14496813258061,0.00356767170846939,0.18985075294687,0.0844793366295298,0.15143158408765,-0.066838388129,0.0675793733219889,-0.13894451581415,0.1359526459107,-0.12025883096869,-0.10353130571832,0.158603346787375,-0.15792702884416,-0.17211408644378,0.0329589324379062,-0.11378197478128,-0.05681069392551,-0.1702570909121,0.144279849865883,0.00362048519483363,-0.02458552959466,-0.11788825597918,-0.13402140880028,0.172370225036803,0.117003578781833,-0.06968761955853,0.00672010886389362,0.122247787822957,-0.06375313837536,-0.18336139545781,-0.04812139593154,0.0426867808084836,0.0286615809592743,-0.04095579580305,-0.0135422179242,0.0534077397007808,0.1700263198965,-0.11196045332808,0.131284089244224,-0.08199113677283,0.0690773894460686,0.0533166190662086,0.119186037962635,0.036780364812249,0.201662552488152,-0.14657309015137,0.185977752565768,-0.02598994141549,0.102246283328044,-0.15992701822892,-0.02016301487514,0.14359432759074,-0.18488734012313,-0.11225068636161,-0.16837606658221,0.199670366662058,-0.19142243799495,0.173455833153621,-0.19696569415006,0.171647923868599,-0.12584310612787,0.136889340925459,-0.1169528295155,0.185636202845804,0.0163466599607938,0.0543838586692115,0.0826260943184084,0.0289175947601956,-0.17138642854462,-0.0708892213862,0.105651988270843,-0.06855332315468,0.0181729873747471,0.134531988786107,-0.16564858531186,0.11536157639621,0.128686739008354,0.164966420777236,-0.0654839741523,0.0015514630996333,-0.01400901282022,0.0535526931258917,0.19378897462235,-0.01667094108277,0.00122393986393211,0.102757551885308,-0.02846447474557,0.0594797320525141,0.116695335542614,-0.05572430198059,0.0256211272577371,0.0188864488846023,-0.05751367689715,0.0794359520903562,-0.14700034020317,0.188521379760617,0.100579251979712,0.0866350933358397,-0.10949469205436,-0.10513356168082,0.0418958477916224,-0.10250403590704,-0.1764196129104,0.136329717196697,-0.12850242536007,-0.12444019085177,0.0964968263185909,0.00187932173218012,-0.18019153367519],[-0.1849871398814,0.0293268558511445,0.156424767433488,0.00884897524412801,0.0827864942489549,-0.10086914103469,0.104321192422033,-0.18916719872243,-0.09425864414667,0.11182785585726,0.193119952596759,-0.1844133688372,-0.15546032168678,-0.03337947374637,0.112295314224283,-0.1355974327605,0.0878456902622077,-0.19815740249461,0.169441031510978,-0.0628665452259,0.200453678761876,0.124858109316021,0.0617676458689096,-0.17391330723166,0.113813031910657,-0.07286235495913,-0.20480823520393,0.0935579737017362,-0.12387242095509,0.18644413827194,0.0378184182135225,-0.07771852199911,-0.00598250175695,0.110671657558022,0.176642729181817,0.14358302351468,-0.09245883302595,-0.17525247041717,0.159725624583839,0.133348517663675,-0.12484581317231,-0.05884642879134,-0.03064016246277,0.195808881312499,0.196651207920207,-0.02542035073365,-0.05565743657188,0.143273760288507,0.0455557065214201,-0.0918406686988,-0.06569086099982,-0.17349288173022,0.0197519465203443,0.167300412610524,0.147835071889831,0.188884013322604,-0.10369150368604,0.143875063549951,0.187373886663835,-0.13129317673036,-0.12646570164801,0.0477026140362238,-0.05077887158176,-0.09688175659417,-0.12737301632987,0.167733190980286,0.154506727588473,0.12730557420113,-0.14175342699713,-0.20085804962833,-0.05312228406443,-0.17632364160101,0.0890775965318419,-0.08642817724062,-0.20052988344279,0.107486996078207,-0.19262654287653,0.176789191449371,-0.04660491287179,0.066151520147637,0.0611811608607567,0.162914990377854,0.0576606528076782,-0.14212660665528,-0.10899990274989,0.0619579141474316,-0.00847013149957,-0.05100216725613,0.102319768764756,-0.10590978145065,0.190140180437745,0.0865636331791571,0.13816100592088,0.0485719056656399,-0.08288630238795,-0.08952763702459,0.198723514420432,0.0501523295146732,-0.1153677250862,0.120370706757442,-0.18149051909776,0.027765970326691,-0.12652082058714,0.0860914246280934,-0.15730372255319,-0.13810399092306,0.055715586193428,-0.10015577100702,0.118774954904088,-0.11666426798375,0.160690838571513,-0.15426916905259,-0.09479794181737,0.0975594806405594,0.0844887176269409,-0.03924171969358,-0.09131411383202,-0.14345688383841,-0.04472722354523,0.0666183285566098,0.0470705984943144,0.19516867803186,-0.13092807656601,0.170333993372429,-0.05134926087829,-0.10234569449327,0.0510306805843679,-0.08519812447923,-0.00921639630116,-0.06418038538728,0.0657393063902805,-0.0612083510774,-0.03714291039083,0.0956200652954548,-0.19849009790052,0.134187926650881,-0.00471945956393,0.0762376419860982,0.114925590026387,-0.16371895661692,0.121570845681549,-0.09777731875308,0.137569812053319,-0.02104426826309],[-0.03244874255421,0.199975277356603,-0.19814211016253,0.00799952232628552,0.157447350383403,0.123235078227595,0.167277140343679,0.129950936101622,0.0138438279563142,-0.16476002768366,0.129095557654284,-0.17339583533382,0.0832689062725866,-0.07997796430488,0.122070007353064,0.147662120560117,-0.19211308702084,0.00940061364415412,0.149224504056293,-0.00982230811006,-0.12164251438942,0.0811365711079983,-0.18046848099037,-0.19243114370683,0.152488030203651,0.15541659607124,-0.17578063481004,0.148203919451483,-0.12726907260673,0.0855802987235752,-0.10276199066401,-0.10300840015519,0.138543993820826,0.100797501488177,-0.04918309513954,0.0861919130690518,0.146002030306757,-0.19488767642509,0.0390711810867211,-0.13296359754678,-0.07003061684667,0.0209677677292746,0.0138814077444639,0.0904532943266883,-0.09495787422322,0.168005876998747,-0.11292380504934,0.032825089903966,-0.17130648057482,0.116010836396585,0.0161971538350631,-0.06354633809686,-0.11373431439498,-0.16226085295255,0.17160464280901,0.19125415730952,-0.05332891992023,-0.1403903153599,-0.09905317803245,-0.17174137665379,0.162332591131746,0.00118966416454563,-0.06173617539219,-0.0741449248048,0.179212582352996,-0.0938023081173,-0.18984338442951,0.0824646854555232,-0.19603031616946,-0.02200163201573,0.121127587203702,-0.1824231474211,-0.19162506651038,-0.09798169144664,-0.02292346623347,0.0789206745312526,-0.1346702582722,-0.15279825253398,0.103150928075772,0.15571932041519,-0.0988731084139,0.11344733138825,0.163345001339508,0.186449801509148,0.0660900228102755,-0.11629840857018,-0.19210821133557,0.0413476983103161,0.186137931434822,-0.03255430359434,0.182483875862283,0.111724113615116,0.180124477080042,-0.11042828279746,0.166260995932281,-0.01322455238981,-0.02612317330036,0.1304865591008,-0.08217441092204,0.195638516760936,0.0750239627629926,0.0119414270845384,0.146786543102879,0.0885689930628454,0.196440252518591,0.0671459547521527,-0.15150242412207,-0.0561122672606,-0.1731101252032,0.0480384415350796,0.0946594309116821,0.0913890950573015,-0.17111496528023,-0.10959744118385,0.154325256152499,-0.05789973800195,-0.11877803168763,-0.03277835465811,0.100237821715533,0.152585227594061,0.196084726186264,-0.02483566025576,-0.15939546829795,-0.17217909501855,-0.18690553845767,-0.18503941192159,-0.03353516805969,0.0872330434334422,-0.08529719414475,-0.10286097972144,0.168378135561475,0.0871372114035834,0.076273573503468,-0.08571090162524,-0.03855400201899,0.0784991040403386,-0.14300592653117,-0.07678369083157,0.0647382863130524,0.131262253905678,-0.09099371616026,0.0305770412887542,-0.05606190983563,-0.0876678075746],[-0.05182791206385,-0.12479644884489,0.176485827821429,-0.04462579642337,0.203519922670499,0.0864566569525037,0.148417973669394,0.0196832747773276,-0.03261447714125,-0.08069465584374,-0.15898438256073,-0.03316220118077,-0.06012100832663,-0.15526471080952,0.13396085017039,0.176910566571872,-0.12382532471291,0.114991604107544,-0.00786348206439,-0.11366884466062,0.147872160399555,0.201379736797694,-0.12530640745646,0.0312836875246254,-0.01327312459752,-0.06097417980514,0.0289470491256215,0.17043047685529,-0.07530003760097,0.186963029039134,0.152146374129954,0.0912566147523476,-0.08056838146681,0.00059509670885485,-0.20221384614905,-0.00678523065116,-0.08394057919984,0.01943554748517,0.0703821452413978,-0.11167033744617,0.114870330731499,-0.08120752766985,0.0963574971055522,-0.12072907302473,-0.20349420186196,-0.15546513995862,0.0359226133427196,-0.11103842539521,-0.18782086066749,-0.19407348743296,-0.15695952733628,-0.19383731441825,-0.06187849633622,0.184295960644518,0.103935794498508,0.0472773783666771,-0.07376170244369,0.160789351920133,0.136754999063798,-0.01746647674229,0.103016474974672,-0.07216664369061,-0.12838976910358,-0.14249622746287,-0.0685159689847,-0.0911468819289,0.177095584563705,-0.04867985488127,0.198355013666353,-0.17398304783337,0.162899623032695,-0.20036448855281,-0.14946518279354,0.203130057505579,-0.05151925560161,-0.11154867530557,0.0018793401586732,-0.04187614369253,0.0655199793866998,-0.19493405704194,0.123896224544476,0.135916253292257,0.0223192698448529,0.131938337084607,0.112750421814546,0.176322403971355,-0.07266459037948,-0.08775520257858,-0.16940013811995,0.0651851300558487,-0.10816449778415,-0.17762716810855,0.156476297794793,0.01573670627216,0.049158974788577,-0.17565461624401,0.052937368151482,-0.06292066710611,-0.08587846084779,0.0860473377458108,0.186109089186741,0.0611527333540273,-0.13850661978995,0.0240952050321859,0.00360195754202571,0.057410108548138,-0.1923927735101,-0.05417680851517,-0.03601087494329,0.142144319347337,-0.15229704366702,-0.1893212686665,0.19591886883506,-0.00514044425885,0.0488955091714384,0.203471094265242,0.0163721905132124,0.110527069205639,-0.1365061044552,-0.14250694051459,-0.03688313733403,-0.17987491894461,0.08469853737375,0.153423759059753,-0.12081742110554,0.0701783096735725,0.164529313879613,0.166497488839792,0.115358330805458,-0.06927978112161,0.061788871474634,0.13538429787973,-0.04282983679191,-0.16491172011354,0.154709129176214,-0.17725388676219,-0.12887191035255,0.0617709011849162,-0.19697615153541,-0.13456427245639,0.0159982939449843,0.192339787691315,0.0431901171951281,-0.03687584709394],[0.0958610845883452,-0.00414016108442,0.183501438418559,-0.08711644202863,-0.01681780372189,0.0643782726792541,0.099897997924551,-0.11104638032422,0.18954056832046,0.0605773719053256,-0.04980148751086,0.00508992328273571,0.0730294659370064,0.0919231621441738,-0.13969825765442,-0.04175091109421,-0.09412263091933,0.125159144599727,-0.19329863638975,0.182328048366284,-0.14803642450024,-0.10912620776953,-0.00387537597002,-0.09444497278718,-0.05367546042564,0.13094624610282,0.125466991286506,-0.0774519753744,-0.09166640070543,-0.15742178235846,-0.07750760688917,0.0284935765663795,0.0510326761461228,-0.03086013137895,0.0430561508903695,0.131151121922695,0.0312751125251794,-0.07426085273585,-0.13014840511766,-0.03988298433436,-0.13185336227479,-0.08172446963984,0.11867566537003,0.161117907965466,0.0888697875435365,0.016759263407837,-0.15794527837033,0.192521086484257,-0.02426625809081,-0.15335656313548,0.0238571129304643,-0.15346136926612,-0.0016835930593,0.0339154873438215,0.0914303078422427,-0.01851709720131,-0.02108357271525,-0.09883098115567,0.0610294340970369,0.0755619929833671,-0.10690374399598,-0.03956031769765,0.180525883801713,-0.18261352893029,0.113267163119157,-0.11838231638099,-0.03174184159059,0.12110670431086,-0.07731312622888,0.0425923665569234,-0.10318574441544,0.0328165786619519,-0.1830851241519,0.0457828015476334,-0.06647502625638,-0.02215827040768,0.162573482022523,-0.17683819480255,-0.00897380652644,0.0425518245552616,0.173735294454867,-0.14086152820349,0.131041751774475,-0.01408469703202,0.196897564215943,-0.16364637802797,0.0609594462641776,0.13241558040484,-0.16722227693669,0.176179667945299,0.0809874179371614,-0.13071698011877,0.123341155016635,0.114877270114164,-0.1531777322472,-0.13283115614973,-0.15592189531185,-0.16525491501883,-0.00105446199494,0.0267710021306482,-0.07697557135398,-0.09069550128793,0.100995242337301,-0.16053708369406,0.00250930444081482,0.120684763238458,-0.11208425461245,0.0349520656373532,-0.02443065259922,-0.19850001603604,0.0563142889768306,-0.04948415183811,0.12888648705253,0.0364724700808069,0.121223709480048,0.12676351868593,-0.14189328863754,0.0746092902425245,0.00153965532026908,0.012875100845572,-0.00395401659891,0.0233775668905221,-0.05008886443808,0.0923512280318422,0.0564463566264631,-0.17142754161661,-0.07610442723047,0.0687099146912436,0.0122139219224524,-0.02803640315145,-0.04373805196576,-0.04499972118814,0.187393346164624,-0.08994482545269,-0.08948986945555,-0.03238924162032,-0.13652732419298,-0.16138500093324,-0.15465576664488,0.115317252945535,-0.17233247476057,0.16354547856831,0.167953619115665,0.163602894794358],[0.124684649317085,-0.11040739003315,0.0717888685703526,0.105076888001862,-0.09959207841279,-0.0883875499818,-0.04663636486058,0.0554390887141512,0.175188416619212,0.177819290354665,-0.18478550875436,0.190039908039937,0.168775650493627,0.153542388036558,-0.01244983040583,0.0970197747591487,-0.03619090572258,-0.04604137912275,-0.19094892332784,0.0144926597409446,0.0371481385231034,-0.02431019651421,-0.1636861049605,-0.12445450467301,0.127516039003592,0.0544702050706403,-0.05750980276093,0.118676526274591,-0.06651402122219,-0.09289008834883,0.0763377299582252,-0.04190115003076,-0.16259177480508,-0.0749847320895,0.120480866931319,-0.19058834587627,-0.04088533085056,-0.022662687745,0.146610626862972,-0.01490401058658,-0.18124559618348,0.174359880951181,-0.08094496783583,0.14517280995769,-0.03317258351647,-0.00918046832218,-0.17707501271378,0.12698675019929,0.140413367491458,-0.02470507301378,0.167343613985285,-0.10328094500474,-0.03310463658948,-0.14172902674989,0.0301174417197373,-0.20142121475136,0.111953394431805,-0.00444786627271,-0.06490468539776,0.178648113537249,-0.17234316474656,0.0658398575628674,-0.11070074172284,0.182605289900329,0.201073545610819,-0.0294705493329,0.0298350991151187,0.00870322978820205,0.166732657820281,0.0816653238119938,0.022744928015144,0.157157206207651,0.1482379115848,-0.20283672614332,0.0382244816786059,-0.10776167844659,-0.1929545541793,0.172685961467677,-0.15263538671694,0.15474812191944,0.139685422549331,0.180275234281899,-0.03442561321862,0.198271404907479,0.134948496919143,-0.03628428689506,0.0833721869396967,0.0863817073434233,-0.14201153199408,0.0955580408775404,-0.1188975409756,0.0881153853730948,0.00722546475841474,0.0310106233057135,-0.15852144702408,-0.15405968547628,-0.11323832649784,-0.00295190661437,0.0254513763860919,-0.15247494677972,-0.16494981854879,0.169674143288875,0.0816923439352474,-0.0615150774632,-0.17446685226637,0.18299030152177,0.0418577097646168,0.105447424469155,-0.16623361812994,-0.03376459652447,-0.00537432908281,0.0462240610714785,-0.12971648902597,-0.17105597904406,-0.14778961187567,-0.16103492374403,0.000481460662011372,-0.07837847544812,0.0506430229747001,-0.19428300240813,0.174294140997069,-0.14549251561811,0.0764880364315432,0.0378247642772224,0.120644855381058,0.0260680432553057,0.122649837849035,-0.0754883777874,-0.04057386536478,-0.10955298781592,-0.01118357814207,-0.11825317540142,0.0681171973423623,0.0233320080811393,-0.09964905258776,-0.12174867943214,-0.08347884517484,-0.03759685646377,-0.11307352355382,-0.09542055901815,0.202013121143048,-0.14224912974925,0.064657023858879,0.0500980398840836],[-0.0436271183692,-0.11994872325258,-0.16676463545231,-0.05063140103334,0.0339886264632127,0.168316343059792,0.12410969925704,-0.17272886086982,-0.00952440758445,0.0949661335264156,0.0475624622130483,-0.17941083519829,-0.17887005876144,0.0978696785519208,-0.1829027118457,0.0715555237203634,0.119757217332685,0.0830180773082918,-0.16652148877376,0.0124433876712512,-0.11287868007097,0.143657132514755,0.0843974391549024,0.0660315982182693,-0.13680778291438,-0.17199136071846,-0.08398332059789,-0.17496340740408,-0.03383639385478,0.169469469622101,-0.14608348921344,0.00964338112487491,-0.15384442332335,-0.04492197544634,0.000692092107294789,-0.17643233773401,-0.03004456032522,0.150022380728994,0.135019718812164,0.144486179771624,0.163370202465613,0.0320844573145343,-0.16508818237929,-0.01410023532337,-0.02133069158136,-0.14141179456151,-0.11488151064699,0.153938940524734,-0.07471482703243,-0.10524461954125,0.169468616774465,0.0283229500538376,0.0690942170411387,0.199193432448772,-0.15408227469088,0.00827843262886511,0.126666861715214,-0.12988056312581,0.137150459740605,-0.04620307721013,0.0845917467688091,-0.09175282954171,-0.20017597328631,0.170635742906358,-0.01215899437403,0.173814374866827,-0.14466408586517,0.156555266696039,0.184159471686117,-0.17083682707721,-0.14639373126246,-0.03731706212709,-0.00563192023167,0.0234376795499605,-0.05572700030526,-0.17854894180716,-0.01707424338373,0.0628542962827912,0.136152767860449,0.124803261350266,0.0126107270085291,-0.20324393239604,-0.11933845211828,0.197885101850912,0.155631146903527,0.0210789908578247,-0.16500631245972,-0.15733020073531,-0.11692960885091,-0.10920024593429,0.0405413388622721,-0.14571150862287,-0.10158259862542,-0.18173244455911,-0.02458688182119,0.0838735589219547,0.165196995938042,-0.11686559562529,0.149620426864757,0.160737134538497,0.179081961988309,0.0271008920985618,-0.0301881335083,0.14092397526645,0.034063143625363,0.00703686190082602,0.118243168399566,-0.13747390793829,0.0579173892510473,0.0494758395343099,0.0483612829189482,-0.11372450456302,-0.02689344512892,-0.00164227579779,-0.04751129754015,0.178537502748945,-0.03095990764938,-0.09075789076306,0.0777543410076552,-0.06928715742959,0.0468693439119853,-0.16362974335793,0.0275230087833443,-0.10119359597368,0.194484995330313,0.166820966207456,-0.12646078766886,0.0503670770702511,-0.12131522996327,-0.01182802719393,0.163522026597978,-0.15752117632985,-0.19418049538237,-0.09945897781429,0.0355417524120895,0.0375323746005123,-0.11173953523898,-0.01291285794701,0.149593857306702,0.0120673135300198,0.00885247944910701,0.135325886083396,-0.03238151027142,-0.04237981486876],[0.180908079392172,-0.08694484794171,0.117311464147662,-0.04908044502744,-0.01482787102975,-0.03325341097433,0.0968282341402348,-0.03401667892356,0.147117488420431,0.06266895943556,0.0832705574978128,-0.0405170638613,0.15788294478828,0.119054815880707,0.124219878672079,-0.09376581102913,-0.07484403936888,0.0381331981483098,-0.0437704286856,-0.13133565654313,0.189362134442512,0.0196156171934205,-0.03380054819798,-0.18015804265667,-0.14333664378055,0.127496352995612,0.0736239094519374,-0.19090421262829,0.139677960603634,0.0605253774115436,-0.17802552076832,0.0619207743603622,-0.15256723533392,-0.19281780848789,-0.10125439377859,-0.08536253448506,-0.14410073959958,-0.00265257849937,0.106775312015269,0.115593022914028,-0.01104838368887,-0.15770551768698,-0.09097097021066,0.0507237921772616,0.00548383923880108,0.149210016464615,-0.08004063172298,0.128881909692747,0.0592741184300197,0.0920554853205587,-0.18901944006477,-0.12264147624972,0.0759408459260576,0.126423519572566,-0.19906825848835,-0.18655425803695,-0.01266220179819,0.128501372244175,-0.06164515978021,0.00491881615843196,-0.14701101138438,0.146455359813593,0.180016969277092,0.0825705158665263,-0.17262213088203,0.110724183754208,0.197896745512585,0.137039626553379,0.0430465138510319,-0.19113878936636,0.149535558912609,0.00719270038091159,-0.0408841990222,0.123863947801184,-0.15600727496916,-0.10498033905038,0.188682804618025,0.138066162853313,-0.20074267695454,-0.11830794505951,0.0490819907861018,0.0358973415090633,0.0154480974567751,0.186639680136057,0.0113450723705241,0.058653244946343,0.188078077701447,0.0222032169793239,0.0509707568859521,0.090616417319497,0.17642367741615,-0.06592242781666,0.089764568346009,-0.07917524981636,0.0630878167125191,-0.08374477226771,0.0685993904416533,-0.04131907285271,0.0558437478553635,0.176315534733851,-0.11665396683635,-0.00702864256206,-0.1583836456724,-0.06714770840292,0.122182534209155,0.149309708282602,-0.054802912405,0.198613453426304,0.00264595976839715,0.106339420778774,-0.00083505890274,0.192925982007145,-0.14213886218335,0.091152659358573,0.114234363808988,-0.15812845614967,0.0765701712248471,0.113915836779788,0.183082301437028,0.11695118557564,0.119791021759856,-0.08913780222497,0.0668115434920783,-0.08598083427443,-0.00850473041747,-0.0080317366853,0.11551987754919,-0.10562128004521,0.0253617060383252,0.0596836585346092,-0.07886470311812,0.0627523638317749,-0.14285609511937,0.095420242642473,0.189444678505155,0.191481628049186,-0.09389075533257,0.0257688900571849,0.0722630167229762,-0.16430490708541,0.00346488067190425,-0.10727271274517,0.0706280592279115,0.0737470117951762],[-0.18885455241132,-0.07918835761055,-0.07838142359198,0.116343645956613,0.0285877532433334,-0.07579134809015,0.156524964086322,-0.02691331793905,-0.09885249574391,-0.06076419047356,0.113609265572932,0.134360629559309,0.180396153453198,-0.06872352741591,-0.00878809565086,0.120513108207208,0.152240685952563,0.0550089473646784,-0.15125148552914,-0.13577240024946,-0.10122205614517,0.116790104336599,0.102151428385845,0.0367744788927785,0.0646611915561152,0.0888268241482209,0.139008548595648,-0.19902223838814,0.0382398021933842,-0.17413700519281,0.0117811332920083,-0.08474309468313,-0.07096843702778,-0.02506730914954,0.201734885648052,-0.15479540748943,-0.09449946733757,-0.00856652633361,0.000602780842266748,-0.14161974807075,0.0853836510500761,0.173106509531769,-0.03413684692078,0.178220646348975,-0.10449948223524,0.160187415628192,-0.15264562006538,0.118990108199123,-0.12538625162008,-0.02081725638653,0.116011872133059,-0.08663520908788,0.109192307278851,0.130800110946861,0.032728486587002,-0.05017652050351,-0.10711619792437,-0.20045141193798,0.193163685800188,-0.07885000638623,0.179115397981004,0.149711958922892,0.0273363780255763,-0.12628019307976,-0.10161227551784,-0.17630260873626,-0.06669063134487,-0.06793186366489,0.100834012294782,-0.0457184088899,-0.05373255814658,0.0044176426619547,-0.08490857171554,0.0940410767145388,0.163493915897808,-0.01223598893594,-0.02174138249138,-0.1524908877129,0.0695349410925641,0.126661692253548,-0.10348935688027,0.0207167978499751,0.135207449855656,-0.16158784462863,0.0713343852067087,0.0712333720783589,-0.14909620819345,-0.19135565305851,-0.18803299383033,-0.1212975473736,-0.17108954618702,0.117566722877312,0.00259769672674111,-0.07366091856105,-0.12420005916742,-0.07565997694007,-0.00803150328715,-0.1435245747799,-0.16999912741257,0.17081002428966,0.0966264087006653,0.00106234946336601,0.196723162718902,0.00207814896404159,0.167555948354039,0.0371312961628999,0.117763280336334,0.152506114623752,-0.09683906225584,-0.04053169502128,0.00996554728199384,0.11957847834624,0.113648524317391,0.155977132883217,-0.09833821343437,-0.05182277261587,-0.03657520099518,0.142434946088978,-0.09079685665339,0.0569101874170911,-0.05231317424116,0.054089034091232,-0.16160002934617,0.0660553017029968,0.188651421024461,0.00659409036559086,0.034069110343035,0.203056081490891,-0.19100022014176,0.137521283502485,0.0906772644908924,-0.15673552192757,-0.06351158396489,0.0358684763711505,0.166466174493697,0.188011487483839,-0.11608468436658,-0.15234782073072,-0.20187092651459,0.188819479169498,-0.04691310527545,-0.06946051520371,0.0858880780133054,-0.10103953612836],[-0.04932579413884,-0.13007489120802,-0.02768208978406,-0.01734345910313,0.0227037327501755,-0.0427428698592,-0.13306500583811,-0.12142260896999,0.165796833813866,-0.01841566235513,0.173067376311096,-0.08846882540709,-0.08401101727008,0.0543364095615558,0.193643738628493,-0.06180820246367,0.100694992974504,-0.09127797850897,0.195363041396333,0.158602365251929,-0.04065766200843,-0.07485926127468,0.0298604342475704,-0.0839525557981,0.0928300830619802,0.0751994524087323,-0.02432259493683,-0.06897924225232,0.0876693211353487,-0.1842051886507,-0.11243080921697,0.137624935838158,-0.06457463324571,0.0352907455401915,-0.16550004800446,0.0453406684956135,0.172881120652911,-0.08844290751305,-0.05951833522777,-0.04416913252683,0.0480419992396494,0.0449477639070673,0.1477608533088,0.117151519352292,0.0588864297643684,0.0290063035098116,-0.19419242221929,0.0329976687353421,-0.01351485931782,-0.17080847793417,0.0928180684091953,-0.18369358764656,0.00452446622711174,-0.05964982134756,0.160886843590386,-0.15693600887121,0.165059481319117,0.00939696285198893,-0.16916154792241,-0.00842042435544,-0.159049177228,0.118425337679255,0.194275031869204,0.116645813408442,0.177336426945642,0.0158126882771796,0.1818156566967,-0.18725974778092,-0.18507695568011,0.175022966217286,-0.14264712637522,0.129284287725935,0.0718013041410106,0.111521814088634,0.0292513806587712,0.035585425757755,-0.09996365032716,0.158315058194107,-0.111592761563,-0.03847031297278,0.0931869088907982,-0.2035443414896,0.00393873513819051,0.142917588964321,0.00189178734895195,-0.19369582960595,-0.19208500070146,0.103544632289723,-0.01159322686476,-0.19956061861839,-0.16243558843875,-0.07507066661913,0.151039936578152,0.0246688637984899,-0.1249677199547,-0.18815728592532,-0.18281041512061,-0.16713217796971,0.038922522537858,-0.01037912626294,-0.11953946146588,-0.12466871488827,-0.02750173905039,0.11507825144746,0.145512567770851,-0.06700061479328,-0.16603126925292,0.181886232430525,-0.19436632918326,-0.11722929113603,0.203785182290759,0.118810968029297,0.0815053052917497,-0.19183370076703,-0.11806827796961,-0.00517607840141,-0.08588288199881,-0.03148114526861,0.00864688931255872,-0.08608351841764,-0.08565058862175,-0.04111368479713,-0.08983288135677,0.0288879865514587,-0.11905607231846,0.0523466355829641,-0.08647582198484,0.00577887671973155,0.0833139689531419,-0.00631987083111,-0.19517914246867,0.123955101918099,-0.05008606407812,-0.1748806176732,0.191975991553863,0.178220795660202,0.0812212080848091,-0.07551398109618,0.141233299439546,-0.09862666763845,-0.18895893539546,-0.20178914312064,0.00865722797479834,0.101009704990943],[-0.12697501122542,-0.01286972055403,-0.16063808071211,0.186200869233007,-0.18523450770371,-0.19889864834232,0.162828283192653,-0.05047751074127,0.192000798900017,0.145854218268746,-0.18732199135263,-0.03450400900877,-0.17864608509789,-0.17506574511603,-0.00553718132766,-0.13265919740053,-0.1106240507623,-0.15289920623267,-0.11639467487299,-0.19645834269482,-0.13719915833556,0.202280360356536,-0.04616386237337,0.141601155809407,0.113543941368546,0.0202214508040242,-0.08787540671601,0.00275658961309717,0.174902835845713,0.17793442128386,-0.16357542811842,0.0828239506026686,0.0510377966134484,-0.00683762458201,-0.11223506373785,0.203193286995327,0.121255410058514,-0.02921585982636,-0.07348466391849,0.167553919555255,-0.03396789040771,-0.05096997174408,-0.15671294456927,-0.1650323844664,0.0901359122864189,0.165255486543367,-0.08341168970197,-0.09989281593174,-0.11254511249583,0.00826629096934435,0.145823147244169,0.146461685405543,-0.04771686012566,0.0127677655513997,0.013048878156406,0.121091981902331,-0.08779241166515,-0.01162616589475,-0.05165271621919,0.129602436803691,0.168178290382103,-0.05112058228184,-0.19497815197986,0.134365613736724,-0.05321219462705,-0.1944653353127,-0.18204868708604,-0.08590208746425,-0.0279050140956,0.0806297711037584,-0.01312109236128,0.174118777294327,-0.04278349534883,-0.01532641575079,0.0383351536010873,-0.0807092389728,-0.15453358456181,-0.00702715183011,-0.12636951578761,0.0598950929199046,0.0703328431209882,0.0865326394147007,-0.13578263456516,0.00790113434734047,0.203378546864291,0.122073507908433,-0.17566625124284,-0.07637051638615,-0.14734885386476,0.130588949700061,-0.06171551486416,0.13073276188198,0.144062194413951,-0.01103394116816,0.0116935702958335,