{"beta1":0.9,"beta2":0.999,"bp_method":0,"clip_value":10,"epsilon":0.00000001,"layer_structure":[144,30,30,1],"learning_rate":0.001,"m_biases":[],"m_weights":[],"network":[{"activation":"LEAKYRELU","bias":[[0],[0],[0],[0],[0],[0],[0],[0],[0],[0],[0],[0],[0],[0],[0],[0],[0],[0],[0],[0],[0],[0],[0],[0],[0],[0],[0],[0],[0],[0]],"weights":[[-0.00833796695331,0.183217849781303,0.0679497743699421,0.0982438311318932,0.182592458745514,-0.14681278797505,0.0164456941679778,0.0121890025461729,0.0159881883839056,0.0316004458237052,0.0533382845089018,-0.06550346689777,0.110167044795235,0.0953627384663656,0.0739969450252401,0.143172015815386,-0.01584115254304,0.121556460922596,-0.17952839671137,0.14426322995621,-0.19171275052404,-0.14721355740841,-0.1977414369326,0.112263817852921,-0.09081688655673,0.186292566390073,-0.02279593918919,0.118789275448003,0.149582371123964,0.0238412625735241,-0.12203490739301,0.0391153151987146,0.0290037148805203,-0.2024958266678,0.115649814078373,0.128648591145682,-0.14370189357737,-0.17970682042192,-0.19233628821963,0.164713465152512,-0.01622589064618,0.118931782162827,-0.16843792254161,-0.14156860710941,-0.01688347029234,-0.04195791500894,-0.08820341683791,0.135044322098642,0.062850663553119,0.0630052273813354,0.120056788837992,0.0990385977847255,-0.03650143194671,0.176581413392286,0.0924127903150776,-0.04294313189519,0.128223399904668,-0.18152401065294,-0.15084749791224,-0.07760548076965,-0.14335884669183,-0.01656327133823,-0.11505075631069,-0.03001862351556,-0.06580775708717,-0.03107498081676,0.182855435212143,-0.10759862438678,-0.01053349971966,-0.00792211067213,-0.02356837845046,-0.0622688669423,0.0856982225985807,-0.12889060196915,-0.01772613384435,-0.1042908976559,0.131549979921096,-0.15358750938782,-0.03744617170549,-0.07658398443645,-0.14297037039234,0.0286894777615174,-0.12112013025397,-0.19645500247062,0.165161751459578,0.0223262230959272,0.117222470358547,0.112556920239328,-0.03518112928,-0.19091447437487,0.178955580373177,-0.01292633099768,-0.18771321110429,0.116158284906276,0.164502466389852,-0.0990739764834,0.118212739558753,0.0339298402869211,-0.00161947367737,0.171300733397493,-0.04108560720167,-0.15417140709235,-0.07041614424905,0.0108180803509278,-0.01482353745379,0.123941358129315,-0.10326513828244,-0.11404439324226,-0.05161587997379,-0.1925017711531,0.0747904994797016,-0.16874984152927,0.127042525137483,0.0607336732537765,0.0284334875061577,0.0188588851542524,-0.02572045476762,-0.07005349728097,0.0798938781316244,0.018448705004905,0.187642048058646,-0.08046577842885,-0.05386275154223,0.194622474340609,0.158696899118383,-0.15216409892696,0.158202460665025,-0.19399081296288,-0.120200594431,0.0261224126883132,0.183165273745757,0.128214576668619,0.0524758231995683,0.199310762775627,-0.18465453825037,0.10802767622987,0.103949578008197,0.186756191507539,-0.17841694665214,0.161823541423191,0.0060662982219222,-0.14634844584631,0.0536699968480176,-0.12672886742625],[-0.01570770294048,-0.1027333037623,0.0108847554970645,-0.14349488129052,0.125730396447226,-0.19185456076438,-0.08859126726478,-0.05197031975935,-0.18201229073899,0.00585983957153549,-0.14893280705891,0.0558812925875168,-0.05364770982028,0.139137482734902,-0.16673619807171,0.167865825600969,0.0618821940400662,0.0807085384856135,0.105580783816055,-0.12897584895479,0.167075530331409,0.17695235812543,0.139954434786191,0.176076054643781,-0.11545737237724,-0.12506641550309,-0.03797917208758,-0.12194773383309,0.11752653145072,0.0353457312012448,0.194873147044554,-0.17980880846973,0.0851180267214091,-0.00104329908904,0.064447168428389,-0.06159966684255,0.126565718447689,0.0739057189197516,0.174838697714419,0.119876782967073,0.0494272012836022,0.0998809312093313,-0.16751536945454,0.0545165381107693,0.169663483470386,-0.05281917301476,-0.02289440038586,0.0948925886052086,-0.0124296627698,-0.12955426784827,0.185660271228669,0.0373195510409349,0.162164922353107,0.148200394852085,0.142831240405983,0.0209976903139598,0.180491407113353,-0.15549577804461,-0.11016758927798,0.0496334598188031,0.0945347846442718,0.103727952070892,-0.06371328606846,-0.05026447444016,-0.16054162158543,0.0863745069915316,-0.18217256521781,-0.03469318347783,0.0634517072093317,-0.03230173608247,-0.20406129013674,-0.19341952512111,-0.01700519246753,-0.18326757441465,0.179514212197779,-0.16382539346382,-0.02857857783182,0.137738634047288,-0.13496020459033,-0.0895623721895,-0.05474057310729,-0.03025941098624,-0.1128945328256,0.0963783965493832,0.0497830557205415,-0.03929886517309,-0.15990682607439,-0.08115992953025,0.108066996983356,0.186017860627479,-0.16689677666472,-0.11555692813871,-0.16640841105361,-0.05154044086935,-0.18027353895565,0.000109821574164309,0.0614176452549873,0.142275028826911,0.00874300190946145,-0.17034636406112,-0.09783347911461,-0.05026271714963,0.171741393946532,-0.10155010004606,0.0163689806733618,-0.04932207460481,0.170220807844396,0.188684644652616,0.0215014173465154,-0.02097458729024,0.132148284100143,0.170655773826667,-0.10248252936713,-0.19977283023024,-0.09187168737278,0.0955515543183993,0.108905658383504,0.0546749341590976,0.0399185337202594,-0.00669703023634,-0.18535080863183,0.164654445386652,-0.03490584325456,0.172350792421963,0.00810752235886819,0.0767651044643651,0.0444877450136354,0.185606997590536,0.0937137464161811,0.0844449447705359,-0.03697690579493,0.0955987408561201,-0.11063779662133,-0.04172807063719,0.176615605560633,-0.13589623287238,0.0722301454297716,0.111062016830641,-0.1440537703187,0.0901936136802029,0.11513895828884,-0.17248193694531,0.0502266811592158,-0.10026071103609],[0.0651017541514796,-0.10219828453562,-0.0095092802687,-0.04549370783291,0.0704502811517097,-0.06209096355555,-0.13722111112573,0.0712774781046691,-0.05387751624612,0.109086311619824,-0.10300047008419,-0.12353802516675,0.0841317192840643,-0.09527632157341,-0.20036733150251,0.11501771954017,-0.09655410726862,-0.01121797417014,-0.20279436747584,0.0310452858829807,0.181455063494667,-0.15307353156933,-0.13772254177012,0.1087646165611,0.142608648324464,-0.18871303763979,0.121609010647132,0.0177284858150237,-0.11699346938996,-0.00859217312102,0.0808179595909586,-0.03730629174119,-0.0854875543753,0.198059110220026,0.186145844346727,0.188614445527132,0.0341207291811436,-0.08342503483371,-0.087699235382,-0.010480792076,-0.01350438860203,-0.15870668151606,0.0119210607635144,0.0223443556274302,-0.07510580131892,-0.12581432681946,0.165886665253688,0.151621573620542,0.0811298741994494,-0.02844806713517,-0.15320639480334,-0.06559996358556,-0.13295848765545,-0.14481149873626,-0.13119405485153,0.0730371338114275,-0.09535966177142,-0.08812037944273,-0.04937014190648,0.192889298207688,0.185145041101226,-0.10543737205329,0.142223838112868,0.126106559714263,0.143495261371159,0.173196421643666,0.176695365648293,0.124472249086919,0.0965675585289292,0.131442776521307,-0.03659807340763,-0.09240237783675,0.0711281944210396,0.141234007494575,0.173220517681167,0.16876364775738,0.0458627960707925,-0.0973183884013,0.104442519267386,0.203742712910078,0.156480501045336,0.137771305910239,0.025113890796875,-0.17105581676498,0.111537871877459,-0.18251939920699,0.181536964705583,0.159015470339198,0.115857354425752,0.109600428647037,0.171478652507629,0.0534349971204049,-0.0637158578913,-0.07448982568321,-0.15514308199313,-0.00880892232959,-0.19703913779843,-0.01346826887212,-0.03528308493538,-0.0125975390664,-0.16143877681096,0.0740118686597759,0.0464543941394996,0.151116378258577,-0.08387459947917,-0.05111094385263,0.186101112323733,-0.17952360711085,-0.02786086969912,0.057030893084168,-0.01825513469283,0.0866752797593863,0.106547348260559,-0.05793647062321,-0.1404219415469,-0.02702473822962,-0.10548011641001,0.201260943180344,0.157340723356827,0.122376241903026,0.105128330008484,-0.17517026133173,-0.00011182172195,-0.09652074149374,-0.02779971097826,0.139519185371249,-0.06553365151157,0.121947162965149,-0.12625378249538,-0.05318825468027,-0.19302115673095,0.047316466014461,0.0271926702206524,-0.19577153667786,-0.1160287770783,-0.16416586571641,-0.10482594137966,0.109727873437405,-0.0521719622844,-0.14823797188089,0.00931848067332466,-0.02275777507087,0.0665879186106556,-0.19491414243782],[0.0350547935132068,0.0266915575847952,-0.13862611399733,-0.00545443310314,0.185536403947054,0.0480289978376913,0.121880904714134,-0.10002655367769,0.167714804916378,-0.16555922212949,0.18550279173641,-0.18683209124925,0.0793927340084746,0.160436613574665,-0.10700554200321,-0.20052414729493,0.0154525209529775,-0.02052656642552,-0.15031994691246,0.153660532381208,-0.18840712085172,-0.0778559073985,-0.0253360315698,-0.05305074609148,0.18918966838801,-0.04880079455203,0.0258647126425664,-0.02010864230077,-0.05156199459152,0.031072003964842,-0.05798562347275,-0.1338698760288,0.104379394510566,0.0974514912038851,-0.16613635337051,0.0686577954229067,0.0320524613983464,0.195908170282831,-0.02787595415517,-0.12101517445619,-0.09666094206843,-0.03878031579477,0.0733722012855657,0.0624092019743749,0.0522127543907669,-0.14193222359433,0.0642661839852678,0.203241831337621,0.0307505191401565,-0.01431453214066,-0.15030449674788,-0.11161403459296,-0.16885309978776,-0.08046212822187,-0.17731086452434,-0.08734999611056,0.0172588169307648,0.150273019615322,-0.20349388067101,-0.14622059158656,-0.15444349478711,-0.19822780355167,0.035185913422117,0.193841391891083,0.108011961295233,-0.11427593306486,-0.06363901938569,-0.0410229393793,-0.07321653316451,0.123029303781144,0.147401040265183,0.139361735894738,-0.19860800721406,0.119906005107983,0.0739854966955403,-0.07055724645142,0.122267345444576,-0.17990791563519,-0.07150506353691,0.151667912138027,0.0132784148840357,0.0522518945662953,-0.14275066584205,0.124080403302085,-0.17934225710673,-0.0253360007294,0.006712080835205,0.19055918105303,-0.04897515145576,-0.02300765426904,0.198323890924807,0.12911588074175,0.0423463464248347,0.169098198111286,0.00460002165544407,-0.11594994244391,0.124740420862147,-0.09626895220547,-0.1818588676382,-0.19356804029995,0.13171747871616,-0.16327226925676,0.114751192801655,-0.17474968666913,-0.15804669702102,-0.08296680419746,0.19308497742384,-0.19778572198109,0.075043686265437,-0.08101201689087,0.108777684548084,0.0944114844224527,-0.087862529103,0.0224489195111112,-0.14534573006207,0.0164339750297246,0.201468853189668,0.13058596695666,-0.07414848575226,0.111755747037278,0.0976215177324634,-0.04003214112508,-0.02650275684921,-0.20348156290056,0.161085903550265,0.170634231243377,-0.08152255295671,0.0935774442948624,0.0964254702090258,-0.04677883522444,0.146469952174905,-0.00068646377903,0.171699423533614,-0.16954197867984,-0.06411644600671,0.108446755730161,-0.0469190881234,-0.15153876887157,0.140233869048069,0.00119856187875644,-0.11106749138447,0.0901077519578062,-0.05069845899398,0.079884934325984],[-0.12839867608191,-0.12854223574911,-0.05939064335074,0.172810912697443,-0.18937974093843,0.168559595344968,-0.11009338060126,0.0205043466374605,0.0193202458254687,-0.19186110211412,-0.11199893732588,0.0411510117385181,-0.03740513309673,0.193865353380936,0.200298650274416,-0.09109950887733,0.062296719465644,0.193651314413944,-0.16560738197788,0.192185447576498,-0.01065226235246,-0.02376460808681,0.0428179838252461,-0.12810734722848,-0.06277292989711,0.0439552784980471,0.0358044335098102,0.026479843707901,0.154611098441503,0.104920039819902,-0.18906948430871,0.0824123231160486,0.0963360373281403,-0.12117207881141,0.0247828125234322,-0.12228085050314,-0.09496545106711,0.0303305037385926,-0.11853186620375,0.0628526278720915,0.0746137686273491,0.0495061057061776,-0.022338329019,-0.15641487636892,0.0941422540927318,-0.15017402041494,0.0082156655848645,0.00882142412936951,-0.03703268719528,-0.04410028068739,-0.1923587802003,-0.10278790403883,0.202697259207452,-0.07813762332781,-0.04414637760477,0.0126738067263643,-0.14925114932317,0.188358252437215,0.0533479626662927,0.174015383100867,0.181211474832537,0.162293240811839,-0.15138928009053,0.00822577092508012,-0.1832331675386,0.122233828028229,-0.06551383424963,-0.03276438763431,-0.04272243446591,-0.00642593019265,-0.03018241046522,-0.10844831121126,0.1813664222074,0.0219659108651163,0.155801431406708,-0.06126224271176,0.126053656446546,-0.18047033801489,0.00447684327570136,-0.0562179690616,-0.17425378751741,0.160293309514599,-0.0527501043248,-0.00781161663671,-0.1412056819753,0.150993249135302,0.109865234244324,-0.04096219938879,-0.12956261178219,-0.06677886881944,0.0103502107970105,0.1648729033585,0.098013040182065,-0.14253829613102,-0.18952213063967,-0.08921338820717,-0.13747014102378,0.0576706228592609,0.162021088894698,0.192314202173527,0.043235376649303,-0.05617416969749,0.00376449612330484,0.104595757422835,-0.14735344896342,-0.19741422800021,-0.12585792045491,-0.03735998894302,0.148971608348477,0.201502054446495,-0.14028234162558,0.173518400823737,-0.0676753721469,-0.17719548066864,0.0815850734936864,0.00488201383467518,0.134357782421665,0.125027370773137,-0.09251256494144,-0.13461315577498,0.0641305208453009,-0.12223541967667,-0.1107295884595,-0.17081374310319,-0.09370076975123,-0.1239097622231,-0.19984603180427,-0.18372192231342,0.191164013164845,-0.11247076276455,0.0249003380974547,0.134808470738238,0.0265659169521499,-0.14482909930781,-0.02381726613721,0.0161883874624358,-0.15903958284205,-0.14986872510961,0.105066034264732,0.0364146514712136,-0.15276772865873,0.159973403492918,-0.07705286694592,0.0872143630614943],[0.068120207149267,0.124774524468718,-0.09741016917076,0.19563645375918,-0.06379633827002,-0.1624716706768,0.0662267838629831,-0.19130160440467,0.00242714532647953,-0.01678660966822,-0.00819109045275,0.155121219816279,-0.10501304186874,-0.15174229017422,-0.02612790077748,-0.01936309495411,-0.19811803890494,-0.18440118187051,-0.15206512772305,0.0787454683233651,-0.05660489280644,-0.00084930785332,0.0283572186217208,-0.06401254353469,-0.00478441779691,0.0448697004950161,-0.19317841751314,-0.0405885644935,-0.08348425633685,0.159486025570912,-0.0412333604571,0.151464646289928,-0.043840191338,0.0144103323167071,0.0780447042569609,-0.06855632885594,-0.01292420641354,-0.04758585520026,-0.16240196151873,0.184735348639955,0.132584614626964,-0.10386971012369,0.122316456917313,-0.05809470096191,0.180800927619652,-0.10853118312838,0.172152046211855,0.0230988610227654,-0.00509953492815,0.17078564232539,0.175145260175692,-0.00871066289911,0.0294016891374787,-0.08732827188088,-0.07841364517892,-0.05502434525959,0.136526381517173,0.00981352305590674,-0.00995699076645,0.149076968509241,-0.19462517502345,0.105131890021216,-0.15727317757977,-0.18686003048558,-0.10289230810752,-0.02724948769157,-0.0605945823128,-0.08016156635421,0.188597467338032,-0.09696077402423,-0.09990719286094,0.0290813477171702,-0.17050374782278,-0.11726769340181,-0.12852249609338,-0.00566363569413,0.141413147641845,0.0824489007598795,-0.02686601736706,0.0989743022136562,-0.00397046694735,0.109500162102625,0.0101424111519177,-0.09996140692636,0.173151023420518,0.0101322191281996,-0.06187282226162,-0.07392039384179,0.182816062022714,0.116190381294701,0.109926384354304,-0.03291057219228,-0.0002694565196,-0.09597836941579,-0.05877322802566,-0.08378617738682,-0.13688727600383,-0.12766999942016,-0.16860418368098,0.0966249326654889,0.0863129862845532,0.0633732689552194,0.11397850101188,-0.18131722394625,-0.14940846037252,0.0778272197908756,-0.05854444960506,0.132905642875585,-0.12455193388967,0.0763665832781309,0.0409382565351635,-0.17086124128052,0.13286689487382,0.187634235941163,0.0770618423987007,0.0503810283987917,0.0339952843174018,0.0528033857531033,0.13664731012998,-0.17820739442193,-0.02843748245714,0.0928522782589717,0.016045260685786,-0.1064637486336,0.191172885367734,0.179301169268387,-0.09414328529196,-0.07898380185675,0.0494749994409162,-0.05736827073518,-0.11981858803282,-0.19277816348116,-0.13096193736905,-0.11610767967491,0.115479364798584,-0.00237779674525,0.00520935804048381,-0.03462186625431,-0.15190704451852,0.134469561103281,0.0683788395524585,-0.03435337951686,0.038775937311602,-0.10901071929081],[0.175398526686681,0.0570516307486512,0.1904481278102,-0.09664289907479,0.034801714231877,-0.11088821825172,0.123822737668912,0.00813039979384469,-0.00888285141213,0.0924949273469333,0.172298597127193,-0.10874835824329,0.122524487249754,0.116482096033421,-0.16486954436214,0.194816921389229,0.159802577429267,-0.00258491758446,-0.06208973683266,0.137287342446593,0.0974709606452379,-0.1208393902042,-0.03950454458612,0.0983529606667971,-0.16781559463515,0.200545148284647,0.134959914678195,-0.17232694211591,0.0199753053391619,0.0717536175509201,0.113087804381722,-0.10489964884623,-0.00363279966901,-0.08932955347159,-0.0170024581735,0.0947626086484243,0.0764691655625197,-0.02589994534999,0.116292112937504,0.0705381661063068,-0.17138611765292,0.124294109681622,-0.1643139363845,0.178849639451177,0.118269414087898,0.0239024302373794,0.0436705190615871,0.14119615496842,0.202590898478887,-0.18893788754723,-0.14137770869801,0.0699342461735661,-0.12709582096365,-0.022047007822,-0.11713255173732,-0.17721488308548,0.0594444105387659,-0.10604665976848,0.0399539653746288,-0.11441172373381,-0.15445335150378,-0.05773102183418,-0.07694692213529,-0.11319114051065,-0.13982020218919,0.0228384710455786,0.00284502980144721,-0.08105842535265,0.0667026830271988,0.0283426748530757,0.0891631045661623,0.121457631050453,0.196835258315959,-0.18882282861068,0.141653432665251,0.00218308905357059,-0.10915378817691,0.186610006540256,-0.02880936295479,0.0755655038451719,0.0824423143907151,-0.06910500491354,0.110326080341983,-0.12130215539935,0.140952164108166,0.0240425528440076,-0.09337414717339,-0.13783788022285,0.0825470884190112,-0.08705829922589,-0.16112176788634,-0.10156326704984,-0.00918114362533,0.0163157771117712,0.200236724920504,-0.00832804971671,-0.01074151152622,0.0625345741812331,-0.01387628716442,-0.01160415708646,0.090928662007067,0.137199618772662,0.115457227854575,-0.04905616229582,-0.0529963664379,0.11667738355157,0.0138071976869615,0.116580008215723,0.167862285197032,-0.06871847916585,0.016101307446626,0.158306042749996,-0.18911087412972,-0.15793317611999,-0.09272878989167,-0.1062543603575,-0.01627603161849,-0.00769348460311,-0.16965867239192,-0.15934090140333,-0.08304969740989,-0.13565124048916,0.0782353194671919,-0.0849512412758,-0.01005641863459,0.115851625576061,-0.0159399936231,-0.11366857580285,-0.17033304085971,-0.05367764329389,0.041061940060317,0.00318273099402197,0.0486383034583971,0.0767791518386007,-0.12978656282814,0.108002439864892,0.0758001911848999,0.00594854003259532,-0.0518352249032,0.134041052505274,0.0578436311790485,0.0988591363658245,-0.09189493197291,0.178377864269025],[0.121440096501375,-0.19990119890904,-0.13266283887343,-0.17416605276151,-0.12200589437654,-0.02906645994421,0.151535027554549,0.0365519525550615,-0.16552285505095,0.153705921034043,-0.15641194444613,0.145332223109562,0.073015231966012,-0.07077308447992,-0.03457744918367,0.0428453541624557,0.0670678079455015,-0.12862217159339,0.0209101040020326,0.147507041935708,-0.03114847534035,0.201113402426103,-0.09225662624182,-0.18464068906944,0.0240306667711822,-0.03904545889212,-0.18247917383491,0.193520266317371,0.0876482859087177,-0.09460950074639,-0.19874939659379,-0.17305412382203,0.00542663475703145,0.193427529774251,-0.09392381462419,-0.01478002895258,0.161162742863983,0.166069324849782,-0.12960744617481,0.164720907595745,0.0447579061634786,-0.07479560673304,0.154318045118271,-0.03191699758215,-0.17940354316923,-0.10142398760607,-0.01872444943359,0.0865909371618511,-0.18407469501306,0.00276278611070735,0.115999463334775,-0.04229723434995,-0.18287692846573,0.0457391897145644,0.0428398623160385,0.0189946590012962,-0.0781246168349,0.0146500738648639,-0.01556928713634,0.0378496895300713,-0.15384879151511,0.140651729762353,0.180225387516362,-0.02025143184265,-0.09783388801467,0.0177912402995303,0.0483410574718705,-0.12349877100931,0.170341821686329,-0.01671058096096,-0.1849333739523,0.0569476531005492,0.0331251557652861,-0.16793319818548,0.0369204588555332,-0.16810592335167,0.146321762716426,0.17004982211854,0.0569342400400167,-0.19001153863032,-0.07938317284736,-0.01687985316809,0.203373710610157,0.183338751027066,0.195528935967027,0.176466655246457,-0.05214354123978,0.0254951199667139,0.159929271577071,0.0399031476111776,0.0542652184485659,-0.06425839601214,-0.1985508264974,-0.15267636968598,-0.10471146845069,-0.15453568274014,-0.18785369698845,-0.19330604226915,0.044385121615525,0.0568818962408603,-0.12302202950858,0.06449846556874,0.117720163109779,0.0408546803646879,0.153568583867203,-0.20177333341822,0.0117687596370164,0.181652344766746,-0.10589286924543,-0.04321864412232,0.111611488150734,0.0771539264770161,0.111156561348217,-0.12505598220635,-0.12672237353642,-0.06793820491298,0.0377804130124142,-0.09527200920807,-0.11466493105324,0.0442476058516528,-0.06671591252972,-0.04420162642426,0.0309926673041987,0.0653162687713573,-0.1696608351364,-0.0969295612237,0.0290390183940975,0.191466363439191,0.0191638625484136,0.166603190337145,-0.01950937714671,0.0142565991172792,-0.1492479146694,0.141057071348309,-0.01647880689318,-0.1272061240513,0.0219447338098646,-0.14985230626018,0.0217714820068022,-0.00155301499526,0.0728326188133966,-0.08513851181476,0.183603531165037,-0.06610733406255],[0.0710857792548241,0.0240464252172986,-0.0913448841729,-0.03486679751497,0.135537325536275,-0.00929169863065,0.202378128694143,0.150816171836617,-0.16850380851099,0.144413251957335,0.185991131280723,0.0734359860561686,0.0227366697678778,0.0534599012509768,0.160009690690053,-0.17130407182024,0.174469329806572,0.033329628859377,-0.06403443407811,-0.14411486944656,0.200113219547357,0.0253031277628588,0.0159078740849622,0.0043184556715252,0.18628339510821,0.11616480447781,0.186448053228305,-0.12200388412509,-0.07411103700854,-0.03047348672335,0.0737839261455014,-0.13878730629013,0.143620548887615,0.0776918511149773,0.00878537752323499,-0.07761600740818,-0.11317911693328,0.0579966605497899,-0.00049605101631,0.0738983835822292,-0.09632116140112,0.122633233982201,0.133378150477773,0.0071918271012972,-0.00307056023133,0.184006222437709,0.106909284789561,0.0728930995238362,0.167246367147402,-0.01701030827656,0.135091085047168,-0.00050653164311,0.0251347746397158,0.16900787010557,-0.01564456702961,0.0121011514901193,0.0485881144520766,-0.05739898378191,-0.0239847265903,-0.18919899468264,-0.1452292331889,0.0958678797924976,-0.18259170899997,-0.12673407305236,-0.00314109820802,-0.15443798376886,-0.02825704462316,-0.10350625411976,-0.09664795556892,0.0362646539038668,-0.01845759367123,-0.08127838171224,0.153368296621584,0.0282564006465761,-0.0631313094442,0.0520037249764737,0.11226167097091,0.117841831634883,-0.03578873332234,-0.04054213258975,-0.13316532423752,0.116603422136984,-0.0927244914703,-0.15541550181364,-0.00629716150446,-0.13697187045101,-0.00583077144483,0.0902516618265579,-0.17244534613558,0.186551002920375,-0.05220319375953,0.00520603844431858,0.0855649837190434,0.0802439730503143,0.107460043413698,0.153737828384903,0.199141471238452,-0.01531320345206,0.0510167499173717,0.0224693538055078,-0.09545204967574,0.175236731095195,0.117192331121603,0.180735013163401,0.0261590286906855,0.176532681181138,-0.01067380566399,-0.09481356948405,0.0498992810053859,-0.06228377744921,0.0557378179496862,0.0805489144944673,0.0756778605572141,-0.07111033444114,0.0245725333198437,-0.06620986165388,0.0951005398830478,-0.12837851235668,0.200041535890504,0.0729394156285716,-0.03568649343034,-0.19378811103608,-0.19688429599398,0.104551927424807,0.0840014885949301,0.194425112382831,0.00702694465919229,-0.16302718085909,-0.00417721339866,-0.14338440536635,-0.05439525890412,-0.04970507132344,0.18430861713202,-0.1638622547921,-0.1741616494635,0.0362005684072571,-0.10079247133216,0.171087428762085,0.161519254583534,0.15277461910025,0.00994946046989609,0.142028709210693,-0.2015805759088,0.102162039421127],[-0.12390496308145,-0.03216947749218,-0.20024380662066,-0.12582038153805,0.152681449264902,0.0124515816229046,-0.09374005227844,-0.13144458470991,-0.08509009977422,0.0844411819933782,0.0322143831441604,0.18915841864172,0.0720707054779144,0.0234211131480614,-0.00656874855755,0.00159199883652478,0.182049570823426,-0.1097125229281,-0.01870781385689,-0.00015781346125,0.137546924837371,-0.19263518318858,0.0312830430877115,0.0964359671713864,-0.03200109189602,-0.0884166051456,-0.15714129039771,-0.040748005894,0.168972876523802,0.0951257519022453,0.125901294411192,0.0922574441976817,-0.05367740908429,-0.0043612290392,-0.20143219081007,0.203620513531938,0.133694591517766,0.0226988493951762,0.00372926464810219,-0.09964463987126,-0.15919517801615,-0.11059911070788,0.0180349703697815,0.094491139647974,0.0507046221457385,-0.11192379682905,0.117320549277345,0.14031969179167,0.0241032713363775,-0.15844122693048,-0.0439005548392,0.0036655099472192,-0.13820599785111,0.150746813562435,-0.07707173165745,-0.12684595261992,0.174352033844181,-0.13276693293319,0.0373464751694433,0.184271073933239,-0.04624173896987,0.0604393781543935,-0.03334787182414,-0.01343981648296,0.143540674090515,0.0165237177777073,0.123685098046549,-0.0724038458336,0.159860152033091,-0.1945148635887,-0.11187647988435,0.028893434886271,-0.18548023852018,0.124050232848162,-0.09470289160998,0.16502473457024,-0.02645577220846,-0.03861359325894,0.173262170940061,0.0948758721324022,-0.0307958513015,0.00914378546194999,0.0166610329423464,0.169831583755278,0.103105762561425,-0.15190464703007,-0.09593630563869,-0.05987209307616,0.108073040847407,0.00815500260600144,0.0232198317104307,-0.04044488043707,0.177220102980398,0.0631889848288625,-0.0213313450158,-0.14611503995572,-0.05916838577725,0.0276612663381623,0.0582939009379006,0.157662380066087,0.0400937869578434,0.0124307190551225,-0.08889022938174,-0.12786924480296,-0.19480670256736,0.155422622318637,0.0463259742466551,-0.02018070697775,-0.01209349331771,-0.03099896885446,-0.04298813786791,-0.19726363720047,0.165127660437829,0.0891818542407313,-0.1704174426577,0.15951327886611,0.044755501866456,0.141070796591612,0.00945417349959132,-0.17032361071258,-0.03107442967557,0.0108673844705955,-0.08464899931514,-0.02987147177908,-0.00274650110271,-0.1682317474774,0.0474164554099807,0.0430262356100741,0.152068418770268,-0.20159167461073,-0.15365577215499,0.116712404217061,0.0437623350102998,0.160210967374029,-0.19955288287507,0.147372236427597,-0.07630404572117,0.160273765786717,0.0951901222499993,0.179563753055916,-0.10313923604832,0.173459490358427,-0.00281157206867,0.129147592269143],[0.0233405762988042,0.11036601599829,-0.08337230417532,0.139958874454481,0.0404328181206927,0.0675930802372213,-0.14040496127384,0.0307766757397067,-0.00319185927299,0.159961713475517,0.0699287920502881,-0.14706711741001,0.0366050242161431,-0.1454261623687,0.0668876406639635,-0.11138238014121,0.1913368599755,-0.17195308865047,-0.08869688417076,-0.03323692235444,-0.12322080690902,-0.07098411351855,0.185712380916285,-0.09165579620837,-0.08750675888279,0.165652911446991,0.105674474433287,0.157102412452856,0.106086857980696,-0.11366725120451,-0.13090009207982,0.0664057327213625,-0.14064825570839,0.131825159665284,0.0813135020800738,0.175289191968433,-0.11876447556678,0.167577247636563,-0.20291448543074,0.181160067613731,0.117936882951133,-0.01290395661589,0.147742245610758,0.190494655083473,-0.19630603912831,0.186736987460813,0.0323625769669466,-0.00756121447679,-0.01967401761434,0.0814697174101907,-0.10889374061607,0.130898366260475,-0.02118906018558,-0.0795059425446,0.0661514791979232,-0.12465393737369,0.0822514245408681,0.125639956336362,0.105903865603893,0.089117494004391,0.00414129943284097,-0.01898704767481,-0.01391304850774,0.144902600042231,-0.01911307496916,0.105406912071092,0.0391904512651285,-0.15150098441855,-0.18516484095862,-0.11053204025126,-0.04281861288283,0.114579106618663,0.202803838022185,-0.20297096935651,-0.15780908341119,-0.17472767162355,-0.11321024286683,-0.10332996415941,-0.10421120892247,-0.02793928523832,-0.13179416098248,-0.01240661451083,0.0733287157167892,-0.08347607612014,0.131276383192291,-0.11055499530921,-0.01086892230205,0.12816029277974,0.140390526462429,0.0293264792878088,-0.10149049256824,0.11200226849978,0.152761374803868,0.0151631716854713,0.0455769379341305,0.172576280779462,0.0738664485969543,0.110227714115758,-0.04338782753128,0.197502094823582,-0.04644372139385,0.156121300491136,0.133880540579289,-0.11682543550659,0.0263196872579898,-0.14327213047254,0.089748701121855,-0.10823930571595,0.162465866669955,0.000446845765889548,-0.10800264838534,0.0333171769525458,0.164040986830537,0.172458994395647,0.0478496002307412,0.10005556178594,-0.18497516708269,0.135938454585084,-0.10183053344291,-0.12417002874692,-0.09553060300864,0.0836193641693528,-0.12535599379778,-0.01484248347186,0.0298055146718876,0.0338503471872822,0.0517474110787998,0.181224623073006,-0.0632101353479,-0.0716880295084,-0.00671660036672,0.0224186797359471,0.109076838691851,0.199545346709733,0.137291298289592,0.101485389375426,0.0280564031516154,-0.16118582313952,0.125404553640077,-0.19609501821226,0.145462879355477,-0.20328220679373,-0.17200110402483,0.176111922771359],[0.0366216726592775,-0.03648662683731,-0.12763877342459,0.165982713930131,0.0954823387422361,-0.15551332725353,-0.05370980240309,-0.01917176388594,0.162348452811049,0.169809805114747,-0.04999167081654,0.0230534717154175,0.138997611198695,-0.12181310301784,0.190007016639747,-0.10835251317322,0.050542948972012,0.1861984580001,0.196818659546424,-0.18298990898745,-0.01613441958632,0.166250865507788,0.0251379289665528,-0.05500400909413,0.0194684151488363,0.05179486171353,-0.0320960291945,0.168307421551758,0.0212725735221422,-0.15703730020309,-0.15343049601747,-0.1657079017762,0.0673435932646486,-0.15880367870516,-0.11102694968716,-0.1095834537355,-0.17002833263382,-0.07522979425819,0.197461289195009,0.201351218796318,-0.06507268888853,0.0679905168529937,-0.11305086331731,0.19238117347285,0.0971265273167259,-0.06031167463405,0.178531774894993,0.0270504361049959,0.0308180790433639,0.0628401165733289,0.0701516898667909,-0.0013954459874,0.00387942208534889,0.0443588088325354,0.14019815911076,0.20182991727642,-0.0435597707382,0.025330274393414,0.0500264022961562,0.103356519082893,0.151496267471434,-0.19768329814956,0.0330060446995539,-0.12186906332336,0.0380825417186525,0.0697432699587485,0.0619117163829541,0.0390258352726496,0.196979939218778,0.080718524266431,-0.00795466804277,-0.05160744146287,0.0953728562374845,-0.08314219921905,-0.16627723905554,-0.057214154932,0.166880003715243,-0.00970256988176,0.0493848351590852,-0.00229509808475,0.00461452296462733,0.18879553253061,-0.02916511524414,0.0222013383487672,-0.03440235199838,0.0460120055516824,0.0480515461153339,0.121322847933893,-0.19921199164946,-0.13416494450478,0.123882208125678,0.0724919749435786,0.101138539990232,-0.09387684518236,-0.13376052722715,0.11042705968852,0.10864238295509,-0.03671025719571,-0.06422433010979,0.146307469207369,0.145017811582458,-0.02274028564513,0.0543995682439126,-0.12909555388318,-0.0880065756311,-0.03551851524054,0.0129514937510882,-0.1375677857191,-0.06093909997033,0.202073638477331,-0.08821256932118,-0.17589747797055,0.107097357987158,0.175633810913929,-0.15216545844024,-0.00826856139738,0.158756323208878,0.107131217940264,0.159155154081159,0.186062339577303,0.104342976467575,0.198201886733198,0.168627352245356,-0.1768690053128,0.0589189574305358,0.0166184306806619,-0.15966895513579,0.0248231608628489,0.185904476072986,0.0754639517607177,0.0126367768526077,-0.07925181515759,-0.01218802568188,0.0824299038008821,0.104075826651378,-0.15172476401562,-0.06076710365552,0.19888110041686,-0.13914747357261,-0.03294563716206,0.187549020373878,0.0321903657449815,-0.12115581839528,0.0559990883905871],[-0.1014815302102,0.119854240776434,-0.16278983912935,0.0459816903813641,-0.08147989128581,-0.07879749330483,0.166222942254654,0.15176117237436,-0.1073509146775,0.147445197965632,0.179662595795866,0.146885056803868,0.0319524931348545,0.16756925495631,0.0896183047606516,0.196419016257229,-0.02541542896827,-0.01089441223773,-0.14133081774898,-0.08660731398087,0.0830494935896281,0.0678261572163633,0.0831736244260214,-0.18178495709495,-0.0096371470934,-0.12639870839123,0.136696094461006,0.19352003153775,0.0205059749621156,-0.08171538815508,0.123119937759874,-0.13664985478217,0.180055076559018,-0.03346048156731,-0.00584512386961,-0.002989254057,-0.12792847725333,-0.06911697109789,-0.10864733429828,0.154894839942481,-0.0611902319578,0.139132618598392,-0.01160347694816,-0.08831324775008,0.0850469823519487,-0.16508427596648,-0.158914920228,0.0929466974587673,0.194127975629658,0.105159093478489,0.112988503155842,0.0479072677268421,0.0277114613927944,-0.08234183461335,-0.04280268314459,0.174424712271017,-0.18736568870592,0.113345003497882,0.00282157788371284,-0.16213762947838,0.0464556950166782,-0.10729894300528,-0.00623380400927,0.171921623482477,-0.04713913728429,-0.14378777415877,-0.19687067099376,0.0622520561876453,-0.08694193522432,0.178164472977833,0.200083831195236,0.170815574324482,0.167409056131279,0.087256865460713,-0.11966952809256,0.202773089257453,0.0587397417279454,-0.0383637154203,-0.12224319996196,-0.20244371768712,-0.05543188736837,0.104708792882604,-0.17838584048338,0.0894458564818786,0.124940751571848,-0.15055321977287,0.0107392951024174,0.0693293992870557,0.151457338339305,0.0455993316441245,0.0495896034346284,-0.1562559845216,0.0220286549513355,-0.04599588447284,0.191395249030156,-0.06096429685327,-0.03491957983709,0.0940508509765274,0.194567027051132,-0.08252757885746,0.0187038809798291,-0.09570072650674,-0.07514822961506,-0.09222712415971,0.117790956702658,0.15046493040042,0.174727172972751,0.102348158846538,0.0740297938570145,0.0165491564405723,0.140231695669323,0.0179574929450619,0.0821884147933052,-0.0031635660069,-0.03791943960041,-0.06465877054607,-0.13665020904837,0.191448910182685,0.125797334458352,0.0740017136930058,-0.11180851360709,0.136840486655864,0.0858564269030754,0.149412357572213,-0.20163918108825,-0.14150254776895,0.109447659681811,-0.07491554137798,-0.04369005609525,-0.02897507637332,0.0276634863274036,-0.06610582568052,-0.19130635266034,0.0245930356669931,0.075299218165386,-0.02226537047964,0.12464048206273,-0.00416847524209,0.0907769238089275,-0.18646088072299,0.113699833872299,0.0105524578437134,0.135741689785958,0.098370844604239],[0.134134059100681,0.129842254757838,0.115052203070578,-0.05233447888095,-0.12944862794862,-0.13235886329681,-0.16510434081087,-0.08978730699147,-0.08632764658696,-0.04234105509099,-0.19440906838364,-0.08535033551275,-0.14126489554189,0.15271385038095,0.0333718568646439,-0.10291025407292,0.0395146175511676,-0.20008357211141,0.0433467415474584,0.00929561367901777,0.193887579415898,0.0872257527646937,0.00714354302682585,-0.07764167147029,-0.11978266336827,0.128841249176283,-0.10161450939054,0.00170968890238529,0.190931054534745,-0.20024806294736,-0.19897044943703,0.0476567348489104,0.0298216646503567,-0.07387670430142,0.168347564980348,0.105744765207014,0.0310524263765954,-0.12921034182224,0.0923053136196189,-0.03908433542389,-0.07981560025332,-0.03640845788408,-0.14685668127123,0.177290019207849,0.0679413287269285,-0.04544729693303,0.138017819137985,-0.09260343517885,0.127005609842861,0.042928256654963,-0.01644888483015,-0.16005591584009,0.124407837557649,-0.07396188790226,-0.17406877077235,-0.10025436029505,-0.0178630405643,0.189068609819055,0.138403867545525,0.0646463283601884,-0.1184708481122,-0.13888733625663,-0.01460911597185,-0.20283355252922,0.152503379596642,0.143588690402785,0.032999438243644,-0.10541378012773,-0.11767666505752,0.153881751560102,0.0842907847853993,-0.09358635374609,-0.1935102172824,0.0617730018410598,-0.0609732815529,0.0863804327844111,-0.18660733364171,0.0824311449068739,0.115731462746326,-0.01314898929215,-0.19356042819359,-0.01201721275446,-0.17940582746899,0.170382380931727,0.025334016498602,0.195262469791685,-0.05137712424762,-0.07919222770471,-0.0457452346035,0.149014504866906,0.119710632277848,-0.04722315847618,-0.16209614124858,0.196099154237838,-0.16820818980616,0.137976624328326,0.172574193636201,-0.1506690772117,-0.09344337531161,0.117009185079526,0.105786747627222,0.0148972855485934,0.202979605727718,-0.15740462073535,-0.16691287620988,0.153034492237464,0.172148848884998,0.200184854954177,0.0697325112900367,-0.13708592152306,-0.15515001079286,-0.14507116488322,-0.19275269883866,-0.09252958959825,0.187387088021285,-0.13909882780125,0.0062886699517048,-0.12693274324559,-0.07341615869002,-0.00363600686446,0.115991036589744,-0.19477128010764,0.0100906346297661,0.0835486150952043,-0.13458807685601,0.123188776915889,0.0674867958052986,0.14026191155309,-0.18185551897197,0.111752155958798,-0.04302574198344,-0.0790009061411,-0.08509754135307,-0.07481932492551,-0.17748087016497,-0.20006060671247,-0.07174893576403,-0.1775610439404,-0.15418008302925,-0.12936361254066,-0.02480041481281,0.177242395600514,0.142813850797765,0.188067263664561],[-0.19915254566669,-0.14512092731968,0.188292025380313,-0.1907710313802,-0.12462218471634,-0.13972271010798,-0.10185031448586,-0.0230954503877,0.0363114453146599,0.049932144378621,-0.05010884844119,-0.16775551707135,0.0382385023231331,-0.19474804577468,0.187213636713724,-0.14408185244349,-0.19272385029745,-0.19941147933744,0.0141409471466314,-0.12424656277391,-0.107967578213,-0.06140761910568,0.120209297005154,-0.04765008151048,-0.02366177047225,-0.13889438167942,0.138917118637662,0.185783254842785,-0.12044878827764,-0.14042244630796,-0.19916046833081,-0.12150480079474,-0.1456172626988,0.182089041677156,0.0470548688602822,0.0513597550863826,-0.12866546790136,-0.14570237443136,-0.07122197256315,0.124090843969886,0.122092875891892,-0.04386456564559,-0.06252886177563,0.105201363270394,-0.04354904632206,-0.11245447423596,0.109130182476985,-0.03697976151619,0.110205245069767,0.102750885075706,0.00667154070468473,-0.10637041906826,-0.08433784627109,0.0443310533888772,0.137420011443335,-0.15602191410486,-0.02235243345492,0.0451207894461612,0.156589405030994,0.0674465926430453,0.129985751057302,0.0209876349465372,-0.16425880800845,0.0712131291630486,-0.05908181792517,-0.05241818039142,0.126292274638683,-0.19614729848873,-0.02063943387254,0.178547748225062,0.115790396392333,0.118596814246359,0.131218253229792,0.00113982311724978,0.0210011899352553,-0.15600732786134,0.0197243143583006,0.0728034226211617,0.157049374573674,0.0500980186912144,0.182893930894636,0.0883032518671918,0.0193564859175323,0.0770005675690916,-0.16967929301733,0.00969278949871819,-0.00780907691369,0.0105763052315022,0.11261051621108,-0.06814272507724,-0.06248545634535,0.0361502524958242,0.0867570506115273,0.00451048267377743,0.0931841168255092,-0.0851013932431,0.0151089959249757,0.00708825087050885,-0.0301455466193,-0.16639259365215,-0.07820431997328,0.0575857229640762,0.17284115129042,0.142597039801786,0.160607395195691,-0.1090522541306,0.0704717772585491,0.189201200739206,0.125410018879453,0.121694277857288,0.155988405851134,-0.16122396839434,-0.02438636612237,-0.17445040954592,0.193360207201395,0.0162284400296366,0.151742071316722,0.107002569712287,0.149416691209292,-0.14436385912532,0.14494371472226,-0.08959981811325,-0.17143775808078,-0.16352802005275,-0.03585761134183,0.0241219415646523,0.0698423435245133,-0.16537609356318,-0.18817563670913,-0.18276295593677,-0.15166543711622,0.159262646316685,-0.12287393317725,-0.19720220872665,0.0869114739863298,0.158811817652508,0.195986840576596,-0.19263459834803,-0.13663562769217,-0.02474963879654,0.0470033950991955,-0.12528369787464,0.180367610015769,0.0585288851406711],[-0.01764224346635,0.141009457679962,0.028974839337103,0.158751443698443,-0.19846536944028,0.107185397795906,0.156581702737918,0.0313976752358696,-0.11043181179155,-0.1255732665661,-0.16762714917421,-0.08849364942921,0.120670069594451,0.166931625266461,-0.12251460694956,-0.1182201420091,0.0997834898205102,-0.01097510799631,-0.01995639994442,0.167797915216205,-0.09842773968129,0.114928303379941,0.0717625272590556,-0.16048950255141,0.0922181015685218,-0.02724339808407,-0.14106115106749,-0.04853658738994,0.119977948603105,-0.19092805697849,0.172178084696312,-0.17561535738979,0.0625038069734897,-0.20314894151925,-0.01696693357242,-0.0454631818209,-0.04469210010793,0.0527109597166771,0.0612507437941938,0.0566441997821255,-0.15094648151192,0.0222429718148953,-0.05017088426161,-0.15212385538192,0.115783352027634,0.198636935745808,-0.01358343362913,0.159662779184923,0.0604797593213263,-0.13596621587673,-0.01393034531802,-0.18204673164141,-0.13003439084237,-0.20358042360608,0.0129252544463462,0.00673325542681713,-0.14602058741079,0.0123268243795588,-0.02003452887436,0.141933157414631,0.0628649949635837,0.147883865829785,-0.0396673951404,0.0656731708913704,-0.02675761787671,0.162554904904498,-0.1619787778665,-0.02796806094083,-0.13814499120245,-0.1702144390327,0.17866584931579,-0.12346423462389,0.124918268615739,0.136096115703077,-0.19863627032882,-0.17923122935619,-0.13076737514179,-0.11890311973576,0.069899367246316,0.0263802362605994,0.069470598634343,-0.11458275034574,-0.13689671135343,0.0485753598026909,0.203846823220643,0.131976487465588,0.0195573769000094,-0.18962863097633,0.0682438792304046,-0.03019767205972,0.0684963692308663,0.191122508741473,0.178721594696735,-0.11552334494803,-0.20400858019354,-0.15440000605775,-0.11771926993469,-0.15466702981266,0.0308823079756386,0.00972043467170361,0.0928373180718621,0.155517254382243,-0.14319959773544,-0.15101315259426,0.0312604446134254,0.0957641568090047,-0.08435717550428,0.0914031776683563,0.133698366425628,0.154373384261464,0.00141680701007108,0.181241142797935,-0.04507377149983,-0.00181055412959,0.172489169960888,0.0593982956242572,0.0721460066535537,-0.07628749566978,-0.01304427414156,-0.17800962048223,-0.17035445535936,-0.06295167623109,-0.00590936816038,-0.18840308968053,0.172247690392676,0.115874621126466,0.145977524335623,0.0782821127329668,0.139844974357451,-0.18906901351887,0.17275823227295,-0.00594016203248,-0.0191705202868,-0.10115857965916,0.0634571485251124,0.0466383953873805,0.00710920942250218,-0.08367795910078,-0.03954078672789,-0.07789345410373,-0.06812484653189,-0.04818538087176,-0.09301135976924,-0.15655259923475],[0.0559102210868443,-0.0521595402877,-0.16155805707034,-0.09462301514086,-0.0813075323191,0.0557647497936194,-0.11557481380119,0.0105013230205078,0.146472484877806,0.128533470163358,-0.0097283063881,0.113586689403294,0.0167760260859932,-0.17377389392298,0.161663923898842,0.186884470413963,-0.07871145760635,0.0638355984889313,-0.04065104771089,0.0349130448100436,0.134711570034513,0.0109308572019634,0.0541503887060517,0.0273346231393511,-0.02652306267099,0.152030574805525,0.0441975607388284,0.0698331289396556,0.00288703248839509,0.187744687693538,-0.16274893743168,-0.08128302602052,0.014164392671972,-0.01277479414752,-0.13595468126026,0.197397892559026,0.169342892481247,0.0539318406546018,-0.16191541971938,0.175271079097047,0.162141987295736,-0.04975549222026,-0.11946956534226,0.0911352241824645,-0.10400453791783,-0.06624562192236,-0.18877888655982,0.127269408806696,-0.02347459429474,0.198782237867419,0.080261278833299,-0.08086590648674,-0.08409462378125,0.049173001958131,-0.03932787609375,0.183643979430106,0.0199960321142321,0.0289377887071154,-0.01757794746697,-0.13920079607778,0.154311610380302,-0.07094065281087,0.151061573746362,0.00118589609338993,0.110144014476408,-0.13814747506064,-0.15454044944823,0.104326508073433,0.203208814646426,0.0267696615721562,0.0341129051736889,-0.19216782416321,-0.09564236350978,0.109484441505961,-0.00407849320027,0.00627436381019947,0.12506762099038,-0.13746502190619,-0.14932379325021,0.150937887141153,0.158592856558472,-0.12385463535666,0.0119762367119275,-0.10217035689053,-0.1320367557992,-0.13621162652198,0.13795999677697,-0.14065410060576,0.18640082395642,-0.12140854287903,0.170513009239581,0.15841328543038,0.181909986816217,0.0634501810814498,0.065187339808765,0.150473082378793,0.0574953094104302,0.0988307589420224,-0.08653756477984,0.0601728992640401,-0.0244664499367,-0.11331381543527,0.1982665217589,0.0159457305437256,-0.07177311434938,0.0919067457966565,-0.03183286743401,0.188377176343479,-0.11958823382496,0.114150753395521,0.105784005575146,0.077999440799549,-0.09647618306176,0.0703063637307383,-0.05199550438833,0.127265900031206,0.0968314980843752,0.1116515141577,-0.20182990681501,-0.12630440821689,-0.14193175876175,0.021683059709922,0.173108291705977,-0.12269788062492,-0.08526144618141,0.136245736988567,0.100843175820997,-0.01410366368191,0.0267610576576283,0.0221268763555711,0.0964087566839299,0.093993417077461,0.0130273906373903,0.132815683401692,0.0569839964215296,-0.02398360928486,-0.04839725296219,0.129242210952097,-0.0288505414344,0.145737083811485,-0.15540424748803,-0.18414409117351,0.168557292079232,0.171757803146449],[-0.04524155864982,-0.09671139574187,0.0860790202031962,0.18413240724624,-0.13360280351743,-0.15376120068879,0.162728100740737,0.167278439581607,0.145309998806466,0.0376604575065891,0.0506793029908312,-0.02871962920222,-0.16016510425281,0.0231769114302982,-0.18832254440795,-0.11895616656213,0.100336989819753,0.0062785907207849,-0.09302599500854,0.0886726395568178,-0.14332415141084,-0.01994043606738,0.12020597191717,-0.07685486931497,-0.00873290231514,0.0919313937180719,0.0772711056790898,0.0476159790155124,0.175425991094694,0.188831794081371,-0.17350664820856,-0.17937982813834,-0.01337888319117,0.00620122219051383,-0.17993620912908,-0.095741971926,-0.18162379692799,0.0837715859891117,-0.14690862427267,0.16752735284755,-0.09832031346737,-0.12609949536798,0.0790381882665346,-0.06048845524358,-0.03236036767012,0.00781651789707818,-0.05999699933277,-0.06843787640889,-0.00353032168833,-0.18968662431208,0.165021213819148,0.0677521620442318,-0.09606178531355,0.0653665961097812,0.191080123937921,-0.00431596771839,0.107251264291826,-0.01947477326464,0.0637816774689676,-0.10257514263126,-0.04305673308757,-0.06799060933537,-0.12431030418003,-0.09019572458507,-0.05559589245643,-0.1835998096724,0.145900576211073,-0.11518927148593,0.013713118461686,0.179296409514857,-0.12927847735314,0.184778573849567,0.17975008972606,0.164917505744227,-0.19599492810342,-0.15278126082701,-0.12182849105849,-0.18020304694543,-0.00052250546259,0.0792978587728403,0.00769604483918757,-0.04879414888019,0.154010890230963,-0.06140307313128,0.107611636513742,-0.14430656507839,-0.20030475934333,0.0979527786698115,0.123059130618794,0.00389614175041131,-0.19307248165172,0.16323498683299,-0.04105558327734,0.203162543589897,-0.19419195174119,-0.02411862049293,-0.04215131838717,-0.0826424460303,0.0310733488146838,-0.13416674423633,0.149008021205939,-0.12917829243733,-0.01127309507886,-0.10211848620044,-0.15178737081602,-0.14010779833637,-0.0355732455476,0.142074353802601,0.0424937130459571,0.14696917548689,-0.13511208325799,-0.11660116164781,-0.01473190253422,0.199701567119192,0.179686327378654,0.107650986172697,-0.00180695635202,-0.13030760335658,0.18382025203349,-0.00217063381724,-0.11379081152073,-0.08835966288129,-0.13850856615062,0.0282128141987653,0.115180927108644,-0.09023097709003,0.0840479479785354,0.157628265273022,0.190413760456735,0.0910658768146985,0.173811523083052,-0.02255551371695,-0.19512062126554,-0.07110693127024,0.125273925239945,-0.13030461273087,0.110669144010358,-0.19114971434124,0.0987416656212882,-0.18288881655208,-0.15481818656154,-0.10951994377899,-0.09120794534625,-0.16897061708073],[-0.17281898454553,-0.0154675014094,0.153797958374932,0.141978056605719,-0.00780478923132,-0.17068202221293,0.203602839234398,0.0570491401559797,0.105910396108404,0.17428827665024,-0.02660848029735,0.158531597358951,0.0321653916238294,0.0500754598865051,-0.04643884200894,0.0848272702598737,0.0212778560179091,0.197527109914116,-0.17660288595593,0.197168784174677,-0.11742980580406,0.0739654180806424,0.152088959714441,-0.03177371252136,0.157128234971696,-0.15022086108223,-0.07605455198302,-0.07800066513949,0.111059291131874,0.0180176226006104,-0.18346570229563,0.0966018436860533,-0.03154445949113,-0.19655512315512,0.022512727493297,0.113486281723262,-0.16330852263071,0.122145569568598,-0.12788346585805,0.00525557678690952,-0.09209676904912,0.094675501404078,0.108832540493598,-0.02126034235061,0.049248266226987,0.0294400856842139,0.150273408257117,0.182305075989357,-0.02470355562535,-0.0685788693667,0.114470560052652,-0.04194272159073,-0.05349994482799,0.105591699473772,-0.07743775534248,0.00300443270800299,0.0822240090226561,-0.14324698697363,0.142214995051593,0.141561148188195,0.203148756229622,-0.04633043466512,-0.08960636983407,-0.0103259743362,-0.08406403289039,-0.02035713788123,0.122291211399862,-0.14123382403919,0.0508068149188325,-0.00444991346352,0.096178876812454,0.13958751863935,-0.05750957806502,0.115989937446009,-0.0690249224597,-0.10441114084372,0.167527125984795,0.137448375947375,0.0790425379549395,-0.20371126716641,-0.04564440642678,-0.11541957314226,-0.01248728969764,0.101227200847039,0.103011861856687,-0.09741077108325,0.0450748571048417,0.00371783626898087,-0.08209883048545,-0.01200480579779,0.0902487454467607,0.165851052349884,-0.0185565133372,0.00116724054500683,-0.126358649684,0.0691557275466345,0.0227217380091342,-0.19873181273559,0.00743454920105652,0.0794527887511993,0.0725886946851576,0.0750317508499302,-0.05103967571843,0.183022192152386,-0.02983687464751,0.173037994377898,0.193830004651518,0.0607913286440218,-0.01223240786534,-0.15364154681401,-0.10145391735255,0.190978348322168,0.0928737385766131,-0.01054147263241,0.160714883788712,-0.0800966633342,-0.09084634214437,-0.08152212910594,-0.0234485893491,0.0302987824713971,-0.1613933340686,0.0646061215867324,-0.13608574762344,0.152089004977588,0.187213321531436,0.0105475925646378,-0.16365053382862,0.140144223824132,0.0213770648919891,-0.16499462545784,0.190433204429183,-0.14981410054527,-0.04354317465403,-0.07595784368464,-0.15381425797721,0.196287293754836,0.0351539121268832,-0.14972760320429,-0.14746370926793,0.094155238960676,0.0238597103076704,-0.06372306186871,-0.04147865923497,-0.18313145194207],[-0.1798834637417,0.00698640185137858,-0.14643281999608,-0.0094745626387,-0.03128152424439,0.11395293615368,-0.16536242810555,-0.13145042454724,-0.12911299175498,0.137396601215733,0.169551236490473,-0.01533329456563,0.0369536493239834,-0.13637551368031,0.11386099196191,0.150381326530612,-0.13891430678221,-0.00272513157211,0.0132530642925915,0.0578898805811813,0.11811719194776,0.0470232261535261,-0.14343658699916,-0.1632814588911,0.00821073432023225,0.0476234553630971,-0.14884573785013,0.114139596122756,0.200071176990016,-0.18629604903413,-0.19783145016918,0.0976146342724039,-0.06160359540954,-0.08101973525359,-0.10239177405325,-0.09522717320473,-0.17908607679976,0.085549163301935,0.158715285022574,0.161891985800078,-0.13500362882619,-0.09686239734843,0.0701546519340183,-0.12875202506987,-0.19140902789645,0.00460314318400329,0.133604924568602,-0.11500242141247,0.179206233124043,-0.05802569272247,-0.11007737404203,0.178304376543373,0.139574816189021,0.100273185383718,0.126501633292317,0.201688926682478,-0.06002541562325,0.0206371357204451,-0.15765545713671,-0.12478064086125,0.0373094189461769,0.19181263132249,0.167550339445524,-0.05969069344088,0.02104016445667,-0.16189781000418,0.07980001112595,-0.05794744171624,0.182874238677144,-0.16814782213233,0.17468645894554,-0.07823005275322,-0.01803526157382,0.0689414015033738,0.0220164342488009,-0.02093891959773,0.0263157425586048,-0.13945504490663,-0.175828423394,0.133758200068386,-0.09344584916495,0.0556035867585197,-0.07388814071965,0.121621571004146,0.138725061109328,-0.12016111236698,-0.04625707770865,-0.11631567810204,0.0663937979147575,-0.03331445834715,0.168871178893563,-0.19502634761514,-0.19404223516326,-0.02181098334751,0.150247952419064,-0.18944387491132,-0.10912628854504,0.166557097092544,0.108209127689638,0.0667998438661909,0.0975752165780643,0.066131022881973,-0.13439250494803,-0.02937995078609,0.130191808602704,-0.12702869335562,-0.16988276701354,0.13532498356654,0.172137776926049,-0.19591933124208,-0.11454494822544,0.146283732583918,0.0973691167463658,-0.13306914328602,0.119734234842123,-0.09890821860453,0.191270492133459,0.128114161621823,-0.19706160697455,0.116140462969724,0.189400111024924,-0.10139687548514,-0.10532774699042,-0.06223111391097,0.123584744948267,0.173900112022899,-0.1417173461622,0.178891431498991,0.0691204749617916,-0.06218838850892,-0.09177493705778,-0.1938473944814,0.135268664851194,-0.15507171455849,0.187945660675321,-0.10862235620395,-0.12804726747351,-0.02361920552534,0.0203047521865351,-0.04762322906917,-0.11197186704766,0.117903899329293,-0.04528036912691,0.0777755837930059],[-0.01600577067876,0.13435934355027,-0.03494763167996,0.00840055470289483,0.176535933752006,0.0736527824700209,-0.01088776748975,-0.1083169278559,-0.02851933952282,-0.1294819633206,0.0656064766596325,-0.17683915455645,0.125544347197445,-0.03538318755032,0.152509496330652,0.0497093680517487,-0.05747029495759,-0.17395779291804,0.183658304766252,0.025426826494322,-0.16748246166767,-0.15052837014495,-0.1899845563541,0.0193924500948005,-0.05817862800376,-0.14930852956415,0.158547957699235,0.132184363726909,0.0329843744272214,-0.08590041117814,-0.19965761432116,0.192095306698822,-0.07768340797157,0.0790324657153166,0.185298217149197,-0.07681965291527,-0.04668881911963,-0.15894642748339,0.128710820336859,0.0480062209580706,0.143267741668778,0.0266037362181313,-0.14813755830103,-0.02063194892253,0.0251803356835481,-0.12694608310492,-0.17037729833957,-0.03778907755751,-0.18492041028037,-0.05984706921384,-0.1068838843556,-0.11270868247043,-0.08008150943715,-0.14904274419083,-0.01410228166226,0.0078957701059616,0.103840979665279,0.160458614098444,-0.13920440626853,-0.01464189590751,0.203548450980162,0.149914155747716,0.0162745520590331,0.122240640895066,-0.12461016310685,0.155215501972983,-0.13815434341678,0.0742619213198967,0.0886781776154351,0.134249497262072,0.108667914516289,-0.15241443790012,0.0439845032954116,-0.01375897283317,-0.0034878445593,0.135797387091532,-0.006078859176,-0.04445748836398,-0.1459766880871,0.161387598322221,-0.07925733564768,-0.09572588164656,0.142588127843198,0.105436819242974,0.0704460919644908,-0.02530892848643,0.111378545590122,0.127910489829043,0.0345449909291963,0.113687356272544,-0.10319255184616,0.132024748724301,0.0440815723094267,0.0673083182622619,0.0344667272656453,-0.09842782498322,-0.13557782085145,0.0592188185936164,-0.08871922132715,-0.12161750643627,0.0588265558185048,-0.12667917093322,0.168536058570497,0.0150080174759274,0.0861376426487848,-0.11053506791648,-0.06888589244546,-0.08709082188817,0.022664422558392,0.0947875267821328,0.0287271912744761,0.112196051849693,0.00408069125528052,0.150388017176333,0.132640054716454,-0.08247547195319,-0.17889398450569,-0.06254547456261,-0.06775088924481,-0.17811261787054,-0.04772960486905,0.155325279486848,0.167993678454125,-0.08082767221159,0.175112876363958,0.0905013460877834,0.0101348587405808,0.0769806819424594,0.0723217603291864,-0.09932789011189,-0.16233653107278,0.078675925288977,0.140711517832332,0.190593233892582,0.0933342015716202,0.0463195649361655,0.0572889608726141,-0.16440230293137,-0.034613938929,0.0415191330891251,0.0819248395150037,0.17693624556405,0.0912268547939931,0.139658299997573],[-0.17697891328982,0.0675172464206723,-0.09700568479787,-0.16985266793157,-0.05137925050388,-0.07624249147213,-0.09142149104567,-0.18731200925031,0.0995318873961358,-0.04874406040555,-0.03021829666891,-0.09203831505881,-0.021281100506,0.0104312093265737,0.158073558604181,0.202852654819691,0.0862146578261066,-0.03853338753306,0.101738406258423,-0.14028572839758,0.161829903941643,-0.10767837700919,0.0364064759191616,0.153672024215752,0.165457417218072,-0.01125820673843,-0.00616794267478,0.154839287537138,-0.18466890438555,-0.03425069007662,-0.12286442419054,0.163502450115976,-0.01436869260682,-0.19556330159923,-0.06113329932432,0.13729569767222,-0.20247480015749,0.131898163475376,-0.10327659634161,-0.04559575235978,-0.14822419482704,-0.11035048921059,-0.14800022982494,0.0492799903624218,0.157384348725384,0.0422808423534797,0.0566093455815925,-0.08704451824245,0.075076513425852,0.0503793323979363,-0.09334581664864,0.000295081884027132,0.0657535344883916,0.145220343377523,-0.19900810454389,-0.18784165022245,-0.05606079275445,-0.02033452384594,-0.05410128808543,0.0113904514220678,0.034082163853006,0.134557223475592,0.142446037048858,-0.07174368540548,0.168781174410531,-0.12349940398214,0.018408537005307,-0.02655593885915,0.165620041708576,0.181452965911816,-0.03307352514718,-0.09721466403688,0.10463626471972,-0.17928055528053,0.0617937288267041,-0.05128856731668,0.199417226597476,0.152953362949506,0.0620932777361619,0.054204475268169,-0.0346158927548,-0.15274525454397,-0.00153038545919,0.0524003254480236,0.100427708219865,-0.15580792362542,-0.18664792701027,0.094399136373167,-0.18033599712381,0.201609688540064,-0.14807424666552,0.0277936216660298,-0.08539406413829,0.0931257955149748,0.0645492404096338,0.145212844800863,-0.05375625074066,0.0603514388774096,0.167545369296391,-0.1312022950197,-0.10810833136458,-0.18033146627458,-0.05310620686512,0.11768505626203,0.0124545940375416,-0.06250477517107,-0.05519027904529,0.023689629949761,0.172848891055118,0.0595720984801758,0.112897610350124,0.0526783172459064,0.114162037798973,0.168565641206354,0.0199116619502923,0.168336991501282,-0.15771248282093,-0.05199253972136,0.0999232463564818,0.0664514830357713,-0.13613187417939,0.0896718462189093,-0.01762293202067,-0.14375002725561,0.150255219289208,0.116129713463648,0.138468079990775,0.0531917710753239,-0.05661625397718,0.0453042280900184,0.134823584350725,0.0147825079931675,0.193264683799764,0.198275769286982,-0.13449789503347,0.147918034741178,-0.1762793792213,0.0264524781733012,0.183386553509248,0.1658764678731,-0.06179602870882,0.0203269522183893,-0.13490382771416,-0.1927243453443],[0.178713351687846,0.0882599659207415,-0.12936560439576,-0.13523708809619,0.153542070863708,-0.15739451986743,0.167631107370011,0.0482735588822323,0.135433194340274,-0.07117449135963,-0.16285445259599,-0.01606314458027,0.166965438868112,-0.16092182673077,0.143944209079507,0.0701399397414574,0.0475314617408102,0.176609992834182,-0.09036299605163,0.0498390038380563,-0.06148321243914,0.182723060048022,0.191291476760522,-0.04435470527664,0.10104561288486,-0.06328960668615,-0.11557924543332,-0.15579565525228,-0.03611762054944,-0.13121066022066,0.188096272366451,0.130294542551417,-0.19556649063997,-0.13370842832897,-0.10160782307455,-0.18699205837347,0.0731273880105719,0.164770628404829,0.0781108532197364,-0.03412188026423,0.00433528120582197,-0.01598147819247,-0.07842398804715,-0.01060459767809,-0.0843139332497,-0.12884770370835,0.0140029071627016,0.178323724300089,0.142824012541249,0.197210249782608,-0.04846207328307,0.103662949315955,-0.03115003512366,-0.17503757082562,-0.13742426169314,0.116364019761266,-0.15330348199725,0.19578624324339,-0.07327885588663,0.110012705985672,0.0863789379377114,-0.03005266500568,0.198921641247903,-0.10613646573573,0.121899479366174,-0.00379348664679,-0.09518610049686,0.126793309595372,0.192719155968471,0.130354261937362,-0.13622018546348,-0.00166671025168,-0.05956394278247,-0.11880448884787,0.147040403546578,-0.05164437776494,-0.14004524649241,0.0119687978126208,-0.09740555275598,0.112667048242791,-0.04627402175624,0.173484786026644,0.149759100438348,0.1068112703619,-0.14489155864121,0.0252892681822166,-0.09811387642734,0.0768231075303421,0.0522269453333867,-0.11237741966886,0.119575884369782,-0.06549981909114,0.1874674752582,0.0980612756323062,-0.0253974553722,0.0796141102881738,0.174836836251946,-0.0187020390131,-0.00365182352606,0.198805840990955,0.168144731903093,-0.17629891697984,-0.15675901419076,0.0560939551370167,-0.06219449563836,-0.04909511813503,-0.06795271027831,0.00958157520095981,-0.03723564600775,0.157567219915871,0.125370979215212,0.0757416061477344,0.0476906645187571,-0.025968811261,0.154470149792424,0.0389536791551597,0.103747304719942,0.10953455514636,-0.06328417609512,0.0850650250347056,-0.01145730618262,0.191121205402446,-0.0242852328708,0.0192782530704695,-0.07584191053009,-0.00997098456144,-0.03502103975067,0.0313590470061734,-0.14392541362145,-0.17788972012891,0.139129969666274,0.0501468898404015,-0.15948586508194,-0.20266856795199,-0.19409794342649,-0.1915053080956,-0.13150760806333,0.120827750435024,0.0652245238521301,0.116669002605776,-0.19984832987949,0.101586966193415,-0.09176664322351,0.00825037389390959],[0.178245731012097,0.162463955239746,-0.04253065616374,-0.16143520954947,0.139490591334302,0.146686131299166,0.14597978864813,-0.06924944002129,0.0960191308652011,0.133518464706061,-0.01053837963909,0.130154823424181,0.144682445340847,-0.13896082168988,-0.16129590490441,-0.05136696202615,0.0713519861189246,0.160560451364981,0.16580414739462,0.0356848770913934,0.0217240720454474,0.0349941551398914,-0.01189952620564,-0.04531678330942,-0.0677124730057,0.0729121729848689,-0.16725665249207,0.0886054406060077,-0.18359417011452,0.193641501723137,-0.19794923306222,0.0156488756363568,-0.05251090134782,-0.18394082813982,0.0807268849898218,-0.1446965512601,-0.17902755341382,-0.07174871020312,-0.00196334981867,-0.19467188379491,-0.10430988765103,0.108954908818568,-0.06301283518082,-0.05661228788951,0.155151318218366,0.00272749736177236,0.0251967030747116,0.166864605884988,-0.08392732075749,-0.07674110583098,0.161381297878674,0.149215481341618,0.103152218009203,0.0101562400833942,-0.00550950795172,0.101191047769281,-0.12956850460425,-0.01948707805305,-0.14570659153434,0.18483123517179,-0.04623381481745,0.203795465296054,0.0972958812264165,-0.13805020929003,-0.17027014866011,-0.03721938477562,0.115417047087667,-0.1767847444677,-0.19798755983243,-0.18460873117374,0.0301989617491315,0.112574237795283,-0.13060071129914,0.15580657218417,0.0511444638135886,-0.09160807365635,-0.04685947911174,-0.11044145484152,-0.12579155747029,-0.13462155059973,-0.14020777734764,0.0785403120365539,-0.11584568100919,-0.19050609257319,0.109581930027764,0.134034768259317,0.195867157643758,-0.05941750701596,0.132041144896043,-0.05387812800164,0.100241094292129,0.152828156857982,-0.12588625150669,-0.04022040081672,-0.09996168435722,-0.02399746173907,-0.12667835517204,0.188839310676912,0.0466807971089953,0.0792118261961412,0.0840891869617546,-0.14392062142219,-0.01572788060557,0.11359286103636,-0.1815354720402,0.0939225172297751,-0.08165546582912,0.0396560612736226,-0.19012847856057,-0.19122633978688,0.00627739276196007,0.12660595135529,-0.04624411412885,0.108188402903783,0.0375624659482372,0.0172897132934945,0.168463358875522,-0.01161957998768,-0.17419762115649,-0.16785478335925,0.0247991340226641,-0.07231120460657,0.0862677072733375,0.114564383826109,0.053699075510391,-0.19731585987553,-0.05368555363385,-0.17793990603978,-0.10521181915878,-0.14917404913613,-0.19867492079009,0.0950553657861225,-0.07420863018107,0.130445340559426,0.17582572683129,0.112262215992179,0.00953617212796892,0.0946734081723999,0.105141463245154,0.00902163820622115,-0.09753994120876,0.132116259048126,0.0198367112527887,-0.04031300388098],[0.0260688894195317,0.0298706952281589,0.109960476166081,0.0071677373899478,0.09577610754122,-0.05333561312004,0.0880720743350429,-0.04017093069259,-0.05819129818006,0.0867034331084383,0.0353173983036264,0.148510795719046,-0.021593395988,-0.06537351207233,0.113363565042844,-0.14604322417288,0.127953636566604,-0.17615275611153,0.169964339758327,-0.09531403487455,-0.00870458386898,-0.14306052133056,-0.10476047125301,-0.03824896415207,0.150211848228814,-0.12003513627597,0.0855368334529888,-0.13897941662715,0.0482668583017035,0.100841309035908,0.108588798770787,0.0800023188631806,0.163378794349013,0.095636741853441,0.0960841646179687,-0.19147854649886,-0.17323392171199,0.114935700213401,-0.05075323194733,0.185128673782523,-0.0753129036024,-0.18025129567248,-0.00105640292495,0.133724137483876,0.0921849768980116,-0.11406590408183,-0.11106107123361,0.0502276873274358,0.0545670942005905,0.0190527603588836,-0.17302356881291,0.0743810128433485,0.176903497834261,0.170094307078738,-0.13030188469702,0.172957972057503,0.0240769906271325,0.0689173472046428,-0.0317936412795,0.0279432225486695,0.143088682336459,-0.1010422167305,-0.1441706573692,0.125922661760295,-0.14162016916327,0.118733976692222,-0.06304091845006,-0.06127711822967,0.118488363551838,0.0121322478350694,0.00464045042528741,0.0661470560898617,-0.06681886733172,0.0752510300531895,-0.08333194396973,0.0960784132656498,-0.13307084018182,-0.16766899194038,0.0053193637167788,0.194992946573254,-0.09001139249124,0.083262342492281,0.181370712579204,-0.06684739679367,-0.07017682379578,0.175254916999914,-0.19835715239612,0.162100087694353,0.104162209789976,0.0417216759053181,0.204092863688642,-0.17618986172664,0.12346517623173,0.167690868886487,-0.15633454153188,-0.03314761221097,0.183165608529899,-0.13627055987192,0.0408108064409824,0.163774489802923,-0.06192311695321,-0.06562580334044,0.149203660491866,0.103217542327684,-0.1848958950968,-0.03111261418555,-0.08639963445941,0.114331187704722,0.114207154064135,0.0803251334901318,0.187351720348201,-0.18108694389304,-0.05481172799666,-0.13458183477727,0.146820142986601,0.00448728786173444,-0.03264802661654,0.088958847426058,0.141575322006954,0.146677756262811,-0.08685524990887,-0.06595349922141,-0.19394192560728,-0.02819984216658,0.193986641669123,-0.12724968603826,0.0628170096990405,-0.01437222742723,-0.19344902800793,0.133121003629403,-0.15036432598628,-0.17869775365114,-0.02134972727066,0.151075351901683,0.0896827091789143,0.172653140923644,-0.19056190983625,0.100005001460588,0.126311657251576,-0.04663855009092,-0.12569030798333,0.105742972210174,0.076960450807877,0.107148189343798],[-0.10247253987826,0.0395738157486311,0.0826105675170711,0.165059048871683,-0.15268742009969,0.108699848090149,0.203989704022158,0.195995439134782,0.098512651450041,-0.0224687192061,0.084942852688071,-0.06523130027359,-0.11958121918299,-0.15432214724952,-0.13673642048328,0.0164986823244235,-0.11039289195829,-0.1805754226336,0.0138501340146651,-0.12264589788978,-0.00265970889255,-0.0167251099817,-0.10829029999512,0.169476624155019,-0.06777925116962,0.0449144464840505,0.135206851225128,0.161605656506267,0.140252388412354,0.152786579266534,0.073459229920956,0.145695658755326,-0.08675478046501,0.0946538929031739,-0.08733366275563,-0.19574633193093,-0.17639600921715,0.0370118178501974,-0.05690486690628,-0.14730020194806,-0.15671087104559,0.017583086996821,-0.10624604907589,0.0658760782033488,0.172189748591468,0.0741965988808834,-0.18478619973449,0.120987958464881,-0.08816613859055,0.19600608469701,-0.05026062866953,-0.06010867492739,-0.19534914582071,-0.15672622247077,0.040403649819995,-0.18128639671845,-0.11675161608468,0.0429695665535969,-0.13868242111564,-0.03464154808412,-0.19852441797197,-0.15738932701751,0.148138174517796,0.0432620764778813,0.121250138500114,0.00856707010183183,0.0979989171831324,0.117829401808683,-0.11450480767071,-0.17505764196275,0.102444390911504,-0.04035548070917,0.192749892833354,0.179797961746947,-0.09920478170432,-0.1339192632936,0.0731015521992656,0.0373142905946353,-0.00274200211137,0.0782921001927502,-0.0046654055753,-0.1686220454384,0.150785916163907,-0.00606199806217,-0.02331459884506,0.188900577375883,0.0000503100720057326,-0.12993514708011,-0.11742928657727,0.110203685734921,0.0493803955981224,0.0354691159133944,-0.15975803554196,0.086772415168035,-0.15048332068649,-0.07640398485446,-0.1380560784551,0.0672206721683247,-0.10949608690429,-0.15024530699575,0.194581506871695,0.0474462932254628,0.0675743030378658,-0.16501355298456,0.0807576920947701,-0.03520769001778,0.183801379859856,0.018651032243306,0.0867553228766427,-0.12688870577484,-0.18434236586195,0.110479274845146,0.0424761482470346,-0.16263920843372,0.128225617269911,-0.07373339657423,-0.03828592250033,0.164948853627832,-0.11076736367554,-0.18328597727219,-0.08181890381778,0.0502652468641341,-0.17188939295302,-0.03358270918759,-0.19905650115477,0.129834337797,-0.03009949850769,0.111722107492954,-0.09290051651139,0.0317433507471049,0.114351381539778,-0.10257113735913,0.176828082053282,0.145788104151371,0.139715471597981,-0.01947861400485,-0.0439376862927,-0.04808821612761,-0.07330174045402,0.0305049930584351,-0.02093572058,0.139631278375886,0.16808727954955,0.00440315225589732],[-0.04481625924725,0.142066505763738,0.0498341366774899,0.0660766693053613,-0.10279895691706,0.0442600223217284,0.064076942668914,0.0564324756699198,-0.05574119031594,0.140781314544507,0.0716708691771334,0.194694366392377,-0.11847802137611,0.163872261699334,0.1798865846453,0.141527201696281,0.110364812458141,0.0247429529887747,0.0401465523133691,0.0559445953236956,0.119154586703546,-0.07495669079941,0.123864674564257,0.0575621210764301,-0.00117831443232,-0.19339326987816,0.0111681371229287,0.0511069279183006,0.153963519986851,0.090349524145072,-0.12753150897081,0.0890882122486694,-0.04118740642076,0.0109987163445338,0.186666647879057,0.0426608737243592,-0.04344305174332,0.0808417592221717,0.200182416819294,0.00162984589227874,0.00823121870691448,-0.19632383577607,0.129782058219864,0.121200134457699,0.134070722193214,-0.06788009236184,0.119725888612171,-0.07121323298242,0.128126615113601,-0.13206858356885,0.156687689696897,0.128218286595967,-0.10973993249052,0.099310879365054,-0.04087043373269,-0.12972150058108,0.0473865797256867,-0.08128142427358,-0.05231743360217,-0.01083935185079,-0.08691096680324,0.163785101944201,0.181774717240189,-0.04872930125119,-0.03862573890231,-0.19128232571705,0.190035310248128,0.199944343347306,0.0191722486488205,0.159885904010436,-0.05840652282822,0.105584677480445,0.0948255330678807,0.0735028249649505,-0.181127790068,0.193390691959077,0.150812853573126,0.00947191397245906,-0.05072446661264,0.109141304492751,0.0834435083180525,0.0852272289316564,0.144888587750621,-0.12769896612982,-0.07103633905482,-0.14646655549932,0.18244395539204,-0.06017909768791,-0.13008469033761,-0.09515393378388,0.0425195193602254,0.131164851155187,-0.17035116283721,0.0306973215957272,-0.1206474954804,-0.07698843532506,-0.04515152085394,0.156007340206367,-0.17610229933322,-0.05234087711275,0.0197218237567982,-0.15307235054844,0.131499345916384,0.180797875217669,-0.19495506233878,-0.04064702659124,0.198003511644664,0.0700379954787924,-0.19106542137273,0.15205766397129,-0.10785186675595,-0.05029484453518,0.15937597215556,-0.16585782892211,0.175992664553979,-0.12329581973947,0.0490537845285779,0.118010808673541,0.113023549928329,-0.13639140460176,-0.16681020960952,-0.12015370634123,-0.19579594497148,-0.06626560070903,0.193396436381491,-0.01510722671029,0.131707649101383,-0.07110876889043,0.174177579326375,-0.19365243017822,0.0367571503032997,0.0788441404255493,-0.05690292217875,-0.08238914677353,0.159806704564109,-0.15535914368534,0.0982675946261332,0.0836849467600246,-0.03088533355559,-0.19369773529426,0.0746007137226585,0.181197680891066,-0.05842044496509,0.193963848585878],[0.187035262528022,-0.05726088736592,0.00439254754277504,-0.1525285194114,-0.0153071781803,0.00152001075333943,0.193810195001466,-0.00901404243893,-0.1839355672427,0.114211276741558,0.0152456384345848,-0.12985259390656,0.141868042634548,0.0816533424815081,0.0455439546797405,-0.01377896715008,-0.02640037695352,0.0399084897447929,-0.00757655103978,0.108926174339609,0.0752253997644428,-0.18442013010814,-0.18413929815456,0.202469960751328,-0.06457607837145,0.189495524529119,0.201072263003025,0.0433999640722592,-0.00432915509556,-0.04952012552346,-0.17111400055176,0.0703648443349734,0.188972015843749,-0.04948332359193,-0.08305887988222,-0.15172911564368,-0.18669884820042,-0.04456029081641,-0.0099818231895,-0.04541058553469,0.16695076022293,-0.15483388224082,0.0662173870960797,-0.01179056491941,-0.03083491413992,-0.15164702988132,-0.02990397723464,0.11459595208904,-0.1686803069536,-0.05464406222528,0.129678084889246,0.0530939638912836,-0.16106421578067,-0.08956160321341,-0.12663752583312,-0.18181788341431,-0.10334688868144,-0.0331496828387,-0.19974088100013,0.178759645091883,-0.16731964732046,-0.04137463180507,-0.18256829857526,0.0673635440269026,-0.06528300851363,-0.09746912485397,-0.04835209284109,0.0162196125778764,-0.03915090767708,0.155944954934474,0.0520602238265873,-0.18449652221214,0.0430989494515491,-0.11327550702192,-0.0451387440814,-0.15309104497174,-0.13937603528027,0.044651823720633,0.181253390832683,0.0273363535801914,0.152303049500933,0.0574920830619114,0.0233652617119034,-0.14792403707066,-0.08546645925669,-0.00306631737175,0.100634431031621,0.198216207284998,-0.12341155443234,0.0442831455346756,-0.10860559469587,0.178704231117519,-0.0300219963772,0.128023869725962,-0.07133591621466,0.0319658436830093,-0.0935682094784,-0.15584983351196,-0.15573143883522,-0.07214750184741,-0.05102866631241,-0.19631001473866,0.0302083012749657,-0.07486536430405,0.0641035856554172,0.0919431605030605,0.163959462744402,0.128588668011467,0.180824149718691,-0.1768897811782,-0.16586492865331,-0.10814578900442,-0.09780174712224,-0.14018903274908,-0.17790556988069,-0.0596975580482,0.0237460692626338,-0.09995474928776,0.00165131389777981,0.0967910999730419,0.143788083578211,-0.15552389890233,-0.18796349150667,-0.01635845493605,-0.1087362050431,0.147820350876602,-0.1141439226086,-0.11005994085352,0.0664067716301635,0.0166702736257358,0.00057122022161607,-0.13905830615628,0.0732252291270395,-0.07917206927273,0.193994962614234,-0.19248925777471,0.134973557668057,0.193017138623614,0.144122111661294,0.149117827073125,0.102361411762077,-0.10104489206543,-0.124278088397,0.0820639720409515],[-0.1176803148836,0.0367222498622465,0.0335771817969544,0.0221847848146766,0.0679465869968237,-0.06980538479301,0.111519267989148,-0.15528495109977,-0.16043331157919,-0.05694402608223,0.15444706859316,-0.20286802781298,-0.00438584311947,0.189573731953882,0.101745535055357,0.0733850727560877,-0.01641671133508,0.0452309450535706,0.0205061841177455,0.0694339539633057,0.00192214389201401,0.0708275371013019,0.0498451322668389,-0.08779881888625,0.0340866131073492,0.192244310182984,0.106276718924641,0.0332791130513571,-0.04021738882135,-0.14586917181055,-0.06900400871435,0.146110592941504,0.163987216239314,0.152355122295484,0.0697608419089315,-0.10692364579019,-0.01820388196858,-0.01637935760463,-0.15385363426466,0.0543688606072901,-0.10618136139843,-0.0596419371646,0.0131134841976156,-0.12059003980722,0.00441240625996042,-0.14305355434042,-0.13529916921173,-0.01453473005719,0.024320795068819,-0.06968074873337,-0.05493792887873,0.195270109142376,-0.05028060888948,-0.00310506710662,-0.0286936411097,-0.05053102291509,-0.11294163942074,0.00591047040330608,-0.07703072510557,0.111771845315475,0.10565012550528,0.000473058247541319,0.11222618926665,0.0217582206371777,-0.12843491509399,-0.07359734320264,0.087595759350256,-0.03807573842996,0.000343448065909774,0.185513947857094,0.047042853130298,-0.05759388928191,0.179930476330774,0.0278660315215995,0.0214615774739755,-0.11865835656457,-0.00672398833549,-0.05718011160817,0.186104349801933,0.112243554647775,0.197888387806466,0.171293303289592,-0.04452959684017,0.124120818827991,-0.00802668172801,-0.11553613761415,-0.04409186620908,0.152615543426334,-0.1831221494391,-0.12416144878351,0.0307649822374057,0.126729309721404,0.14295283626514,0.112263884001438,0.113908193148023,-0.13250584842777,0.165830419117118,-0.11647644513633,-0.14226055870374,-0.06726780768543,0.00610034851885938,-0.11427432711611,0.0495026138429985,-0.14081502632489,0.0193583661266766,0.119950069642063,-0.17739188590495,0.111998535133793,-0.08242064477007,-0.00871298764902,0.153649819851286,-0.08545842844832,0.109768543842174,0.0643570562564195,-0.19315624438257,-0.16570889609502,-0.14547691814444,0.0886524933078729,0.0909346316902134,0.109902679826935,-0.08624967668379,0.143752186361292,0.147947862691483,0.0717207554810508,-0.10492227740496,-0.14976825264578,-0.03024917194136,-0.12896929230192,-0.05787697460752,0.148132183064676,0.192673242026205,0.0115134558321681,-0.06481408117482,-0.19632077133891,-0.07377337706822,0.0179134932556571,-0.0109529962249,-0.05548804218743,0.055996227768303,-0.03285103386133,0.133855328824979,0.160755158952018,0.0731665715620304,-0.07820124162809],[0.17061150725923,-0.07206360726257,-0.18999854064531,-0.02158516173918,0.167238230810882,-0.08034458844296,0.172490467490704,0.18121357390601,-0.16009998728229,-0.05024641881956,-0.01942542335272,0.0641260561318401,-0.14853924687766,-0.16383938760683,-0.19608379505343,0.122694902721151,0.135421099523646,0.128317698279228,-0.14840347126171,0.0192551255972928,0.191298258349733,-0.04228091793138,0.0568256006194515,0.15195973494693,0.199645940115179,0.0289951776461041,0.191865186056641,0.138583912582084,-0.06477258685875,0.188909600376763,-0.1159599330046,0.0918035923973604,-0.10665197823673,-0.00054463788396,0.118276513130302,-0.07702580084527,0.187954749961272,0.0882052037784452,-0.09789376704743,0.0174616452075528,-0.11331564165799,-0.082630111856,0.202212827519113,-0.08705350360741,-0.08747014079665,-0.04086682160152,0.153908002417884,0.0571198828401626,-0.08000767690904,0.0466308835701636,-0.17227371400575,0.0416139622436971,0.0454345650258687,-0.08658998504481,-0.07629863820455,-0.07871248035277,-0.12521022388124,-0.1687372035468,0.101057472302868,-0.10181125964888,0.199801716777166,-0.10471780181993,0.044028746509988,0.170661949310248,0.0739796646496817,-0.07701852263342,-0.03518057881655,0.115929028258051,-0.06936056869438,0.0732185461510212,-0.06814856884745,-0.07527278674722,-0.19244803317526,-0.1336901491399,-0.08735658922648,-0.05670836713095,-0.15189701781465,-0.09115960940816,-0.10834185800262,0.129736860542704,-0.03345192477726,0.117282045818294,0.167224626369105,0.154842630765776,-0.01120719290092,0.185062848379843,-0.0206766572341,-0.08694167507735,-0.0907996036022,-0.06070728095707,0.193496883970395,0.0209989897239435,-0.13720358407771,-0.19420906189595,0.0662897471086509,0.181902393643387,0.0108463729783974,-0.00548174354943,-0.18543560245579,-0.12407002201162,0.108620261819111,0.142809688707454,0.070361801330235,-0.01045447900126,-0.00678642342397,0.180780984633764,0.048964679913702,-0.01442846986862,-0.17391230947566,0.0807042272162562,-0.04252699300632,-0.00569446053338,-0.10593085171863,-0.08439694843679,0.156105570733298,0.150044424532763,0.0775182629562689,-0.10098634460284,0.0702419699704247,-0.1598290085626,-0.16474193562615,0.0640081302060838,-0.00189269060796,0.0565428516179177,0.138376691400702,-0.0132059201724,0.113635215352934,0.0724656483198212,0.190782866291168,0.180485352869458,0.092403430504569,0.0335441015692666,0.200471977708249,-0.03803394295993,0.0303235182807162,-0.16497984770069,-0.04576579164201,0.147335422963812,-0.13810136454622,-0.1727129772407,-0.04277372687979,0.0622754141983458,0.112804867987419,0.103337957752215]]},{"activation":"LEAKYRELU","bias":[[0],[0],[0],[0],[0],[0],[0],[0],[0],[0],[0],[0],[0],[0],[0],[0],[0],[0],[0],[0],[0],[0],[0],[0],[0],[0],[0],[0],[0],[0]],"weights":[[-0.32488147071817,-0.30334478519149,0.054243159207889,-0.27903915840361,-0.28099157219085,0.444738859616513,-0.21925967004653,-0.17015714573344,-0.10756759586047,0.312486403496186,0.29126606437255,0.29488745131425,-0.09111445202455,-0.41847763388013,0.348038155125748,-0.26541284415727,0.181786140818723,0.139941802443646,0.405289458018826,0.218155767506295,-0.02997528297779,0.37403354888959,-0.32240215884219,-0.35881217485139,0.324845790550957,-0.0915629255496,0.136251868274357,-0.33219936016419,-0.15356936250906,0.414637887585296],[-0.28779319503794,0.407635908086386,0.170051979721049,-0.21869589044549,-0.43073659053927,0.00289026245339175,0.100673091973542,0.374485953698141,-0.30002969778255,-0.36190413851302,-0.30891813461674,0.404332354784516,0.42729812971738,0.201635162826761,-0.41765072252595,0.0684782213387564,0.181989706221814,-0.27266207977476,0.0702588445270069,-0.4231009929705,-0.38674861198689,0.0300661378865136,-0.21265892843966,0.296721944115934,-0.05237664760053,-0.40953972295062,-0.44264860021863,-0.04198559192896,-0.16570860666489,-0.20477014050221],[0.419874188080682,-0.30552895988815,0.262664564489506,0.356350044131699,-0.37105759423082,-0.25585727641563,0.204896642058816,0.429071300903879,-0.23044658316905,0.302333560482361,-0.20980939807542,-0.02511165632279,0.0152073554601886,-0.41761076539417,0.370614431760393,0.323805785250505,0.269422096615127,-0.36965271408491,-0.26510982775427,-0.30923365230605,0.406377685809916,-0.35168264368015,-0.330756109973,0.290923429429237,0.294944375630642,0.256591202380992,0.130635458747096,-0.03172882965607,0.315177416659194,0.261012720288476],[-0.1040286684805,0.0207271584838302,-0.2742989292531,-0.39087160684998,0.254577615017994,-0.10906771977166,-0.18606528921255,-0.18967714514441,0.194067028867001,0.400447586523937,0.243156000531484,-0.44340365736531,0.323754943391111,0.396653000434821,0.0910885797013934,0.184040138662034,0.393884403694299,0.433446937526155,-0.21466691995889,-0.36830349692241,0.342982593681124,0.123252104888318,-0.26085152622152,0.0574258471656514,-0.22718773413606,0.048516670763455,-0.23693459962121,0.158461302540832,-0.28926780999048,0.40621908451701],[0.265564900495348,0.0296023939486255,-0.09447315719305,-0.40089980661557,-0.00803835947918,0.21577083946986,-0.13996693244919,-0.33634141487144,0.30703658322702,-0.29282048891836,0.133066496644691,0.381050179843395,0.321101072321768,-0.26466499709855,-0.30627647488314,-0.11300220085063,-0.33965990120476,-0.42256442441629,-0.17251446568258,0.252652084793934,0.34803870273319,0.0697406873296397,-0.1037988082765,0.432184877876889,0.444577999297933,0.169018314025744,0.0938880167970581,0.0422946498865457,0.123143681411911,-0.03175166409928],[0.170681187863339,-0.29988429035223,-0.28487443940113,0.13087201886912,0.331492659221725,0.188972713079022,0.402797353929605,0.0161846280537318,0.177296732581591,0.314441222577085,-0.23531651539712,-0.44191610371654,0.0276478716481758,-0.25375091094161,0.0334545002269224,0.233985096714661,-0.4006297058701,-0.0495052442944,-0.19024185196214,0.0947500906332314,-0.24793962810088,-0.12125849641368,0.203110138595132,-0.03709509433133,0.0586952377684859,0.15518407430331,0.409276594721291,-0.28107853610281,0.397351305464069,0.328632661105998],[0.226922602055468,0.0820530551362214,0.106445323491949,-0.06033422812858,-0.2934018024215,0.269139722324836,0.343201361068745,0.126647319320874,-0.1541592934476,0.178510319325637,0.263981141888495,-0.17517222456855,-0.28878504380723,-0.42390298473179,-0.10957175142447,-0.42603675635116,-0.39861692520361,-0.26883410522232,-0.24133933706911,0.164673362519412,-0.01700942002769,-0.24836527678709,-0.18586600803339,0.359635923563237,-0.30780190216163,-0.06766151489945,-0.3369133055177,0.192770156867294,0.275608428795965,-0.16196468677682],[0.330665229785148,0.148288135912918,0.0708673004949058,0.335148192007593,0.280237397349235,-0.35125109354337,0.249566166571888,0.112937799277462,0.0608557403331153,0.438563063853453,0.350529509868272,0.137811915101702,0.366523170378942,0.24800059950514,-0.00731004971114,-0.39887706369812,-0.34199822405221,0.394854398507728,-0.14386794953385,-0.42673030583291,0.335828558379332,-0.30924277094503,-0.37049103374304,-0.05856643211476,-0.13016399901249,-0.05073720920032,0.117372803212669,-0.4391138263698,0.0686498095500375,-0.28294320914293],[0.00291745400746274,0.23236750954267,-0.08553562536328,0.324027290915204,-0.36998602600701,-0.13439401955542,0.425330891291534,0.35989132174516,-0.00354821848444,0.330268142216117,-0.18184750177759,0.109099530492075,0.339981656723756,-0.04027560536682,-0.39385262078694,0.0441945389091643,-0.05210982921066,-0.44708983115185,0.0577479201742114,-0.41282633404137,-0.29377681144238,0.138012708833657,-0.40585073091208,-0.31587458222783,0.323654400535947,-0.24210912970977,-0.18987250609574,-0.28169601748327,0.00727430467486506,0.171549383770783],[-0.12502173649947,-0.21228509039249,0.446165187960957,-0.06661578396162,-0.14530876900279,0.135851916758558,-0.08553127933846,0.258441184378783,0.269604933592651,0.169047176762046,-0.05537854333952,0.391385046269531,-0.21071571038938,-0.33890316921144,-0.03635988864158,0.17970323891166,0.427392061082167,0.20500087792153,-0.27694542559638,0.186008901776865,0.417727045674083,-0.20012260038738,-0.1287889086154,0.0473041690860235,0.0255877114927347,0.411935799366892,0.288083770947776,0.0294831399844391,-0.34042741144347,0.200975293669829],[0.0790616168408625,-0.31930990051173,0.342817292255298,-0.09370230177458,0.446280169594972,-0.23064262285925,-0.35900869919454,0.15254027408378,0.292617676388349,0.365170074139893,0.289195256967813,-0.17659422564013,0.0803588232139147,0.31024163566846,-0.08119051054192,-0.05969579996836,0.0856204625120503,0.109402443381375,0.0682373115409549,-0.1261085676548,0.00147356445850971,0.387155556623514,0.0221350136333498,-0.29213868381933,0.0392978836236657,-0.43947323359529,-0.0972662953344,-0.31050565114441,-0.1952693488777,0.443843857262475],[0.288833664080533,0.154626489288871,-0.3161452893068,-0.17488796006474,0.259830521541118,0.0172033789181581,0.284882269092831,-0.23278346083918,0.157015568937564,-0.33910966234709,-0.00056923153401,0.383336535895635,-0.01676961006142,-0.20026309805721,-0.42681459693205,0.121664669193112,0.0366147209488694,-0.05435100309473,0.0741223116833225,-0.32074185672763,0.177872878364069,-0.16860400524318,0.317639678098576,0.290548081236646,-0.05653411646668,-0.40023913765234,0.385297168915707,-0.33232999005385,0.16554315119219,0.132409483512796],[-0.31290327701659,-0.19612251035369,-0.06069567523196,0.145470707971163,-0.23889323460977,-0.12593912785146,0.045468648371297,0.113105035784829,0.313979239391184,-0.37357624241593,-0.12094013983155,0.223298476910452,-0.14969678642519,-0.4020804505684,0.307466374,0.125606090309503,-0.31771985639392,-0.23061394600817,0.12131872899276,-0.3624038915123,0.170461107990069,-0.03848437727714,0.0557397711612236,0.185847330768122,-0.06872278681575,-0.26261138295302,-0.40129528032226,-0.26069121665126,-0.3858234139246,0.120423733830063],[-0.43014956417458,0.415767257234494,0.0986164321264076,-0.27916180167815,0.368258160815397,-0.20137573435531,-0.30251381430467,0.0641990930855381,0.247500876540531,-0.185253600289,-0.09506798500297,0.209268373854374,0.367844269284951,-0.39210208594836,-0.23887726819356,0.372310108258243,0.278328685165614,-0.26930651336153,-0.36439394208943,0.1293557966409,0.328761445437464,0.109937698458376,-0.03752345856866,-0.2849435132908,0.00198791209856802,-0.24940624633937,-0.16324990684138,0.233688104858937,-0.33490245977501,0.000417607910971562],[0.113744624233453,-0.35153781795886,0.355058698723029,0.39214815114101,-0.24556284315392,0.147563998579722,-0.02675314081605,0.425065279862441,-0.40394050917526,0.264476034585817,-0.02016298771194,-0.26348873473994,0.408232627359274,0.438837965972071,0.0508159337238976,-0.4447021863876,-0.16577211311382,-0.42004287654084,0.301912530263071,0.260930115179558,-0.09528304620049,-0.19393187483839,0.276865150815279,0.108070839211847,-0.0920260952861,-0.01658859444017,0.15304571219523,0.208593331443624,0.0164393303269094,-0.43460014785973],[0.185580007557622,-0.18541874159907,-0.17947226616162,-0.00950374103164,0.396215242761188,0.108292900647528,0.327620403350235,0.26685483273267,0.020980137905109,-0.06996644706527,-0.43890040305412,-0.24163513291182,-0.16244324084194,-0.19829912141858,-0.05302095586734,-0.35393062766641,0.320343787811597,0.39978858500444,0.29118027524052,-0.18763951175972,-0.1007276091799,-0.02014875725299,-0.13638931666292,-0.26604225136947,-0.29969318028538,0.0910836109253465,-0.27924241551561,-0.30271427200459,-0.24855397982811,0.324695868740867],[-0.14765592090447,-0.33334379969089,-0.38191844981295,-0.13839654515774,0.23953633539567,-0.19375242279173,-0.31214779544447,-0.4272162733276,0.0768604184298056,0.343799569239234,0.227569889378395,0.41653367259768,-0.38637317976281,-0.28339360100958,-0.049587146821,-0.24836067113976,-0.32264878174725,-0.2799803319705,-0.20179231417987,-0.05427684110068,0.180808430395186,0.285829903607448,0.33258516746543,0.266879809211129,0.0271515818877822,-0.01586210901132,-0.01949243929207,0.297104165122555,-0.12733390644624,-0.33820036020258],[0.316719310919793,-0.00449233476004,0.080981422839464,-0.21077574929332,-0.33641680063836,0.246429219181538,-0.36895278272972,0.226098678972523,-0.30845800456135,-0.07004190143047,0.417484694988651,-0.23195509250042,-0.18270936210005,-0.06690948775262,-0.25864758181315,-0.2626577550752,0.100127595356774,0.359027415210668,0.405606998772122,-0.14924384230529,0.284789636164596,-0.42456618113141,0.0533537701822372,-0.09749402798823,0.229482012909571,-0.34343389534683,0.15954963685204,0.232038192565384,0.197185710992269,0.2128470221731],[-0.30422988673377,0.28595511110595,0.175144215489079,-0.35479878332737,-0.28788642453026,0.0274988094279261,0.0478899648470076,-0.22396831786153,-0.14829491407365,0.0229619493060771,-0.05121392479296,-0.1583377358343,0.228104515030571,-0.19712518239104,0.150258463228957,-0.42758776506125,-0.38651773067278,0.442275842943616,-0.16410670272254,-0.16221363167706,0.0868270382513626,-0.02667054300149,-0.18911423111312,0.0873266545246974,0.348039657985522,-0.31652716115432,-0.03800611905492,0.0189226257707223,-0.13517976645071,-0.39824346937607],[-0.09047744278451,0.258927141896357,-0.398292366861,-0.35260722559404,-0.32542802321325,-0.08034030773266,-0.18117674693034,0.188595278710059,0.354915889407492,-0.44314638256131,-0.09703808699222,0.302364662568805,-0.03728807220832,0.297307335507575,-0.08273221817984,0.0931391241606019,0.180799340789012,-0.25047074678529,0.258730188058204,-0.30534024388346,-0.17937967304753,0.263400423783916,0.189535351891098,0.178236465528047,-0.37168612991297,-0.02387211957438,0.375615476137777,0.226282675319306,0.0999111482022159,-0.22282977339466],[0.0183346860655092,-0.41130225170988,0.0847587353565712,-0.01465268884534,-0.11728020632877,0.0302343445060993,0.126327090168371,0.00928025708982322,-0.38213834913285,0.230914892778273,-0.02361097287624,-0.39028564465341,0.268275856331062,0.336327508109473,0.36003033692076,0.431277625096917,-0.34365595361657,-0.1801076707819,0.245601967604768,0.342899031737178,0.426444400327571,0.208514275242125,-0.384710264765,0.24428871426309,0.0374562196756378,0.300565907326855,-0.3661681863233,-0.15639448013761,0.0085364537028248,-0.19156041258324],[0.438632754818046,-0.1240694476375,-0.17161170681218,0.114667193799357,0.0612210574414049,-0.08616203254271,0.00212925573783379,0.181917033654105,0.329210089981392,-0.02200666162733,0.273985824466,-0.43821844875011,-0.23921607244666,0.281049998201054,-0.2518269685828,-0.34188325416738,0.271506859444882,-0.0946572071721,-0.1735356373505,-0.0628423375644,-0.30810459391109,-0.30525528113803,0.421230983900786,0.392836630761993,-0.10259825950354,-0.38955394350019,0.19541610059987,0.022520475519284,0.134354095178439,0.225096016720865],[-0.15995482080197,-0.30749108522346,-0.28701704995726,-0.13518787972369,0.346021764759226,-0.03842083722344,-0.42386021936,-0.27639601077001,0.426617524112067,-0.26805811037799,0.406139384732256,-0.37144762786925,0.302596832997368,0.062204709857003,-0.3980058514527,-0.11683210852181,0.0981921359395247,-0.19612821450649,0.0715983297300554,-0.31345203494347,0.298430071158962,-0.07954011291524,0.257789938082483,-0.27327895088016,0.102306259923329,0.0634250424429276,0.323876350325922,0.193317861752951,-0.03846184781315,0.112795193530968],[-0.39231178856989,0.0385159073950707,0.106982379863289,-0.37725045726398,0.430520634969231,0.38501062303398,0.412323743133659,-0.15651540740071,-0.02307001995539,-0.42690395276826,0.220164412530173,0.106682843812464,-0.23646732452659,0.0601448452984494,0.408861297373634,-0.33768706302998,-0.19245458125928,-0.14940088308008,0.40678127091005,-0.18575872569501,0.279833029625835,0.178305817421414,0.224624706682616,-0.14345274227116,0.181038927294935,-0.22778821858453,0.413493045163618,-0.39234113034298,0.17768337861312,-0.10150870847696],[0.312287552838414,0.421306897589652,0.191807170509414,0.297360084664716,0.3428829065384,0.415906143091264,-0.19235068616523,0.432536438512361,0.346710626288779,-0.08552128563546,-0.04662326901243,0.163278753482236,0.396295969466632,0.402469874221026,0.242526953906757,0.359243531760882,0.373689535762085,0.128030538188088,-0.33762644936931,0.0724667144377731,-0.31516746428911,-0.07784274989539,-0.08515198501082,-0.39515905172146,-0.26487923346092,-0.14197608681587,-0.4190822013093,-0.41169218363577,-0.28564106555367,0.134859611377041],[-0.36332172293164,0.209925155808294,-0.22924559118751,0.238975558120823,-0.20539557139645,-0.24585406746001,0.251500817505307,-0.31994441621371,0.0895298156661686,-0.03071909306768,-0.27491624673437,0.373588323722417,-0.12651635989995,0.189460252007244,0.245501000777455,-0.19070854007052,0.230051964572427,0.140451025746545,0.00410320692567856,-0.02775830218773,-0.16198743510257,-0.41017703596764,-0.28170732409745,-0.22939491158624,-0.16181801055166,0.440694890329585,-0.1662518091923,-0.27388801303983,0.424663906730421,-0.09074872203287],[-0.0910800663433,-0.34872616519458,0.281889842441632,-0.36426917814409,-0.17752826185974,0.132252931184153,0.39641358386396,-0.1794458950085,0.353187157804252,0.224207517899317,-0.30989615635869,0.0500440347039202,0.297020781523061,-0.21924915768056,0.207089822317392,0.186975863605419,-0.10990506166972,0.0579159820111487,0.215438522401325,0.135377237811225,0.0488355185841958,0.408556702511255,0.0220832194207721,0.311046893860417,0.164369289666255,0.159443443378522,-0.35569324982561,-0.14336168362594,-0.33937519425709,0.200691256182781],[0.38223410334497,-0.09062019190231,0.0790934027343738,-0.01003630219576,0.144332844922404,0.0975925336343094,0.403554644700566,0.0419751907229424,-0.42301842326751,-0.41457119104195,-0.17132520281514,-0.34160254223255,0.154310872126108,-0.16582331281794,0.182045793521917,-0.39038648855368,0.0459777246102544,0.0854686961542155,0.376384670648551,0.388406181096505,-0.20455458112813,-0.10269788746771,0.357261156939095,0.404521149185139,-0.18483261926838,0.0632063113568486,0.31462370353616,0.421608777272279,0.152989065389057,0.39379522515515],[-0.06678076586862,0.172944487153847,0.193191302516522,0.141468019152559,-0.25992742212448,0.0511370120433693,0.181292590680012,0.102822143582661,0.257328294311711,0.423775493309748,0.384617719395042,0.0794667678421321,0.340860230860692,-0.01688467297838,-0.24093519921891,-0.35195708203897,-0.03968126267356,-0.30496003473255,-0.44323983131315,0.0317617789697091,0.045255966942929,-0.31915136050459,0.410633134005896,-0.4351715374594,0.367688471486136,0.287759714712891,-0.31468392546807,0.105012377962762,-0.40187204160771,-0.1298218836431],[-0.41856605323431,0.151669327592952,0.0938413865918604,-0.26226914356162,-0.07530590339727,-0.16643423269427,-0.38922615841494,-0.31149643082425,0.205951216600287,-0.23965891316156,0.00432011569201513,-0.04970226700505,0.00257391504644894,0.126700742135314,-0.29064575395396,0.239009302527749,0.381256926033398,-0.15907992940723,-0.13684218020663,-0.44697389223896,0.124549623307506,0.256627823333599,-0.26816453907981,-0.38658972069338,-0.26141027060564,0.334440402080763,0.24738615682976,0.321842024129496,-0.20507779289816,-0.16943658576384]]},{"activation":"LINEAR","bias":[[0]],"weights":[[-0.40832378787576,-0.33383773364442,0.178015480844191,0.142021310030474,0.348210658870985,-0.44248017927498,0.0648588026942259,0.22588189007827,0.0583730538888546,0.314549799591811,-0.23022162346742,-0.20657127612734,0.321861099277823,0.420308737557411,0.156005954429542,-0.29171113779742,0.307985819398123,0.354671629790554,0.198538616307735,-0.02196480130125,0.380572228317079,-0.14725403304928,0.16838500486772,0.0520472338680381,0.379948216371111,0.411347908393807,-0.3103254495985,0.326777911622892,0.154332543135804,-0.37012379803397]]}],"t":0,"training_gradient_threshold":0.000001,"use_amsgrad":false,"v_biases":[],"v_weights":[]}
